0,1,2,3,4,5,6,7,8,9,10,11,12,13,14,15,16,17,18,19,20,21,22,23,24,25,26,27,28,29,30,31,32,33,34,35,36,37,38,39,40,41,42,43,44,45,46,47,48,49,50,51,52,53,54,55,56,57,58,59,60,61,62,63,64,65,66,67,68,69,70,71,72,73,74,75,76,77,78,79,80,81,82,83,84,85,86,87,88,89,90,91,92,93,94,95,96,97,98,99,100,101,102,103,104,105,106,107,108,109,110,111,112,113,114,115,116,117,118,119,120,121,122,123,124,125,126,127,128,129,130,131,132,133,134,135,136,137,138,139,140,141,142,143,144,145,146,147,148,149,150,151,152,153,154,155,156,157,158,159,160,161,162,163,164,165,166,167,168,169,170,171,172,173,174,175,176,177,178,179,180,181,182,183,184,185,186,187,188,189,190,191,192,193,194,195,196,197,198,199,200,201,202,203,204,205,206,207,208,209,210,211,212,213,214,215,216,217,218,219,220,221,222,223,224,225,226,227,228,229,230,231,232,233,234,235,236,237,238,239,240,241,242,243,244,245,246,247,248,249,250,251,252,253,254,255,256,257,258,259,260,261,262,263,264,265,266,267,268,269,270,271,272,273,274,275,276,277,278,279,280,281,282,283,284,285,286,287,288,289,290,291,292,293,294,295,296,297,298,299,300,301,302,303,304,305,306,307,308,309,310,311,312,313,314,315,316,317,318,319,320,321,322,323,324,325,326,327,328,329,330,331,332,333,334,335,336,337,338,339,340,341,342,343,344,345,346,347,348,349,350,351,352,353,354,355,356,357,358,359,360,361,362,363,364,365,366,367,368,369,370,371,372,373,374,375,376,377,378,379,380,381,382,383,384,385,386,387,388,389,390,391,392,393,394,395,396,397,398,399,400,401,402,403,404,405,406,407,408,409,410,411,412,413,414,415,416,417,418,419,420,421,422,423,424,425,426,427,428,429,430,431,432,433,434,435,436,437,438,439,440,441,442,443,444,445,446,447,448,449,450,451,452,453,454,455,456,457,458,459,460,461,462,463,464,465,466,467,468,469,470,471,472,473,474,475,476,477,478,479,480,481,482,483,484,485,486,487,488,489,490,491,492,493,494,495,496,497,498,499,500,501,502,503,504,505,506,507,508,509,510,511,512
img1.png,0.00025419556186534464,0.04073915258049965,-0.029502222314476967,0.031884074211120605,0.019266419112682343,-0.013503549620509148,0.0819820910692215,-0.0255697350949049,0.08026684820652008,-0.010196889750659466,0.00826770905405283,0.022027350962162018,0.029068101197481155,0.03284443914890289,0.04319920763373375,-0.03869251906871796,-0.03912755474448204,0.007380266673862934,0.006350199691951275,0.03594958037137985,-0.05906534940004349,-0.02064143680036068,-0.015264613553881645,0.02607838809490204,-0.008289939723908901,0.006742003373801708,-0.05661608278751373,-0.043929118663072586,-0.03796355426311493,-0.034767113626003265,0.07904618978500366,0.0752229243516922,9.898492862703279e-05,-0.020548298954963684,0.050066638737916946,-0.014634002931416035,0.0545056127011776,0.007015093695372343,-0.018986795097589493,-0.001898239366710186,0.02599400095641613,-0.06298889219760895,-0.03454519808292389,-0.020887088030576706,-0.08155917376279831,-0.09062686562538147,-0.010656630620360374,0.05879806727170944,0.023128440603613853,-0.07292681932449341,-0.03134004399180412,0.0021911037620157003,-0.018362797796726227,0.002469802973791957,-0.026788530871272087,-0.01578272506594658,-0.02744479291141033,0.009765020571649075,-0.00037596351467072964,0.014166371896862984,-0.042139310389757156,0.09207168966531754,0.005126205738633871,-0.027894925326108932,-0.0008264867356047034,-0.01935429871082306,-0.009003379382193089,-0.06111474335193634,0.0540127269923687,0.007561872713267803,0.01459069736301899,-0.01977870799601078,-0.0301246028393507,-0.019579866901040077,-0.00017689296510070562,-0.03770894929766655,-0.0032283419277518988,-0.08058473467826843,-0.008901845663785934,0.04114954546093941,-0.017353396862745285,0.014506029896438122,-0.06365823745727539,0.0505780391395092,0.01761597767472267,-0.0488617978990078,0.051309406757354736,0.0070436070673167706,-0.02962682582437992,-0.031171651557087898,0.024340225383639336,0.08871649950742722,0.045716479420661926,0.002736401977017522,0.10143521428108215,-0.0066479528322815895,-0.033888719975948334,-0.05345805734395981,-0.07766935974359512,0.048353735357522964,0.003578213043510914,0.04080984741449356,0.004651798401027918,-0.020306207239627838,0.003668369958177209,0.02087520621716976,-0.010928506031632423,0.0602237768471241,0.03496692329645157,0.057370878756046295,0.05166707932949066,-0.0035125280264765024,-0.10788166522979736,-0.000863356573972851,-0.10063486546278,-0.05398676171898842,0.06423861533403397,0.003318024566397071,-0.11519606411457062,0.014210137538611889,-0.07575936615467072,0.023578910157084465,0.021235620602965355,0.038793303072452545,-0.09842130541801453,0.011347825638949871,-0.01521663460880518,-0.0633830577135086,-0.040767602622509,0.036374371498823166,-0.03097008541226387,-0.016036642715334892,0.11536911129951477,-0.054093386977910995,-0.01796448975801468,0.06402557343244553,-0.002814674051478505,-0.013643168844282627,0.03845788538455963,0.011964037083089352,0.007273605093359947,-0.016747519373893738,0.018294690176844597,0.06975866854190826,0.030851369723677635,0.03187674656510353,-0.09687358886003494,0.003435306018218398,0.08097667992115021,-0.03678875043988228,0.06503958255052567,0.014227565377950668,0.05204685032367706,0.00642468873411417,0.005244836676865816,-0.013614559546113014,0.036138102412223816,0.057889215648174286,-0.01387016475200653,0.003519771620631218,0.00641885818913579,0.027622899040579796,0.03890002518892288,0.05777760595083237,-0.0053243981674313545,-0.03882884606719017,-0.0566696897149086,0.04105987399816513,0.03971732780337334,0.03059384413063526,0.03026927076280117,0.022519396618008614,-0.052316147834062576,0.010436645708978176,-0.053905241191387177,-0.036007482558488846,-0.02406073547899723,0.002616029931232333,0.017219094559550285,0.024417346343398094,-0.11108635365962982,0.04427548870444298,-0.03111814521253109,-0.04044900834560394,-0.02840641885995865,0.018260318785905838,0.050278693437576294,0.03704670071601868,-0.049624331295490265,-0.014623482711613178,0.018137305974960327,-0.04882946237921715,0.002913548145443201,-0.033410798758268356,-0.030939120799303055,0.007878466509282589,0.031335923820734024,-0.022802336141467094,0.07795140147209167,0.03727559372782707,0.04454835131764412,0.018193406984210014,-0.003459263127297163,0.02401466853916645,0.08939535170793533,0.010124296881258488,-0.005214580800384283,-0.015650957822799683,-0.02742302417755127,0.058372292667627335,-0.09306622296571732,-0.07747753709554672,-0.04593298211693764,0.016403138637542725,-0.017053859308362007,0.02672816812992096,0.047518376260995865,0.00936792604625225,0.031462520360946655,-0.01742912083864212,0.006823911797255278,-0.012631353922188282,0.004878452979028225,0.012651855126023293,0.01857851631939411,0.01055955234915018,0.0669265165925026,-0.0017750993138179183,-0.0779283195734024,0.035627126693725586,0.0282118022441864,-0.02182762138545513,-0.004050892777740955,-0.04165493696928024,-0.029095720499753952,0.04476561024785042,-0.044102635234594345,0.1156291514635086,-0.010238592512905598,-0.10104477405548096,-0.010034386068582535,-0.047003425657749176,0.06553249061107635,-0.004991470370441675,0.04247890040278435,0.0014209323562681675,0.10096930712461472,0.024867380037903786,-0.006852983497083187,0.06793451309204102,-0.011094903573393822,-0.08786725252866745,0.02774074487388134,0.0871366634964943,-0.004341521300375462,0.0024151490069925785,0.025434469804167747,0.019970428198575974,0.045861609280109406,-0.016224589198827744,0.03294094279408455,0.068267323076725,0.07275482267141342,-0.08983491361141205,0.08080781996250153,-0.04398491606116295,-0.06749414652585983,0.0741562619805336,0.015873782336711884,-0.0019212086917832494,-0.002571210963651538,-0.11992727965116501,-0.04495391249656677,0.09625062346458435,-0.009655115194618702,-0.014415809884667397,-0.0696154534816742,-0.046681102365255356,-0.00940642599016428,0.03952287882566452,-0.02755683846771717,0.03846403956413269,-0.05771699547767639,0.015229015611112118,-0.09663225710391998,-0.07326821237802505,-0.10125141590833664,0.009924550540745258,0.017935704439878464,0.046220891177654266,-0.026659086346626282,-8.813092790660448e-06,0.04850213602185249,-0.03562488034367561,-0.007188763003796339,-0.03639603778719902,0.039240412414073944,-0.10037378966808319,-0.04199701175093651,0.01887398026883602,-0.053460512310266495,-0.006135070230811834,0.023933041840791702,-0.020763467997312546,0.020270079374313354,-0.01934283971786499,-0.06339877843856812,-0.006879705004394054,0.011328806169331074,-0.0447717048227787,0.03455210104584694,0.05912297964096069,0.029369642958045006,-0.0008643994806334376,-0.01300035323947668,0.030936285853385925,0.049203235656023026,0.00737835792824626,-0.030514143407344818,-0.09261032193899155,-0.009034262038767338,-0.021241623908281326,0.01386657077819109,0.09135465323925018,0.014808920212090015,0.03595200181007385,0.0029154641088098288,0.056154653429985046,-0.007234612945467234,0.010591262951493263,0.03023918904364109,0.048114147037267685,-0.02942546270787716,0.003462010296061635,-0.04012073948979378,-0.03386059030890465,0.028024407103657722,-0.005348626524209976,0.03671439364552498,-0.030045339837670326,0.05261284112930298,-0.07106883078813553,-0.036946989595890045,-0.09557687491178513,0.03546635061502457,-0.0759579986333847,0.014091922901570797,0.030115248635411263,-0.0559425875544548,-0.0034541096538305283,-0.06166531890630722,0.050066426396369934,-0.01839042268693447,-0.004430546425282955,0.05266384407877922,0.05461926758289337,0.04582521319389343,0.04788101464509964,0.133446604013443,0.012190848588943481,-0.03512213006615639,0.11923570930957794,-0.015339123085141182,-0.06931599974632263,-0.04615508392453194,0.046210065484046936,-0.07582642883062363,0.025659218430519104,0.013132846914231777,0.01563749648630619,0.018745172768831253,-0.04523848369717598,0.030323311686515808,0.06083475053310394,0.0026435174513608217,0.004477412905544043,-0.00020443550602067262,0.08971122652292252,0.03523401916027069,-0.0030580018647015095,-0.0026271077804267406,0.03057808429002762,-0.0018347599543631077,0.020749052986502647,0.017737744376063347,-0.0020342457573860884,-0.030594244599342346,0.03235899657011032,0.029224054887890816,0.0109357088804245,0.02323736809194088,-0.04514636471867561,0.00028276469674892724,0.0057170698419213295,0.017127536237239838,-0.04222864657640457,-0.06826701015233994,-0.008373537100851536,-0.06116601452231407,0.009031691588461399,0.01105197612196207,-0.038552090525627136,-0.027113517746329308,0.009922896511852741,-0.059698399156332016,0.0015448740450665355,0.05530385300517082,-0.044119399040937424,-0.015496660023927689,-0.009878762997686863,-0.00169245689176023,0.01769282855093479,0.0289155263453722,-0.0435008741915226,-0.023746905848383904,0.03191237524151802,-0.029076524078845978,-0.028148120269179344,-0.04963188245892525,-0.017395898699760437,0.041566215455532074,-0.04869631677865982,-0.10995161533355713,0.0941462591290474,0.07250691205263138,0.025395657867193222,-0.01374505553394556,0.0896986797451973,0.012441626749932766,0.012713034637272358,-0.014970003627240658,-0.02882915548980236,0.006376655772328377,-0.0367349274456501,-0.011344509199261665,0.0022405441850423813,-0.07831317186355591,-0.028873786330223083,-0.05024449899792671,-0.06472816318273544,0.005150618962943554,-0.016705622896552086,0.031108465045690536,0.04791650548577309,-0.018074914813041687,0.006357044912874699,-0.0015946662751957774,-0.016422677785158157,-0.03430008143186569,0.08675257861614227,-0.013074483722448349,0.0026122338604182005,-0.03788913041353226,-0.02495523728430271,-0.020860763266682625,-0.034487832337617874,-0.08212810009717941,0.032935675233602524,0.07987049221992493,0.0049611302092671394,-0.0023238537833094597,0.0622444674372673,-0.03441036865115166,-0.041597675532102585,-0.09775401651859283,0.008545251563191414,-0.003600367112085223,0.002534119877964258,0.03555416688323021,-0.018799591809511185,0.012455959804356098,0.00757952407002449,-0.010360343381762505,-0.08082474023103714,0.04901260882616043,0.008754340000450611,-0.09756997972726822,0.047278717160224915,0.029821833595633507,-0.0049418057315051556,-0.05360366776585579,0.00623410614207387,0.037310462445020676,0.013167633675038815,0.0074162608943879604,-0.026858564466238022,-0.05446494743227959,-0.024292126297950745,-0.011035085655748844,-0.0796428918838501,-0.01232243049889803,-0.025156382471323013,-0.07137501239776611,0.012622677721083164,0.03297029435634613,-0.047343432903289795,-0.05671468749642372,-0.007762008812278509,-0.055061157792806625,-0.0023592407815158367,0.015581482090055943,-0.021152837201952934,-0.02793462947010994,0.05339544638991356,-0.023403747007250786,-0.05504615977406502,-0.02003556303679943,0.004663787316530943,0.05678490921854973,0.04565940052270889,-0.01622222363948822,-0.009182495065033436
img2.png,-0.0553094819188118,0.05638030916452408,-0.01729721389710903,-0.07795745879411697,-0.02584773115813732,-0.011833739466965199,0.06315942108631134,-0.09379730373620987,0.045641373842954636,0.06038811802864075,0.08232052624225616,0.006947705987840891,0.06962378323078156,0.03526411950588226,-0.027143675833940506,0.03071589209139347,0.03005729801952839,-0.02587064914405346,0.04646733030676842,-0.002731410786509514,0.044763606041669846,-0.10747014731168747,-0.011517721228301525,-0.047548968344926834,0.009904162026941776,-0.05515708774328232,-0.09209395945072174,-0.07427303493022919,-0.04300892353057861,-0.04679388925433159,-0.05673755705356598,-0.009760946966707706,-0.015770798549056053,0.04214361682534218,0.007579524535685778,-0.008628127165138721,0.05164928361773491,-0.037268295884132385,0.009096292778849602,0.030621550977230072,-0.07834626734256744,-0.026776306331157684,-0.04310505837202072,0.029310792684555054,-0.09686256945133209,0.0379345528781414,-0.0017280839383602142,0.010833156295120716,0.028293199837207794,-0.00982628669589758,-0.04173005372285843,-0.07439550012350082,-0.10386548191308975,-0.01889021322131157,0.05888137221336365,-0.08549909293651581,0.008874155580997467,-0.032849136739969254,-0.05022965371608734,0.027186162769794464,-0.008291127160191536,0.0750071331858635,-0.048960939049720764,0.032083507627248764,-0.01464451476931572,-0.05730677768588066,0.03183899447321892,-0.0636027529835701,-0.02629050426185131,-0.009824002161622047,-0.022703954949975014,-0.07334460318088531,0.01774108037352562,0.03381965681910515,-0.013652551919221878,0.0014724555658176541,0.018497461453080177,0.06338674575090408,0.053534671664237976,0.008030468598008156,-0.081868976354599,-0.05737442523241043,-0.028701506555080414,-0.020130077376961708,0.00815111119300127,0.010331643745303154,-0.013513187877833843,0.030671892687678337,-0.06045368313789368,-0.03891811892390251,-0.030778059735894203,-0.00501510314643383,-0.08250698447227478,0.02623903565108776,0.05029039829969406,0.03893136978149414,0.021893061697483063,-0.005177931394428015,0.0369500033557415,0.07888434082269669,-0.008221739903092384,-0.015208488330245018,-0.020546929910779,-0.032344985753297806,-0.052270133048295975,-0.049693044275045395,-0.042796939611434937,-0.008678894490003586,-0.04969371110200882,-0.0320630744099617,-0.006145838648080826,-0.06095892935991287,0.04600268974900246,-0.012779739685356617,-0.08207050710916519,0.024263162165880203,0.058280862867832184,0.017402274534106255,0.020466651767492294,0.04015684127807617,0.018358677625656128,-0.020125333219766617,0.016247199848294258,0.04538024961948395,0.03299205005168915,-0.03427813947200775,-0.016361568123102188,0.019294442608952522,-0.043012965470552444,0.020915569737553596,-0.04755185544490814,0.03686904534697533,0.008325591683387756,-0.008289600722491741,0.046744804829359055,0.029794933274388313,0.03526816517114639,-0.0038394718430936337,-0.0074882772751152515,-0.02758188731968403,0.007689094636589289,-0.023104991763830185,0.01909204013645649,-0.02688274346292019,-0.036958057433366776,0.009735160507261753,-0.04837464913725853,0.0601981021463871,0.0019466758240014315,0.012328368611633778,0.017636701464653015,0.008393685333430767,-0.0021781979594379663,0.022948795929551125,0.05850653350353241,0.009583480656147003,0.002769307466223836,0.07828700542449951,-0.009897354058921337,-0.009215647354722023,0.008657864294946194,0.03700655326247215,-0.005729134660214186,0.06496704369783401,0.01716550998389721,0.020292548462748528,0.06562996655702591,0.00973639264702797,-0.004014319274574518,0.039975356310606,0.01766442321240902,0.025236044079065323,0.052093256264925,-0.05501416325569153,-0.07244782894849777,-0.09313175082206726,0.006425993982702494,0.0027874279767274857,-0.009536772035062313,-0.030476048588752747,0.05157884955406189,-0.026535620912909508,0.01993926614522934,0.0509808175265789,-0.0853549912571907,0.039087288081645966,0.022835368290543556,0.0011895414208993316,-0.054815713316202164,-0.013073827140033245,-0.07961226254701614,0.06110486388206482,0.042074549943208694,0.002232187194749713,-0.05854104086756706,-0.013073882088065147,0.01640443317592144,0.02602381631731987,0.018804408609867096,-0.026425929740071297,0.007724629249423742,-0.028698313981294632,0.040939509868621826,0.0061892191879451275,0.0006334424833767116,0.03178326413035393,-0.06478375196456909,-0.017842145636677742,0.013512589037418365,-0.014009508304297924,-0.013654771260917187,-0.025469854474067688,-0.00648014759644866,-0.04748447239398956,0.036377254873514175,-0.07738377153873444,0.06778576970100403,-0.04801580682396889,0.03603274002671242,0.054066866636276245,0.08327643573284149,0.011702246032655239,0.10850758105516434,-0.0779954344034195,0.029046418145298958,-0.0052778227254748344,0.0069550503976643085,-0.03417760133743286,-0.08726684749126434,0.017835494130849838,-0.029795855283737183,0.11742986738681793,-0.11237426102161407,0.03138979524374008,0.0362340472638607,0.030571557581424713,0.06131480261683464,-0.08476373553276062,0.026293199509382248,0.008141935802996159,0.029721392318606377,0.05187826231122017,-0.02386012114584446,0.0546451173722744,-0.08351311087608337,-0.008732561022043228,-0.007525147870182991,0.005216299556195736,0.029017480090260506,-0.0034888535737991333,-0.03493838012218475,-0.023502498865127563,0.07695769518613815,-0.0192691832780838,-0.06658175587654114,0.008172020316123962,-0.055145375430583954,-0.020046140998601913,-0.013096964918076992,0.01062037330120802,-0.04516306146979332,0.0570247545838356,0.010788455605506897,0.03199104964733124,-0.04185115918517113,0.035333774983882904,-0.00109456991776824,-0.051819004118442535,-0.005489596631377935,-0.06663796305656433,0.056774504482746124,-0.01732310652732849,-0.04644227400422096,0.05137835815548897,-0.051912106573581696,0.02336275205016136,-0.01279287226498127,-0.0016162536339834332,-0.0004806059878319502,-0.011476272717118263,-0.005351702217012644,0.055820491164922714,-0.014733304269611835,0.06955660134553909,0.016746293753385544,-0.03593439608812332,0.005363942589610815,-0.05954311788082123,-0.02262890711426735,0.028374377638101578,0.037042561918497086,-0.00045713267172686756,0.013977841474115849,0.03751906007528305,0.017749492079019547,-0.016032131388783455,0.0007094941101968288,0.0156215475872159,0.03233710303902626,-0.00914295669645071,-0.04298294708132744,0.03136199712753296,-0.05721738934516907,0.015812229365110397,-0.022618645802140236,0.030893364921212196,-0.019264619797468185,0.0030546654015779495,0.04229554533958435,-0.06476689130067825,-0.07876145094633102,-0.02919074147939682,0.038438621908426285,-0.12081366032361984,0.02706160582602024,-0.041668523102998734,0.027925120666623116,-0.046834636479616165,-0.009089228697121143,-0.025437382981181145,-0.06299320608377457,0.09971555322408676,-0.0714937075972557,-0.059536367654800415,-0.04149729758501053,0.0667513981461525,-0.02031809091567993,0.054821185767650604,-0.02918616682291031,0.0459582582116127,-0.017147140577435493,0.06731727719306946,-0.10460415482521057,0.001642143353819847,-0.051842622458934784,-0.02873653918504715,0.00791915599256754,-0.03820563107728958,-0.04171951487660408,0.07576993852853775,0.014605151489377022,-0.02465401217341423,0.000860069936607033,-0.032301969826221466,0.0033731937874108553,0.030393624678254128,-0.038897283375263214,-0.06406950205564499,-0.03500877693295479,-0.017205266281962395,-0.02336830273270607,0.034828610718250275,0.03053273633122444,0.031370777636766434,0.026483524590730667,-0.048253584653139114,0.06918551027774811,0.041723351925611496,-0.020112555474042892,-0.03202419728040695,0.014685368165373802,0.013389330357313156,-0.07350695878267288,-0.06426316499710083,-0.004178590141236782,0.02769571729004383,0.009307320229709148,0.03025178238749504,-0.10032851248979568,0.02202976867556572,-0.017526639625430107,0.027534903958439827,0.025353066623210907,0.10040208697319031,-0.016560155898332596,-0.050070103257894516,0.03276512399315834,-0.005475521087646484,-0.07291759550571442,0.0038602270651608706,0.044201020151376724,-0.03230467811226845,0.013122858479619026,0.01010679081082344,0.04025629535317421,-0.04089627414941788,-0.0680275708436966,0.039539631456136703,-0.0392523854970932,0.09041432291269302,0.021181201562285423,0.03889463096857071,0.04694605991244316,0.10184860229492188,-0.02986765466630459,-0.010379302315413952,-0.056958843022584915,-0.05197066441178322,0.004793978296220303,-0.014276248402893543,-0.010844511911273003,-0.020825017243623734,0.021076763048768044,0.03082876093685627,0.02855920046567917,0.030851397663354874,0.07419266551733017,0.061844248324632645,0.027243908494710922,-0.01508332509547472,-0.06852970272302628,-0.02241991087794304,-0.00482566375285387,0.019441433250904083,-0.07288189977407455,0.05268082395195961,0.0380508117377758,-0.005482632666826248,0.005514209158718586,0.020035624504089355,-0.012827769853174686,-0.036414504051208496,-0.0427384153008461,0.008883071132004261,0.056760743260383606,0.13998261094093323,0.02646118588745594,-0.03395238146185875,0.044112179428339005,0.10180889815092087,0.03067786432802677,-0.0021829477045685053,0.05299733206629753,0.017148608341813087,0.09112256020307541,0.04344381392002106,-0.05106620490550995,-0.060114506632089615,-0.041002307087183,2.6080278985318728e-05,0.0429668091237545,0.036541715264320374,0.09270190447568893,0.08377786725759506,0.08013086766004562,-0.012469002977013588,0.028994714841246605,0.008704636245965958,-0.02537493407726288,-0.008029278367757797,-0.04110207408666611,-0.00030745886033400893,0.026204707100987434,-0.08334758877754211,-0.04057813435792923,-0.032933130860328674,0.0075982604175806046,0.06809709221124649,0.053902171552181244,-0.015771009027957916,0.0506000742316246,0.09974730014801025,0.042008839547634125,-0.039065536111593246,-0.04208846762776375,-0.011344360187649727,-0.021862156689167023,0.08201494812965393,-0.014343120157718658,-0.025819260627031326,0.012157618068158627,-0.06321416795253754,0.004936268553137779,0.0545782744884491,0.0486786924302578,-0.016037480905652046,-0.0163155198097229,0.0009789913892745972,0.0001362754701403901,0.02685915306210518,0.00027112269890494645,-0.023517906665802002,0.005391306709498167,0.017840217798948288,-0.013649030588567257,0.06302583962678909,0.009200277738273144,0.02807408943772316,-3.185698005836457e-05,0.024934157729148865,0.0026685537304729223,-0.014986065216362476,-0.005692566744983196,0.06831026077270508,0.036052871495485306,0.010955153964459896,0.01711219921708107,0.04109710082411766,0.009982015006244183,-0.06806953996419907,0.005275585222989321,-0.005791011732071638,0.07999066263437271,-0.0037687825970351696,-0.007555555086582899,0.04089565947651863,-0.04138082638382912,0.04621824622154236,-0.009111927822232246,-0.03785483166575432,-0.08360350131988525,0.12237349897623062
img3.png,0.05276600643992424,-0.038930296897888184,0.03966090828180313,-0.00019870494725182652,-0.07378063350915909,0.007344680372625589,0.025330808013677597,-0.07400859892368317,0.013285653665661812,0.013399729505181313,0.03730613365769386,0.006723757367581129,0.08953608572483063,0.10457132011651993,-0.041591279208660126,-0.025865426287055016,-0.025391941890120506,-0.013456819579005241,0.02658250369131565,0.046683572232723236,0.009485513903200626,-0.011307326145470142,0.004749489948153496,-0.05466163158416748,-0.007555055897682905,-0.0014322911156341434,-0.046186648309230804,-0.054865192621946335,-0.029326586052775383,-0.1381750851869583,-0.012919721193611622,0.08648108690977097,0.014148680493235588,0.006147958803921938,-0.05517798289656639,-0.020735977217555046,-0.01820160262286663,0.0574791319668293,-0.01977418176829815,-0.018671981990337372,-0.08299694210290909,-0.01270187646150589,-0.011567814275622368,-0.0210525244474411,-0.0681777223944664,0.025831812992691994,0.06045566871762276,0.06176585331559181,-0.029117638245224953,-0.0012920561712235212,0.05547616258263588,-0.0264459028840065,-0.08169043809175491,-0.02632518671452999,0.04417980834841728,-0.0028402847237885,0.012316789478063583,0.00745057687163353,0.003976527601480484,0.021298659965395927,-0.06016474962234497,0.030289461836218834,-0.011121266521513462,-0.007061645854264498,-0.023116758093237877,0.020145129412412643,0.0197855643928051,-0.04139517620205879,0.013226876966655254,-0.038011934608221054,0.022350624203681946,-0.010281751863658428,0.031325433403253555,0.07458031177520752,-0.02795282006263733,-0.01841917261481285,0.06095028296113014,-0.0002342073858017102,-0.033074818551540375,-0.050209738314151764,-0.008955576457083225,0.027857378125190735,0.03257165104150772,-0.03050963021814823,-0.014794895425438881,0.026363853365182877,0.09046486765146255,-0.09745589643716812,-0.09801490604877472,0.013318711891770363,-0.05695762857794762,0.020887795835733414,0.010318608023226261,0.03129621595144272,0.0011365433456376195,0.02307833358645439,-0.028063034638762474,-0.06935629993677139,-0.013103658333420753,0.037524063140153885,0.049439962953329086,0.023612624034285545,0.044323261827230453,-0.06941673904657364,-0.010660543106496334,-0.02193780057132244,-0.031862273812294006,-0.029438665136694908,-0.11705750972032547,-0.05509491264820099,0.003909795545041561,-0.04297075420618057,0.0036870024632662535,0.03157071769237518,-0.05768289044499397,0.03761858865618706,0.11009716987609863,0.016403930261731148,0.018095044419169426,0.021386226639151573,-0.023415926843881607,0.030003007501363754,0.012453960254788399,-0.01943220943212509,-0.0460544191300869,-0.06262686103582382,0.021748296916484833,0.0006743972771801054,0.030884386971592903,-0.015577350743114948,0.024361953139305115,0.01730782724916935,-0.08635230362415314,0.03057616390287876,-0.050428345799446106,0.016729438677430153,-0.03651328757405281,-0.0008129557245410979,0.059583630412817,-0.009951450861990452,0.06318454444408417,0.03516547009348869,0.052788056433200836,-0.07314842939376831,0.02272256650030613,0.06800033897161484,-0.008030770346522331,0.006290663033723831,-0.000475108390673995,0.02765166386961937,0.07556839287281036,-0.025624271482229233,-0.07040135562419891,0.02558230236172676,0.030216896906495094,0.005703360307961702,0.02289448492228985,0.060623690485954285,-0.04421677440404892,-0.03900160640478134,-0.037994805723428726,0.029695648699998856,-0.002325576962903142,-0.014981349930167198,0.05288155749440193,-0.03399417921900749,0.018446059897542,-0.039104100316762924,-0.08007440716028214,0.019240429624915123,0.005329567939043045,0.06482652574777603,0.029069196432828903,-0.0814155638217926,0.029309043660759926,-0.09469093382358551,-0.016056576743721962,0.02113320492208004,-0.026592083275318146,0.09721407294273376,0.0691010132431984,0.02730289101600647,-0.013286539353430271,-0.04342003911733627,-0.04102281108498573,0.053321029990911484,0.023854125291109085,-0.005161014851182699,-0.024200858548283577,-0.005424200091511011,0.011940094642341137,0.08415418863296509,0.041416577994823456,0.030875343829393387,0.0018751580500975251,0.10029766708612442,-0.04879865422844887,0.05013781785964966,-0.009402148425579071,-0.03597512096166611,0.03258397802710533,0.039234571158885956,-0.010177780874073505,0.0662405863404274,0.024690847843885422,-0.019974596798419952,-0.056979384273290634,0.03741079941391945,0.018377110362052917,-0.01708528958261013,0.047485943883657455,-0.05586351826786995,-0.012939846143126488,0.05858149006962776,0.0009702711249701679,-0.022204583510756493,0.053440626710653305,-0.062003303319215775,-0.0015358485979959369,0.05954392999410629,0.08375493437051773,0.016925431787967682,0.07256470620632172,-0.04806645214557648,-0.025602951645851135,0.05773010477423668,-0.04524173587560654,0.039179105311632156,-0.014613272622227669,0.023234805092215538,0.04141789674758911,0.06672525405883789,-0.0995732843875885,-0.025248439982533455,-0.04724936932325363,0.026128729805350304,-0.05166010558605194,-0.08200225979089737,0.10965987294912338,-0.03373487666249275,0.023333817720413208,0.018649248406291008,-0.030269110575318336,0.018449295312166214,-0.05589984357357025,-0.0007269252091646194,-0.05085373297333717,-0.001243622857145965,-0.00246838154271245,0.054724156856536865,-0.07868051528930664,-0.0317143090069294,0.006282597780227661,0.010573260486125946,-0.008154262788593769,0.025052091106772423,-0.07276251912117004,-0.05736603960394859,-0.06529092788696289,0.03255828842520714,-0.07154521346092224,0.04567335173487663,0.045343950390815735,0.016028206795454025,-0.09057007730007172,-0.018737995997071266,0.03861995041370392,-0.08972707390785217,0.09168102592229843,0.036742303520441055,0.025361821055412292,0.047718875110149384,-0.002635250799357891,0.010611956007778645,-0.02025318332016468,0.02557758055627346,-0.012143278494477272,-0.0540400967001915,0.0077131991274654865,0.04411807656288147,-0.00753163592889905,0.020303435623645782,-0.1182873547077179,-0.06285103410482407,0.012070152908563614,0.011027843691408634,-0.030421636998653412,-0.07871461659669876,-0.06118856370449066,-0.00034611241426318884,0.04162772744894028,0.04477858543395996,0.04278627038002014,0.004988276865333319,0.02037976309657097,-0.04611557349562645,-0.06764672696590424,-0.006527949124574661,0.02514141984283924,-0.04838227853178978,-0.02559521049261093,0.003956504166126251,0.0365411676466465,-0.01475499477237463,7.020597695372999e-05,-0.02374507486820221,-0.09457818418741226,0.046295877546072006,0.013596286065876484,-0.009249900467693806,-0.06207974627614021,0.0041684047318995,-0.015130920335650444,-0.034952811896800995,-0.01314610056579113,-0.01769382506608963,-0.003656326560303569,-0.04670487344264984,0.01604018174111843,0.0873527079820633,0.020068109035491943,0.08149804919958115,-0.03390400856733322,-0.054470572620630264,0.03802535682916641,0.05359535291790962,-0.0707215666770935,0.008604823611676693,-0.02517128735780716,-0.04579119011759758,-0.060258686542510986,0.023355215787887573,0.005288929212838411,-0.00925138033926487,0.005129812750965357,-0.034176480025053024,0.05191267654299736,-0.07768592983484268,-0.05794382095336914,0.025938238948583603,-0.008541163057088852,0.021954379975795746,0.004456480499356985,-0.1071649044752121,0.047183819115161896,0.04397159814834595,-0.04415562376379967,0.030500812456011772,0.024085985496640205,0.005867411382496357,0.0047661904245615005,-0.03095417656004429,0.00040076085133478045,0.02151509001851082,-0.03430255129933357,-0.056211233139038086,0.03701132535934448,-0.017499014735221863,-0.07801558822393417,0.09476473927497864,0.06938382238149643,0.008816632442176342,0.003999282605946064,-0.012103301472961903,-0.033944014459848404,-0.021209197118878365,0.014510377310216427,-0.0067202262580394745,-0.06743858009576797,-0.071624256670475,-0.03530815988779068,0.045699067413806915,-0.03030594252049923,0.07027033716440201,-0.03642944619059563,-0.002969602821394801,-0.09151078015565872,0.029856344684958458,-0.04275853559374809,0.010835658758878708,-0.07419378310441971,-0.012785115279257298,-0.03332517668604851,0.014865124598145485,0.017046596854925156,-0.08367381989955902,-0.0556635782122612,0.0052305422723293304,-0.08507095277309418,-0.026442458853125572,0.027813998982310295,-0.004677665885537863,0.0478132888674736,0.014311418868601322,-0.0022355790715664625,0.03390752524137497,-0.0052276127971708775,-0.007664951495826244,0.04186597838997841,-0.023624012246727943,-0.04896077886223793,0.02917102538049221,-0.03197410702705383,0.033343348652124405,0.017141029238700867,-0.03842852637171745,-0.006541689392179251,0.028181497007608414,0.025715474039316177,0.007346960715949535,-0.07373136281967163,-0.05296538025140762,0.06915932148694992,0.016284406185150146,-0.03706616908311844,0.03557947278022766,0.01288874913007021,0.023862384259700775,-0.001263136276975274,-0.017226649448275566,-0.03538770228624344,-0.021130038425326347,-0.10055997222661972,0.0021300730295479298,0.026937006041407585,-0.024089787155389786,0.00914305541664362,-0.023330852389335632,0.06802699714899063,0.02508634887635708,0.02925252541899681,-0.057383205741643906,0.00652212044224143,-0.04169066622853279,0.017693927511572838,0.08299481868743896,-0.0203056950122118,-0.04901113361120224,0.04178088903427124,-0.0651836022734642,0.025382542982697487,0.0123406071215868,0.07094176113605499,0.029918378219008446,0.056374236941337585,-0.01707942970097065,0.03202424198389053,0.03496373072266579,-0.040517233312129974,-0.011491172015666962,-0.04879596456885338,0.0712287425994873,0.015367623418569565,-0.06185678765177727,0.012822341173887253,-0.021792259067296982,0.024407489225268364,-0.02170748822391033,0.07251159846782684,0.04327347129583359,-0.019083337858319283,0.04493355378508568,0.06825254112482071,-0.025072690099477768,-0.05672277882695198,-0.03503614664077759,-0.031381260603666306,0.0934673324227333,-0.002921664621680975,0.0069002327509224415,0.04349396377801895,-0.01703939586877823,0.045801203697919846,0.063784658908844,-0.044536858797073364,-0.08549219369888306,0.05968347191810608,-0.014655161648988724,-0.02199600636959076,0.03046957589685917,-0.011488900519907475,0.011793822050094604,0.022546520456671715,0.019801130518317223,-0.006250536069273949,0.027002472430467606,0.0005671842372976243,0.066616952419281,0.0024754421319812536,0.061705175787210464,-0.03650020807981491,-0.04527388885617256,0.07205262035131454,0.01508258655667305,0.019665148109197617,-0.046807754784822464,0.03351408988237381,0.0012309011071920395,0.011496515944600105,-0.09913787990808487,0.05359495058655739,-0.03087667189538479,0.01213290635496378,-0.025827664881944656,0.04167921841144562,0.012861022725701332,-0.016538012772798538,0.03994101658463478,-0.0357331745326519,0.04277826473116875,-0.056874778121709824,0.05836233124136925
img4.png,0.017001964151859283,0.011282207444310188,-0.036583349108695984,-0.03207601234316826,0.018071113154292107,-0.0702948048710823,0.08202571421861649,0.03440473601222038,-0.014875237829983234,-0.005734254140406847,0.015608669258654118,0.0015476710395887494,-0.015417205169796944,-0.0037808672059327364,-0.05096708610653877,0.013331537134945393,-0.08851739764213562,0.006169090047478676,-0.030774779617786407,0.045934174209833145,0.0009258505888283253,0.008664148859679699,-0.08049579709768295,-0.03205735981464386,0.012867605313658714,-0.03580157458782196,0.008588949218392372,-0.06738024204969406,-0.045748427510261536,-0.08514370024204254,-0.010055572725832462,0.0008727918029762805,0.040920909494161606,0.09216852486133575,-0.009549664333462715,0.02220822498202324,-0.02697630412876606,0.05010012537240982,0.007492048665881157,-0.01589459367096424,-0.007670534308999777,0.025312339887022972,0.01839226670563221,0.0077373916283249855,-0.07191143929958344,0.03346008434891701,-0.12275443226099014,0.01732002943754196,-0.03450481593608856,-0.0015040887519717216,-0.021085664629936218,-0.021574100479483604,-0.006071357522159815,0.045610491186380386,-0.024117115885019302,0.0005571235669776797,-0.0137018458917737,-2.49832864938071e-05,-0.046574514359235764,-0.06722820550203323,0.015852345153689384,0.07363934814929962,0.03296849876642227,0.0033370377495884895,0.028436172753572464,-0.045466098934412,-0.02520637959241867,-0.06871940195560455,0.058137089014053345,0.025273414328694344,-0.0663713812828064,-0.08446680754423141,0.009177621454000473,-0.0067076003178954124,0.041715387254953384,0.031046565622091293,-0.015000849030911922,0.02182403765618801,-0.00130288559012115,-0.006248337682336569,-0.012372192926704884,0.0706845074892044,-0.047465335577726364,-0.03351765498518944,0.04183463752269745,0.05624924227595329,0.07788212597370148,-0.040458958595991135,-0.06877177208662033,-0.0068727945908904076,-0.05684633553028107,-0.007119573652744293,-0.019480682909488678,-0.023569656535983086,-0.003689692821353674,-0.019221916794776917,0.011806214228272438,-0.04177851229906082,-0.05316248908638954,0.0010405532084405422,-0.020850686356425285,0.04142848774790764,-0.010021393187344074,0.02169872261583805,-0.023908160626888275,-0.0707813948392868,0.05734492465853691,0.06695143133401871,-0.005854667630046606,-0.031243499368429184,-0.012664084322750568,-0.039952512830495834,0.011546839028596878,-0.05083697289228439,-0.009623798541724682,-0.03712298348546028,-0.004898399114608765,0.05547603964805603,-0.052789293229579926,-0.03960057348012924,-0.0881832167506218,-0.016815314069390297,-0.013070685788989067,0.06315161287784576,-0.08117039501667023,-0.024528102949261665,0.02835610881447792,-0.0714147761464119,-0.039066314697265625,0.030804352834820747,-0.06161048263311386,-0.01777677610516548,0.005686403252184391,-0.04916434735059738,0.023604238405823708,-0.02144516445696354,0.13047318160533905,0.008993221446871758,-0.07452590763568878,0.012597237713634968,0.10388919711112976,0.0005017052753828466,-0.024389304220676422,0.05500464513897896,-0.03886408358812332,-0.023086335510015488,-0.029337549582123756,0.04539184272289276,-0.04846706986427307,-0.006834595929831266,-0.002501621376723051,-0.07099221646785736,-0.10653705149888992,-0.028288304805755615,0.033641889691352844,0.018982281908392906,-0.009426787495613098,0.0910138264298439,-0.05613624304533005,0.06721599400043488,0.014347699470818043,0.070641428232193,0.01655748300254345,-0.0037423367612063885,-0.03426530212163925,0.026585843414068222,-0.07965261489152908,0.049170225858688354,0.014267039485275745,0.0426679328083992,0.0020047191064804792,0.004096698481589556,-0.030743597075343132,-0.01916223205626011,0.03939858451485634,0.024339178577065468,-0.016604529693722725,-0.020620834082365036,-0.06918247789144516,0.05422007292509079,0.02873069979250431,0.00014263748016674072,0.044809628278017044,0.0159628763794899,0.061174795031547546,0.0012335836654528975,0.031324926763772964,-0.0431537926197052,0.03254159539937973,0.0261515025049448,-0.00591290183365345,0.0008211997337639332,-0.011619673110544682,-0.04344947636127472,0.033271681517362595,0.008450087159872055,-0.028865879401564598,0.028040090575814247,0.027920085936784744,0.013525876216590405,0.058720964938402176,0.01666930317878723,-0.02069765515625477,-0.013317127712070942,0.049895986914634705,0.024140553548932076,-0.05869651213288307,0.010891469195485115,0.0027556116692721844,0.06091667339205742,0.05664242431521416,-0.061491068452596664,0.007578803226351738,-0.060649555176496506,-0.05440608412027359,-0.009237783029675484,-0.0022503638174384832,0.009400413371622562,0.0031780381686985493,-0.002672766335308552,0.0027611246332526207,0.015451635234057903,0.027148600667715073,0.06950117647647858,0.04760667681694031,-0.024039365351200104,0.0643913671374321,0.007567969150841236,-0.06796632707118988,-0.0395764485001564,-0.04271144047379494,0.03173847496509552,-0.03432019054889679,-0.095676489174366,-0.00757162319496274,0.024023709818720818,-0.007572871632874012,0.00019168319704476744,0.02058347500860691,0.030549416318535805,0.04781980812549591,-0.05068318545818329,-0.07931596040725708,0.03255343437194824,-0.021273678168654442,0.041018083691596985,0.03769993409514427,-0.012602198868989944,-0.011368609964847565,0.0110617121681571,-0.03906038776040077,0.05180975794792175,0.025356296449899673,0.03561040759086609,0.041742075234651566,0.03445172682404518,-0.07151805609464645,0.06419502943754196,-0.045334599912166595,0.06510104238986969,0.014777579344809055,0.05152413249015808,-0.05272329971194267,-0.003608230035752058,-0.055022988468408585,0.026109568774700165,0.00872598122805357,-0.008402273990213871,0.007371724117547274,-0.010484091937541962,-0.014204340055584908,-0.06994077563285828,-0.061136823147535324,-0.01735456846654415,0.11963314563035965,0.0854804739356041,0.0014081366825848818,-0.09032390266656876,-0.009640580043196678,0.05312727764248848,-0.031139831990003586,0.007998665794730186,-0.062356818467378616,-0.056382179260253906,-0.035607971251010895,-0.003629914252087474,-0.0028390928637236357,0.019478674978017807,0.022229881957173347,0.08532306551933289,-0.02879311330616474,-0.05612499266862869,0.05569896101951599,-0.0059160469099879265,0.07592515647411346,-0.05656376853585243,-0.02382107451558113,0.002826668554916978,-0.019708780571818352,-0.005464180838316679,-0.04087667539715767,0.022560495883226395,0.024424849078059196,0.022454580292105675,-0.02251087687909603,0.02182603068649769,-0.027997037395834923,-0.0520462691783905,0.029190752655267715,-0.07945887744426727,-0.023182136937975883,0.05276789516210556,0.0600070096552372,0.015550174750387669,0.03312484174966812,-0.01741400733590126,0.02913578599691391,0.009235629811882973,0.01775679737329483,-0.017788881435990334,-0.04310359060764313,0.005139539018273354,-0.006119419354945421,-0.024795066565275192,-0.019632797688245773,0.03013814613223076,-0.03479522839188576,-0.011861744336783886,-0.06055054813623428,-0.046729523688554764,-0.03298824280500412,0.0021857076790183783,-0.03517600893974304,0.08194788545370102,0.04459916055202484,0.06009329855442047,0.039047207683324814,-0.08776023983955383,-0.03067830204963684,-0.026259953156113625,-0.0031630757730454206,0.0550263449549675,0.048815518617630005,-0.0909523144364357,-0.04717477411031723,-0.024570871144533157,0.00032696101698093116,0.05149853602051735,-0.05898473784327507,0.022819029167294502,-0.08768139779567719,0.09820900857448578,0.07920718193054199,0.03138367459177971,-0.0200249794870615,-0.004118527751415968,-0.015923557803034782,-0.03136637434363365,0.035784922540187836,0.026063531637191772,-0.012239696457982063,0.006038454361259937,0.09119155257940292,-0.004740084987133741,-0.04631653428077698,0.06953772902488708,0.007643051911145449,0.05903196707367897,0.04604414850473404,-0.0801977589726448,0.0106466393917799,-0.02310185320675373,0.046148914843797684,0.03392953798174858,-0.07657851278781891,0.006674383766949177,-0.024588635191321373,0.024943137541413307,-0.05022547394037247,0.02864234894514084,0.07246124744415283,0.03832303360104561,-0.00016205541032832116,0.004564941395074129,0.05152345448732376,-0.029854265972971916,0.056721244007349014,0.02810889296233654,0.059752535074949265,0.06194973364472389,-0.013159042224287987,-0.027147123590111732,-0.027575241401791573,0.0028634893242269754,-0.07654908299446106,0.020674200728535652,-0.020835744217038155,0.004111323039978743,-0.017428040504455566,-0.03310477361083031,0.026370514184236526,-0.03904546797275543,-0.02413165383040905,-0.08660785853862762,0.01304247323423624,0.10018254071474075,-0.048889368772506714,-0.04508053883910179,0.02682311460375786,-0.017023596912622452,-0.0289338119328022,0.03560524806380272,0.030833153054118156,-0.04579371586441994,-0.06047828868031502,-0.03729552775621414,-0.0001623523567104712,-0.03455847129225731,-0.06113464757800102,-0.004529478959739208,-0.00421640370041132,0.02546045370399952,-0.05414346605539322,-0.006977613549679518,0.057240717113018036,-0.00929697323590517,0.01993115060031414,-0.048667050898075104,0.08158493041992188,0.006286382209509611,-0.019374538213014603,-0.05957580357789993,-0.057167649269104004,-0.08820798248052597,0.006508674006909132,0.006095589604228735,-0.05842754617333412,-0.02975703589618206,0.020715786144137383,-0.03774584084749222,-0.046686504036188126,0.048869721591472626,-0.028318295255303383,0.04306865110993385,-0.004079242702573538,-0.05231727659702301,0.010563541203737259,0.04598294198513031,-0.06920086592435837,-0.0197887159883976,0.02129936031997204,-0.0431862398982048,0.007236481178551912,-0.050684284418821335,-0.08060102164745331,-0.0787295326590538,0.06391245126724243,0.028792431578040123,0.05081634968519211,0.013033278286457062,0.06412872672080994,0.12277568131685257,0.10915230959653854,-0.034227874130010605,-0.0007871955167502165,0.13464130461215973,0.023738596588373184,-0.023216215893626213,0.010673942975699902,-0.041253410279750824,-0.011069078929722309,-0.005374785978347063,-0.047206271439790726,-0.08684993535280228,-0.07553153485059738,-0.03409792482852936,-0.022091099992394447,0.10601986199617386,0.006049330346286297,-0.1077660396695137,-0.0033536648843437433,-0.03751512989401817,-0.002176821930333972,0.015079120174050331,0.04732541739940643,-0.0343896709382534,0.04517285153269768,-0.01910633221268654,-0.05299270525574684,0.01077062077820301,0.01987111009657383,-0.058503277599811554,0.08599548041820526,0.026776619255542755,0.003979344852268696,-0.04537513479590416,-0.030805833637714386,-0.009338601492345333,0.025956839323043823,-0.06553801894187927,-0.026646597310900688,0.027521613985300064,-0.045368779450654984,0.008556338027119637,-0.022403806447982788,-0.02203303575515747,0.05732350051403046,0.016548315063118935,-0.011479459702968597,-0.07310748100280762,-0.023770183324813843,0.012783955782651901
img5.png,-0.017488554120063782,-0.020474260672926903,0.09275113791227341,0.06063918024301529,0.007486497983336449,0.012378895655274391,0.05935589224100113,-0.059876151382923126,0.10114847868680954,-0.049889322370290756,0.061294738203287125,-0.014303415082395077,0.018729569390416145,0.03228660672903061,0.0014417150523513556,-0.07278399914503098,-0.05055074021220207,0.03387190401554108,0.02452291175723076,0.018386948853731155,-0.032427433878183365,-0.035986077040433884,0.04628565162420273,0.05931427329778671,-0.03959646448493004,-0.011017781682312489,-0.056899841874837875,0.0064455680549144745,-0.0793415829539299,-0.014708157628774643,0.04857984930276871,0.06359560042619705,-0.006470894906669855,-0.0518111027777195,0.033170782029628754,0.01482967846095562,0.02091364748775959,0.0714026615023613,-0.00546105345711112,-0.025243306532502174,0.05865411460399628,0.02214052900671959,-0.04144727811217308,-0.03672317788004875,0.03159919008612633,-0.02309732884168625,0.02115047164261341,0.041675928980112076,0.014065260998904705,-0.06857221573591232,0.011313197202980518,0.035289112478494644,-0.030173564329743385,0.07166358083486557,-0.010314303450286388,0.01491470541805029,-0.014360146597027779,0.04399154335260391,-0.021621223539114,0.01161874644458294,-0.06527293473482132,-0.048880159854888916,0.03563898801803589,0.007389047183096409,0.029061827808618546,-0.013840402476489544,-0.06149892136454582,-0.013501417823135853,-0.013448601588606834,0.019217630848288536,0.02249304950237274,0.09024789929389954,-0.04840235784649849,-0.03231973201036453,0.04878958687186241,-0.07751082628965378,-0.01195493433624506,0.013252699747681618,-0.025003165006637573,0.003219297155737877,0.020539388060569763,0.06919325888156891,-0.03194011002779007,-0.009758912026882172,0.03090130165219307,0.0905490443110466,0.09030557423830032,-0.039929259568452835,0.034230537712574005,0.041840050369501114,0.01337120309472084,0.057224344462156296,0.014423639513552189,0.02491498365998268,0.03882609307765961,-0.009397899731993675,0.020697884261608124,0.03676865994930267,0.01025708019733429,-0.029112035408616066,0.004115630406886339,0.004794641863554716,-0.05745227634906769,-0.014072732999920845,0.08501468598842621,0.014642596244812012,-0.01946348324418068,0.10099263489246368,0.016819506883621216,0.04144911468029022,0.08285149931907654,0.09420553594827652,-0.05521218851208687,-0.01926727034151554,9.895541734294966e-05,0.03686140477657318,0.040031228214502335,-0.01464077178388834,-0.07190041989088058,0.015797512605786324,-0.06161035969853401,0.027775457128882408,0.027645114809274673,-0.010745873674750328,0.019240327179431915,0.022163646295666695,0.01417834684252739,-0.025279419496655464,-0.04340847209095955,-0.050701770931482315,0.04158388078212738,0.004317081533372402,0.06021173670887947,0.0296624805778265,0.04712212458252907,0.04103633016347885,-0.062269847840070724,0.0014014655025675893,-0.026999900117516518,0.0024606932420283556,-0.01867496594786644,0.053086768835783005,0.033706873655319214,0.113144651055336,-0.020030442625284195,0.0020653042010962963,-0.013701541349291801,0.1310076266527176,-0.007905378937721252,-0.028147440403699875,0.02562001533806324,-0.017856415361166,0.01023399829864502,-0.025986965745687485,-0.06178674101829529,0.06083250790834427,-0.003498199861496687,0.04273274913430214,0.018057744950056076,-0.02209634520113468,-0.01441110298037529,0.05699261277914047,-0.016947085037827492,-0.014703787863254547,-0.0638466328382492,-0.029454410076141357,-0.06734646111726761,-0.018107740208506584,0.028368107974529266,0.03766294941306114,-0.01023998111486435,-0.05740499123930931,-0.015916645526885986,-0.048618968576192856,0.010080618783831596,0.07255992293357849,-0.05704595893621445,-0.014491965062916279,0.016622034832835197,-0.005968610290437937,-0.014819256030023098,0.028506487607955933,0.0299416184425354,0.03027959354221821,0.01959659531712532,0.0056368098594248295,0.04367147758603096,0.039302486926317215,0.011558490805327892,-0.016544073820114136,0.044879596680402756,-0.04104182496666908,-0.018302584066987038,-0.028907455503940582,0.015019461512565613,-0.05195320397615433,-0.00440670270472765,-0.05441443249583244,0.038244202733039856,-0.014747196808457375,0.07106775790452957,-0.015137993730604649,0.007039298303425312,0.03376011177897453,0.047639865428209305,0.03732692822813988,-0.03335447609424591,0.00550810107961297,0.0873146504163742,-0.03797223046422005,-0.052297331392765045,-0.051954470574855804,-0.0014235756825655699,-0.08133941888809204,-0.01951485686004162,-0.02249196544289589,0.062087930738925934,0.04243667796254158,0.04554538056254387,-0.006208096165210009,-0.005642302334308624,-0.011177117004990578,-0.04490944743156433,-0.03682973235845566,-0.025647146627306938,0.035986654460430145,0.040675923228263855,0.1290443390607834,-0.04996360093355179,-0.04772951081395149,0.015582882799208164,0.0160959642380476,-0.03665968403220177,0.0491049699485302,0.019552001729607582,0.06399905681610107,-0.05264436826109886,0.058390650898218155,-0.02271815948188305,0.028253762051463127,-0.054960694164037704,0.038005661219358444,0.01254229061305523,0.07074538618326187,0.02763284742832184,-0.07165683060884476,0.023275477811694145,-0.00092119857436046,-0.0577075257897377,0.04867072403430939,0.059819985181093216,-0.052750080823898315,0.03766323998570442,0.07931183278560638,0.034228090196847916,0.043316248804330826,-0.07927227020263672,-0.04660545662045479,-0.0026043399702757597,0.035303112119436264,-0.0043185739777982235,-0.020008504390716553,0.0790204182267189,0.03788620978593826,-0.028590582311153412,0.0097694993019104,0.025820359587669373,0.07235956192016602,0.05042347311973572,0.01749194972217083,-0.04550174996256828,-0.003136223182082176,-0.012569639831781387,0.06623035669326782,0.03312239795923233,-0.09673965722322464,-0.050774142146110535,-0.016546577215194702,0.0030375560745596886,-0.045426856726408005,-0.10176772624254227,0.027018485590815544,0.016207922250032425,-0.03183308616280556,-4.566153802443296e-05,0.006780799478292465,0.030322609469294548,0.023938007652759552,-0.03884834423661232,-0.07560750842094421,0.055954109877347946,0.018807420507073402,0.04608125239610672,0.002922496758401394,0.0271062683314085,0.0066243610344827175,0.03775758296251297,-0.029551787301898003,-0.017252720892429352,-0.06828482449054718,-0.014416963793337345,0.07681383192539215,0.012909362092614174,0.057547856122255325,0.05967457592487335,0.002808628138154745,-0.11109238117933273,0.021480457857251167,0.09567253291606903,0.022393280640244484,0.06428779661655426,0.045572731643915176,0.08019929379224777,0.07408947497606277,0.03905608132481575,-0.01630217581987381,0.05427539348602295,0.06052828207612038,-0.05319136753678322,-0.017311977222561836,-0.043670520186424255,0.02627570368349552,0.04830557480454445,0.05733145773410797,0.026950066909193993,-0.027525976300239563,0.026363205164670944,-0.007216314785182476,0.07450059801340103,-0.037039805203676224,-0.08327148854732513,-0.008167157880961895,0.09483230859041214,0.010568940080702305,0.024507958441972733,-0.016691967844963074,0.06184373050928116,0.08613740652799606,0.033310092985630035,-0.03773615509271622,0.04699627310037613,-0.07502379268407822,-0.054688721895217896,-0.043901752680540085,0.020884672179818153,-0.0483633391559124,0.03532003238797188,0.0705961287021637,-0.009267845191061497,-0.041070304811000824,0.06694936007261276,0.01594124734401703,-0.03318201005458832,0.024983542039990425,0.018678562715649605,0.07917819917201996,0.0222213976085186,-0.03274146839976311,0.058450113981962204,0.04044615477323532,-0.002254529856145382,0.06557340174913406,0.07008520513772964,0.01638556458055973,-0.0294589102268219,-0.02712658978998661,-0.06829015165567398,-0.04261668026447296,0.04602661356329918,0.005627368576824665,-0.010117916390299797,-0.01338140107691288,-0.010498196817934513,0.022814836353063583,0.06351913511753082,0.03536614775657654,0.07890412211418152,-0.035706400871276855,0.052143312990665436,0.08101420104503632,0.0032096775248646736,0.0006600347114726901,-0.006260700989514589,0.06753160804510117,0.012763967737555504,0.00903612095862627,0.003407959593459964,0.029181506484746933,0.03385867550969124,-0.009645932354032993,-0.036923520267009735,-0.008256172761321068,0.043387435376644135,-0.017593493685126305,0.020352419465780258,-0.034172289073467255,0.008184418082237244,-0.016812650486826897,-0.030100684612989426,-0.009771722368896008,-0.01762768067419529,-0.06638360768556595,0.02349100448191166,-0.035102248191833496,0.024946413934230804,-0.03068351373076439,-0.011771786957979202,0.028634438291192055,0.01782708801329136,-0.03600277379155159,0.05262128636240959,0.004038449842482805,-0.05045454949140549,-0.04173955321311951,-0.030938521027565002,0.00955697987228632,-0.09556712210178375,0.002161371288821101,-0.04531630873680115,-0.0007555860793218017,0.039794985204935074,-0.055638816207647324,-0.055715981870889664,0.04724996164441109,-0.04746916890144348,-0.032972466200590134,-0.013133439235389233,-0.039834849536418915,-0.07186363637447357,-0.06875438988208771,0.01208894420415163,0.04847797751426697,0.06484029442071915,0.06218383088707924,-0.053214434534311295,0.011693752370774746,-0.06398233026266098,0.010723198764026165,-0.056508373469114304,-0.070147804915905,-0.017103666439652443,0.005972600542008877,0.09737003594636917,-0.009671819396317005,0.04587247595191002,-0.0734834223985672,0.002108838176354766,0.003641281509771943,0.023228395730257034,0.09122533351182938,-0.06934342533349991,-0.06045724079012871,0.020859427750110626,0.010722210630774498,-0.017180824652314186,0.06097565218806267,-0.01896134577691555,0.0003623924858402461,0.03231190890073776,-0.06709149479866028,-0.034575629979372025,-0.0006770206964574754,-0.0214505847543478,-0.04624480754137039,-0.05709730088710785,-0.006161588244140148,-0.030713098123669624,0.03510521724820137,0.00627550296485424,0.023640068247914314,-0.007277411408722401,-0.07933339476585388,-0.10042449831962585,-0.05818251892924309,0.00708817271515727,0.019081581383943558,-0.003757351078093052,0.06394094228744507,0.024218088015913963,-0.008618894033133984,0.02237321436405182,0.026092737913131714,-0.04284453019499779,0.002069595968350768,-0.009799230843782425,-0.020055271685123444,0.06361651420593262,0.005108767654746771,0.0682077705860138,-0.05933372676372528,-0.02609730139374733,0.035796720534563065,-0.026777328923344612,0.03209848329424858,0.04379921779036522,0.04810858517885208,-0.1020100936293602,-0.0004706755862571299,0.0009216139442287385,0.017861414700746536,-0.01305900514125824,-0.05899813398718834,0.016499387100338936,-0.00501374714076519,0.022217560559511185,-0.06001521274447441,-0.00656134681776166,-0.03406677395105362,0.12059857696294785,-0.006245377007871866,-0.02622951567173004,-0.001100307796150446
