image_name,dim_0,dim_1,dim_2,dim_3,dim_4,dim_5,dim_6,dim_7,dim_8,dim_9,dim_10,dim_11,dim_12,dim_13,dim_14,dim_15,dim_16,dim_17,dim_18,dim_19,dim_20,dim_21,dim_22,dim_23,dim_24,dim_25,dim_26,dim_27,dim_28,dim_29,dim_30,dim_31,dim_32,dim_33,dim_34,dim_35,dim_36,dim_37,dim_38,dim_39,dim_40,dim_41,dim_42,dim_43,dim_44,dim_45,dim_46,dim_47,dim_48,dim_49,dim_50,dim_51,dim_52,dim_53,dim_54,dim_55,dim_56,dim_57,dim_58,dim_59,dim_60,dim_61,dim_62,dim_63,dim_64,dim_65,dim_66,dim_67,dim_68,dim_69,dim_70,dim_71,dim_72,dim_73,dim_74,dim_75,dim_76,dim_77,dim_78,dim_79,dim_80,dim_81,dim_82,dim_83,dim_84,dim_85,dim_86,dim_87,dim_88,dim_89,dim_90,dim_91,dim_92,dim_93,dim_94,dim_95,dim_96,dim_97,dim_98,dim_99,dim_100,dim_101,dim_102,dim_103,dim_104,dim_105,dim_106,dim_107,dim_108,dim_109,dim_110,dim_111,dim_112,dim_113,dim_114,dim_115,dim_116,dim_117,dim_118,dim_119,dim_120,dim_121,dim_122,dim_123,dim_124,dim_125,dim_126,dim_127,dim_128,dim_129,dim_130,dim_131,dim_132,dim_133,dim_134,dim_135,dim_136,dim_137,dim_138,dim_139,dim_140,dim_141,dim_142,dim_143,dim_144,dim_145,dim_146,dim_147,dim_148,dim_149,dim_150,dim_151,dim_152,dim_153,dim_154,dim_155,dim_156,dim_157,dim_158,dim_159,dim_160,dim_161,dim_162,dim_163,dim_164,dim_165,dim_166,dim_167,dim_168,dim_169,dim_170,dim_171,dim_172,dim_173,dim_174,dim_175,dim_176,dim_177,dim_178,dim_179,dim_180,dim_181,dim_182,dim_183,dim_184,dim_185,dim_186,dim_187,dim_188,dim_189,dim_190,dim_191,dim_192,dim_193,dim_194,dim_195,dim_196,dim_197,dim_198,dim_199,dim_200,dim_201,dim_202,dim_203,dim_204,dim_205,dim_206,dim_207,dim_208,dim_209,dim_210,dim_211,dim_212,dim_213,dim_214,dim_215,dim_216,dim_217,dim_218,dim_219,dim_220,dim_221,dim_222,dim_223,dim_224,dim_225,dim_226,dim_227,dim_228,dim_229,dim_230,dim_231,dim_232,dim_233,dim_234,dim_235,dim_236,dim_237,dim_238,dim_239,dim_240,dim_241,dim_242,dim_243,dim_244,dim_245,dim_246,dim_247,dim_248,dim_249,dim_250,dim_251,dim_252,dim_253,dim_254,dim_255,dim_256,dim_257,dim_258,dim_259,dim_260,dim_261,dim_262,dim_263,dim_264,dim_265,dim_266,dim_267,dim_268,dim_269,dim_270,dim_271,dim_272,dim_273,dim_274,dim_275,dim_276,dim_277,dim_278,dim_279,dim_280,dim_281,dim_282,dim_283,dim_284,dim_285,dim_286,dim_287,dim_288,dim_289,dim_290,dim_291,dim_292,dim_293,dim_294,dim_295,dim_296,dim_297,dim_298,dim_299,dim_300,dim_301,dim_302,dim_303,dim_304,dim_305,dim_306,dim_307,dim_308,dim_309,dim_310,dim_311,dim_312,dim_313,dim_314,dim_315,dim_316,dim_317,dim_318,dim_319,dim_320,dim_321,dim_322,dim_323,dim_324,dim_325,dim_326,dim_327,dim_328,dim_329,dim_330,dim_331,dim_332,dim_333,dim_334,dim_335,dim_336,dim_337,dim_338,dim_339,dim_340,dim_341,dim_342,dim_343,dim_344,dim_345,dim_346,dim_347,dim_348,dim_349,dim_350,dim_351,dim_352,dim_353,dim_354,dim_355,dim_356,dim_357,dim_358,dim_359,dim_360,dim_361,dim_362,dim_363,dim_364,dim_365,dim_366,dim_367,dim_368,dim_369,dim_370,dim_371,dim_372,dim_373,dim_374,dim_375,dim_376,dim_377,dim_378,dim_379,dim_380,dim_381,dim_382,dim_383,dim_384,dim_385,dim_386,dim_387,dim_388,dim_389,dim_390,dim_391,dim_392,dim_393,dim_394,dim_395,dim_396,dim_397,dim_398,dim_399,dim_400,dim_401,dim_402,dim_403,dim_404,dim_405,dim_406,dim_407,dim_408,dim_409,dim_410,dim_411,dim_412,dim_413,dim_414,dim_415,dim_416,dim_417,dim_418,dim_419,dim_420,dim_421,dim_422,dim_423,dim_424,dim_425,dim_426,dim_427,dim_428,dim_429,dim_430,dim_431,dim_432,dim_433,dim_434,dim_435,dim_436,dim_437,dim_438,dim_439,dim_440,dim_441,dim_442,dim_443,dim_444,dim_445,dim_446,dim_447,dim_448,dim_449,dim_450,dim_451,dim_452,dim_453,dim_454,dim_455,dim_456,dim_457,dim_458,dim_459,dim_460,dim_461,dim_462,dim_463,dim_464,dim_465,dim_466,dim_467,dim_468,dim_469,dim_470,dim_471,dim_472,dim_473,dim_474,dim_475,dim_476,dim_477,dim_478,dim_479,dim_480,dim_481,dim_482,dim_483,dim_484,dim_485,dim_486,dim_487,dim_488,dim_489,dim_490,dim_491,dim_492,dim_493,dim_494,dim_495,dim_496,dim_497,dim_498,dim_499,dim_500,dim_501,dim_502,dim_503,dim_504,dim_505,dim_506,dim_507,dim_508,dim_509,dim_510,dim_511
scanned_faces/12345.jpg,-0.05341416,0.013792701,-0.006311381,-0.0013081868,0.028907504,-0.0052881795,0.055500608,-0.10842403,0.028871141,0.047257956,0.10225941,-0.025399584,0.06386575,-0.01832661,-0.028436145,-0.015452956,-0.0075651915,0.049900405,0.06631572,0.038907256,0.097779214,-0.029737681,0.034481093,-0.033134647,-0.039074358,-0.020031057,0.0033716208,-0.06701501,-0.04093859,-0.011491267,0.023144819,0.04152665,-0.04017779,0.02686936,0.044161566,-0.01997266,0.085801534,-0.03238132,0.0075589526,0.055014767,-0.05187944,-0.026499318,-0.02919285,0.06627496,-0.022430787,0.06158838,0.0067670173,0.026579818,-0.023600575,-0.0056934464,0.012668794,-0.06976576,-0.09938215,0.012719434,0.030155526,-0.079851545,0.053281527,0.014699138,-0.022756465,0.03556754,0.02886366,0.064191125,-0.039678674,-0.08899632,-0.02346538,-0.008085847,-0.005607642,-0.035208512,-0.057781383,0.0039497255,0.03385794,0.000634876,-0.016229577,0.018722655,0.072888315,-0.020502185,0.008563866,0.07447913,-0.052158404,-0.04297527,-0.060452778,0.00301746,0.030732518,-0.06578933,-0.067322776,-0.012032351,0.044318814,0.042687,-0.019752393,0.022811392,-0.03884746,-0.0068361154,-0.06575669,0.060977817,0.06237569,-0.034515694,0.022159712,0.016096823,-0.087666266,0.095335424,0.019896507,-0.022846635,0.02197105,-0.048290763,-0.059959035,-0.037980784,-0.033538904,-0.022538885,-0.090501875,0.024754334,0.029072262,0.006085138,-0.031189034,-0.016520733,0.0039496194,0.010339381,0.03983792,0.06311204,0.03322307,0.085372575,0.028777096,0.015857788,0.022548623,0.040496133,-0.022781339,-0.024540871,-0.078353204,0.052554313,0.037905473,-0.024805093,0.04017218,-0.025014577,-0.0043726824,0.009286007,0.034720752,0.0505671,-0.017925126,0.0026698478,-0.057968583,0.0068141483,-0.0041733677,0.017608594,-0.024079274,0.03895926,0.009518697,0.035034515,0.008262831,0.04335355,0.09483671,-0.0041537387,0.016045922,0.018740091,-0.030750407,0.00026271553,0.036107276,-0.06634562,-0.045754436,0.08694261,0.010723778,-0.023612507,-0.035756234,0.006194067,-0.107507,0.11547566,0.048361678,0.021193948,0.02444802,-0.06108879,0.023727495,0.0056327363,0.02389264,0.015172827,0.01259226,-0.0344477,-0.035951994,-0.04251648,0.0119347945,0.0026655465,-0.016503291,-0.032860804,0.042743843,0.01394465,0.026837228,0.02997179,-0.049719695,0.07258434,0.06294863,-0.010637669,-0.05000617,-0.0359583,0.004606381,0.00795158,0.10583069,0.04443665,-0.010097029,-0.09823566,-0.042480107,0.04358097,0.0115625905,0.029306613,0.013569559,-0.054464344,0.0005097205,0.043914706,0.019763645,0.06351344,-0.020372156,-0.046650235,0.03021572,-0.045997575,0.016071703,-0.07018777,-0.038532604,0.018980512,-0.013840622,-0.03774681,0.0448766,-0.03932241,0.08579706,0.060122296,0.06637821,-0.04428419,0.04421071,-0.07276117,0.020159844,0.022201352,-0.00771687,0.009043797,-0.049863018,0.07023685,-0.032707777,0.12411755,-0.06759243,0.05137632,0.04847242,0.09215148,-0.039083518,-0.04463779,-0.007207604,0.018580562,-0.0368592,0.08699846,0.04139684,0.0880596,-0.0056982916,-0.030733848,-0.048885655,0.033127025,0.057548787,0.031805463,-0.020960031,-0.02332603,-0.01003919,-0.0774842,-0.028978555,-0.05063337,-0.013912632,-0.015132448,0.042031743,-0.004320996,-0.07326562,0.001953325,-0.02299388,0.07540553,-0.08436942,-0.012107512,0.03840688,-0.057753462,-0.00372907,-0.05835024,0.06650894,0.005805264,-0.045506164,0.06054606,-0.009177631,-0.016002126,-0.007838605,0.018251134,-0.031281292,-0.049569197,0.021438645,0.03406936,0.0014264643,-0.017284928,0.01627792,-0.06216048,0.014176711,-0.13588329,-0.06546231,-0.0032034314,0.029722989,0.01400075,-0.054420672,0.0012517752,-0.029541582,-0.022729916,0.036753703,0.022945542,0.022874013,-0.0237053,0.026310254,0.07288723,-0.045353133,0.044417523,-0.005754364,-0.0051891734,-0.03296508,0.06534615,0.0069352463,0.013033374,0.036433842,-0.0035115357,0.060605697,-0.060859043,0.014716178,-0.008694182,0.045064114,-0.07810449,0.05394424,-0.03332004,-0.0033768076,0.026963335,-0.06160018,0.0014755926,0.017975789,0.026284106,0.111470416,0.02578267,0.044680107,0.025160767,-0.06559326,-0.008051595,-0.027167099,0.030018626,-0.0327173,-0.03034728,0.009456469,-0.05754388,-0.008881387,0.015044041,0.024703376,-0.01779626,0.00012929941,0.01577028,0.016595973,0.077530265,-0.063260905,0.011834923,-0.029510617,0.007092005,0.019668976,0.018236576,-0.0062435344,0.08977249,-0.0060785306,0.01271926,0.10224669,0.064377174,-0.027158046,-0.018577674,0.04548597,0.026556803,-0.08027916,-0.045338135,0.010424913,-0.009526569,-0.010910254,0.023760784,-0.1210391,-0.013606329,-0.04130837,0.004088632,-0.05650788,0.039312508,-0.020021956,-0.043984443,0.052824743,-0.04395515,-0.06959929,-0.028397165,0.050772414,-0.03811821,0.024841571,-0.008155659,-0.021505628,0.0054128775,-0.10088469,-0.049775977,-0.073248714,0.044589102,0.0118663255,0.05524407,-0.0030471215,-0.011373979,0.047403447,-0.007220079,0.010179428,0.026558176,0.006778769,0.0061007184,-0.0010207653,0.0018975477,0.057378612,0.06050055,0.033438683,-0.007882591,0.016339852,0.03363601,0.06862841,0.0026615313,-0.020217864,-0.04057841,-0.0152971465,0.06962437,-0.06685966,0.0005034869,-0.009860202,0.005947218,0.0026799706,0.012293969,-0.027010618,-0.024783203,-0.06266899,0.00034945362,-0.029849702,0.0913792,0.057779092,-0.04628139,-0.03355767,0.07537301,-0.00067896134,0.052537616,0.010060731,0.021375539,0.01055572,0.04929684,-0.009881444,0.0044396645,-0.0017011748,-0.03459394,-0.008241629,0.016793195,0.043194376,0.040742554,0.08628468,-0.06543218,-0.0014088344,-0.0016933299,-0.01882421,-0.0017083221,0.013384589,0.04203819,-0.054865796,0.006637609,-0.047095895,0.041816752,-0.06288829,0.08136047,0.063386634,0.04988238,0.027157584,0.057762064,0.021896226,-0.028212005,-0.05620118,0.021917982,-0.09325723,0.094867125,0.025988095,-0.023238394,0.08160615,0.0003715643,0.043648046,-0.009446528,0.0024180822,-0.0045535904,0.012287,0.032497,-0.016776115,0.0027065717,0.0041050026,-0.0035050183,0.037660886,0.06625462,0.0050726715,0.058268555,-0.022567917,0.02622178,0.027226869,-0.045933045,0.0139661785,-0.034810085,-0.023199352,0.034861833,0.07145969,0.0447735,0.01380861,0.03998421,0.039733715,-0.0110390205,-0.01558305,-0.05348354,0.14067028,-0.028744735,-0.0075415443,0.057003558,0.019218557,0.029888315,-0.04733586,-4.9839637e-05,-0.027385365,0.05327782
scanned_faces/12341.jpg,0.04658394,0.013098384,0.034055173,0.019672912,0.006282405,-0.009676758,0.089378454,-0.014118746,0.08412349,-0.027896062,0.014357751,0.040792797,0.04236426,0.04652635,-0.02759751,-0.06752253,-0.044286128,0.03139143,0.025088131,0.00777002,-0.009678401,-0.010218005,0.0066042915,0.0028325252,-0.009762959,-0.010198213,-0.054187067,-0.040862873,-0.055131108,-0.059424914,0.07192748,0.05105128,0.018425662,-0.08171508,0.085151546,-0.0022106387,-0.019323116,0.050192054,-0.030935159,0.0024461932,-0.004584926,-0.029503342,-0.081101835,-0.0078871995,-0.059050497,-0.050994396,-0.058893625,0.038982444,0.033892248,-0.07349769,-0.01574752,-0.033966817,-0.05376248,0.045046397,-0.012827118,0.026980689,0.037169486,0.014349529,-0.037777547,0.0075948616,-0.015542887,0.032765254,0.034713525,-0.022968506,0.01416366,-0.00401393,-0.0009743551,-0.07424284,0.0676853,-0.017500589,0.01596202,0.015705798,-0.034097567,-0.05087231,0.05397872,-0.04421149,0.020615788,-0.012238291,0.009905201,0.06312806,-0.071224995,-0.0060409363,-0.029905979,-0.016514935,9.895959e-05,-0.01909036,0.094629325,-0.0032748333,-0.0051563,0.012102488,-0.027842248,0.03749199,0.029889008,0.017089665,0.03639643,-0.05120161,-0.032879435,-0.064025514,-0.10392599,0.08311137,0.018926261,-0.0033671951,0.022443617,-0.013120041,0.060609993,0.043785747,-0.008333789,0.08256864,0.020696033,0.04816147,0.025949525,0.017851958,-0.07084745,-0.0030468113,-0.071686655,-0.0831153,0.05692528,0.021737648,-0.105294235,-0.011383702,-0.08378028,0.0061261943,-0.047425367,0.06918085,-0.09386847,0.013296818,-0.039135404,-0.070097074,-0.011621565,0.052550253,-0.024205007,-0.04587571,0.08179832,-0.048739623,0.02193582,0.084156245,0.018747928,0.036487468,0.031720415,-0.015464005,0.05709815,0.021280382,0.020348765,0.050057866,-0.017119974,0.056413624,-0.060082626,0.015145565,0.031114124,0.005667138,0.026419498,-0.042117458,-0.023750586,-0.01858196,0.011714178,-0.020338116,0.038239233,0.09260393,-0.046841327,0.04143038,-0.044466715,0.010046328,-0.022432966,0.047042582,-0.022794388,-0.03210118,0.0090896115,0.029778885,0.0420287,0.04543539,0.007736243,-0.014972356,-0.041240063,-0.022898791,-0.03189201,-0.03226872,-0.04430896,-0.0052278605,-0.017680379,0.03373823,-0.039784778,0.03736716,-0.008219916,-0.025160663,0.023566313,0.014087775,0.035541955,-0.029695451,-0.06357687,-0.029475303,-0.011320439,-0.0121386,-0.00068184873,-0.017951671,-0.027253399,0.02034575,-0.011112881,-0.032250423,0.107837975,-0.02078655,0.06039289,0.06686297,-0.034273166,0.028654585,0.0605138,-0.025761338,-0.059019856,-0.014149775,0.025324805,0.02074381,-0.0639886,-0.12121921,-0.04203764,-0.011653987,-0.05454254,0.010129776,0.022987297,0.0010996264,0.034557723,0.0445894,0.032489866,0.03770831,0.024980765,0.048170112,-0.011191582,0.0026370678,0.007142742,-0.0031643256,-0.06527797,-0.0024771318,-0.0017498641,0.013174475,-0.032009095,-0.08755538,0.0073905317,0.08751261,-0.07105598,0.09440428,0.014219228,-0.039574668,-0.03256194,-0.038712434,0.06573816,0.016153993,0.04008207,-0.028103618,0.07049041,-0.03389738,0.022308933,0.027860273,0.03329239,-0.04098549,0.005276968,0.09012219,0.0032433164,0.01081948,-0.015112516,0.05640536,-0.02777985,0.02646018,0.06041661,0.109474674,0.037128914,-0.0015261591,0.027836641,-0.03175498,-0.03412658,0.042864185,-0.0077692103,0.040581744,-0.026312197,-0.09581072,-0.04255212,0.0376367,0.028596846,-0.009783898,-0.03279562,-0.13348287,-0.0410142,-0.014007187,0.007895924,0.05529927,-0.12828274,-0.017591413,-0.07180394,-0.020786213,-0.09336211,0.00097268715,-0.016492695,0.0418052,-0.030774897,-0.040833857,0.07703635,-0.06116914,0.03994352,-0.00849783,0.026072303,-0.06545701,-0.036208645,-0.021196142,-0.040364172,0.042586803,0.055908244,-0.017048316,-0.06320627,-0.038951784,-0.041253515,-0.009538479,0.020428687,-0.031589974,0.020626958,0.015705626,0.0701522,0.02409386,0.017388469,0.02112984,0.06779003,-0.004735949,-0.06912882,-0.09552151,-0.02206391,-0.01605991,0.012394846,0.03870753,0.035602193,0.017891107,-0.008383911,0.018835636,0.016561704,-0.0125602055,-0.0021813181,0.07079111,0.0023349582,0.028181177,0.016800068,0.002826921,0.029218892,0.01811072,-0.010869757,-0.024384612,0.022198914,-0.041555107,-0.017800367,-0.064180546,-0.005515851,-0.021042276,-0.0011601077,0.06193068,-0.08745157,-0.041519247,-0.037168127,0.06689474,0.013493735,-0.007529795,-0.02047749,0.05945757,0.07626182,0.045032438,0.09304218,0.008990982,-0.04673031,0.16288386,0.02033806,-0.0037795012,-0.050726272,0.046882503,-0.018459061,0.051410474,0.01006718,0.020570574,-0.03071028,-0.032084923,0.053750295,0.08256025,-0.03526902,-0.030208072,0.015266849,0.06623256,-0.032388624,-0.017345622,0.014435548,0.07418226,-0.018502159,0.03141421,0.021286229,0.007567582,-0.03127066,-0.026451433,-0.03133403,0.018942604,0.037153307,-0.083297536,-0.058634028,-0.00018517143,0.0019657728,-0.026740229,-0.016456276,-0.03595232,-0.061055332,0.020302048,-0.03239061,-0.0031224466,-0.049881093,0.014172931,-0.0167509,0.026984036,0.0028051895,-0.071637265,0.019578846,0.010721038,-0.031618547,0.049761765,-0.016012361,-0.049376395,-0.019884814,0.014627872,-0.037591822,-0.036445137,-0.02721222,-0.0035215693,0.045973677,-0.0041424856,-0.10228928,0.051735453,0.09210944,0.0003922627,-0.015672332,-0.0072615165,0.009720956,-0.0009469432,-0.045732826,-0.020376867,-0.0033317641,-0.055307988,-0.078061745,0.0041700285,-0.052821487,0.022194292,-0.0029727316,-0.043094598,0.019969912,0.0041810623,0.028168317,-0.013718203,0.017339986,-0.0683374,-0.0116338935,-0.021880394,-0.11130377,0.061672654,0.013646285,-0.009014138,-0.034654845,0.014271749,-0.048212264,-0.07220293,-0.049932867,0.054641943,0.0693666,0.0024703972,-0.02704719,0.07959228,0.024372248,-0.021795545,-0.08771004,0.06129631,-0.027298592,0.011853995,0.041692108,-0.10743599,-0.0046341107,-0.02523816,0.031428326,-0.090735026,-0.0052763396,-0.042221252,-0.077041015,0.034832217,0.0053703953,-0.055330947,-0.033220213,0.042241205,0.049105864,0.012104632,0.03647885,0.0068952753,0.003896682,-0.0524002,-0.02438911,-0.06472055,-0.013334365,-0.026810303,-0.029691475,-0.020555306,0.035069626,-0.01123627,-0.07145673,0.0037493035,-0.09669635,-0.024472544,0.029273666,-0.026522616,0.024109235,-0.0007114229,0.018518966,-0.042492643,0.026992328,0.039036326,0.025610493,-0.022264663,-0.10590192,-0.026406148
scanned_faces/36363.jpg,-0.06546395,0.061474063,-0.017769996,-0.042106178,-0.025264088,-0.055926744,0.05586073,-0.054188803,0.077664785,0.035266723,0.10490258,-0.050705712,0.049270917,-0.019202216,-0.04501679,0.022795796,-0.038555592,-0.014131349,0.021440858,0.049376212,0.03594589,-0.055403247,-0.01606855,-0.07729473,-0.046984162,-0.040119864,-0.021414274,-0.062840536,-0.009278233,-0.050976425,-0.008530611,0.057085264,-0.010462604,0.03415847,0.051728398,0.012535622,0.07427379,-0.009525241,0.037228774,0.0387982,-0.035646148,-0.028275136,0.016637014,0.043679066,-0.06768913,0.0046870597,-0.06622819,0.041159686,-0.021928225,0.00980599,0.0013034061,-0.030730512,-0.097563416,-0.0035488724,0.015009297,-0.020537872,0.017361814,-0.009530453,-0.025764601,0.047358803,0.04729679,0.0597236,-0.04032808,-0.028030653,-0.03812446,-0.017078925,-0.008505233,-0.04567904,-0.03199662,-0.028528176,-0.018168598,-0.06822741,-0.005766097,-0.0059934547,0.031566672,-0.034209136,-0.019107347,0.050855394,-0.038636643,-0.022061165,-0.08433689,-0.013893187,-0.04400049,-0.05188993,0.0024505795,-0.017228488,0.040517345,0.040440436,-0.06028186,0.03028434,-0.041761916,-0.054448545,-0.03127951,-0.016923567,0.0001985201,0.008695692,0.031042172,-0.022455996,-0.041041136,0.06963755,-0.00052725105,-0.012370021,0.0015209591,-0.017166065,-0.058783133,-0.040344823,-0.023026075,0.0002389924,-0.049761094,-0.0016926461,0.021314288,-0.012080873,0.0067342473,-0.0032641152,-0.013360223,0.02716214,0.039117966,0.055246603,0.00045669745,0.01472034,-0.0056134616,-0.0024077052,0.00090341497,0.09369328,-0.010954183,-0.06765396,-0.03427983,0.011013687,-0.047992643,0.055060674,-0.07332316,-0.0124256825,0.04332965,-0.062209334,0.0514058,0.034706444,0.032603245,-0.024131965,-0.021107107,0.036160737,0.05623706,-0.047905955,-0.009687117,0.031177292,-0.047182538,0.036727276,-0.022387221,0.09577536,0.0009177319,0.0021011399,0.048718963,0.03137292,-0.035386153,-0.048016228,0.064920515,-0.012168477,-0.01654582,0.122375995,0.006547344,0.013416191,0.05737153,0.014669235,-0.02673337,0.045026492,0.044416387,-0.006409423,0.041113503,-0.045162532,0.038704075,0.043113794,0.014044471,0.046314836,0.03762907,-0.079410225,-0.02928242,-0.10049145,0.010971047,-0.036905833,-0.043650445,-0.05361782,0.01945356,0.03040698,-0.006697678,-0.021272872,-0.06280182,0.0880903,0.006755196,-0.01945705,-0.09130072,-0.0007597269,-0.03411469,0.06546886,0.07499064,-0.01767253,-0.008325309,-0.055942673,-0.0055972836,0.020580538,0.032536745,-0.053439744,-0.009894802,-0.033759516,0.02467513,-0.029743813,0.0111180255,0.040981315,-0.06302666,-0.048006006,-0.019004397,0.034837443,0.008154419,-0.055353228,-0.0036725677,-0.060697492,0.0054921065,-0.03832874,0.031263556,-0.034674898,0.039530445,0.04793805,0.114713356,-0.0065140207,0.06466757,-0.058291532,0.020368392,-0.0007195106,0.04523321,-0.021701124,-0.09276397,0.06560189,-0.025750259,0.07830563,-0.102196574,0.0017845299,0.008735956,0.115113236,0.01047528,-0.063011214,-0.010238299,0.010674905,0.006746145,0.058006402,-0.014929458,0.030481555,-0.053322505,0.001969338,-0.040787436,0.044891186,0.032577246,-0.016133357,-0.073663406,-0.003990212,0.024378553,-0.029888079,-0.014014471,-0.0011209276,-0.05340629,-0.026487453,0.023494696,0.058975793,-0.0067726406,-0.0019991067,-0.013434994,0.061472945,-0.039034877,-0.005955401,-0.025401916,-0.042788073,-0.03129626,-0.07274842,0.04230086,0.007290902,-0.05602755,0.07367569,0.038324114,0.04505598,-0.019610152,-0.018186355,-0.033202928,0.006219844,-0.0494105,0.06437208,0.008191432,-0.0060969074,-0.020937173,-0.07524815,0.040883422,-0.020292947,-0.05350579,0.0034934266,0.034925222,0.030658973,-0.02969466,0.019967867,0.0016137084,0.013411508,0.011331848,0.005895089,0.03812112,0.016137209,-0.057095557,0.07900316,-0.04412926,-0.03831042,-0.026341075,-0.012509062,0.045475163,0.023106594,0.03084404,-0.066682,-0.025613884,-0.044586554,0.015581275,-0.14420268,0.03632253,-0.033869658,0.055423632,-0.0782862,0.020661805,-0.07083726,-0.067096606,0.030977735,-0.07389624,0.009290164,-0.01648615,0.040990867,0.012564864,0.065006405,-0.011001164,0.04958293,-0.036050595,0.0060740276,-0.08246239,0.05173001,-0.012760651,0.02469776,0.005849716,-0.05103883,-0.0066472976,0.020409413,0.018749332,-0.053115923,0.027113046,-0.0065740524,0.010270599,-0.011984402,-0.038196854,-0.006345932,-0.039823327,0.057867084,-0.045313783,0.036147054,0.03835722,0.07950597,-0.007980741,-0.04199507,0.079275995,0.048990622,-0.03632154,-0.016807169,0.039058223,0.052127592,-0.10587008,-0.100559175,-0.02175959,0.031026378,0.0041790563,0.0736612,-0.10227624,-0.054558773,-0.0041357083,0.0053081643,-0.027861558,0.113804616,-0.04265707,-0.050741423,0.038291875,-0.03483071,-0.08331024,-0.034295373,0.029309388,0.028986068,0.031415727,-0.017873943,0.030262833,-0.07410111,-0.049605027,0.006137743,-0.07174792,0.030268306,0.09689813,0.020274404,-0.0459359,0.008595617,-0.009473791,-0.078608304,0.0062833247,0.013606924,-0.024437075,-0.021807738,0.015826961,-0.02076485,0.0046053273,0.03754913,-0.03444161,0.04666779,0.029245656,0.00045218525,0.07520002,-0.017986028,-0.051540438,0.016666086,-0.030331632,0.0051782876,-0.09691314,0.027061965,-0.049855128,0.01625194,-0.040157173,0.023519928,0.040962335,-0.001079832,-0.054935858,-0.006023905,0.029735325,0.09719927,0.056161683,-0.0848624,0.03666798,0.09287954,-0.047877304,-0.018183561,0.056083906,-0.03333633,0.012334524,0.023234803,-0.017356206,-0.04789466,-0.060753264,-0.001936867,0.008578899,0.091013126,0.041661244,0.03857457,0.042251904,-0.03325517,0.033094432,-0.01959864,-0.030688336,-0.011873487,-0.0010983007,-0.014916573,0.00545118,-0.033254605,-0.072276376,-0.014526129,-0.0023290585,0.07637497,0.057175767,0.027043702,0.06191314,0.10246166,0.08219606,-0.028623411,-0.06201276,0.060567938,-0.005047539,0.03419041,-0.01819594,-0.049452174,0.036076713,-0.011852078,0.009923503,-0.028784646,0.030933332,0.045363918,-0.0151264975,0.063830815,0.006764729,-0.040404756,0.0077582304,-0.032766793,0.015126922,0.06601115,0.016064595,0.06277709,-0.004977902,0.033195253,-0.031839743,-0.04260951,0.02489306,-0.023293175,0.0042429795,0.01567752,0.08058549,0.051104415,-0.0068591633,-0.034747597,-0.0010316094,-0.108464025,-0.050643194,-0.020118993,0.057453457,0.005069433,-0.0016235614,0.03540925,0.015964827,-0.0004513893,0.0009922873,-0.025342459,-0.04666525,0.09260912
scanned_faces/33456.jpg,-0.049237862,0.062575154,-0.008386622,-0.07858171,0.02136022,-0.03876518,0.01950883,-0.06717369,0.06264052,0.0540804,0.06743602,-0.0141259935,0.0044399328,-0.031798262,-0.023473412,0.05541694,-0.020927446,-0.0010438613,-0.013410984,0.04680699,0.05112821,-0.032848604,0.007949395,-0.051194426,-0.05196553,-0.005774291,-0.004820082,-0.09948791,-0.04944474,-0.066990204,-0.028351309,0.066918105,0.009408508,0.052361116,0.07426205,0.04250996,0.11348197,-0.028167935,0.010146352,0.06083726,-0.029813271,-0.03749105,-0.040968146,0.02857699,-0.08976362,-0.019896686,-0.01232455,0.05861504,-0.04562626,0.0429112,-0.015375315,-0.017704,-0.098573074,-0.015045268,0.011140479,0.004840779,0.010349156,-0.004797002,-0.012984773,0.0040316684,0.049195834,0.08202617,-0.06146937,-0.032754105,-0.03165231,-0.035974763,-0.011302337,-0.01160304,0.00900552,-0.015555853,0.0013180492,-0.06912718,-0.03009856,0.006721476,0.02562467,-0.015687006,-0.065698564,0.059902057,-0.020776786,-0.048063383,-0.057947073,-0.024925124,-0.044678085,-0.052763965,-0.027218232,-0.031044891,0.03473597,0.08442495,-0.07090927,0.026306238,-0.056817584,-0.034674443,-0.03209906,-0.015605067,0.014290008,-0.019470885,0.004918654,-0.013051629,-0.06395755,0.020615868,0.03429937,0.02099869,-0.029852659,-0.024902172,-0.015438413,-0.051793635,-0.0013872223,-0.054441724,-0.05244606,-0.045687508,0.01966464,-0.035300314,-0.011231245,0.0024776042,0.002895157,0.03214594,0.080802664,0.0397866,0.015038412,0.0048811827,-0.011143752,-0.04458438,-0.0021359627,0.09771538,-0.014552887,-0.037358623,-0.030031161,0.0018743806,-0.052213114,0.0107675,-0.0530039,0.0012394988,0.016533583,-0.15488921,0.045440707,-0.009454433,0.0061843563,-0.023646569,-0.027775405,0.026888238,0.058417358,-0.04273925,-0.044597954,0.03372465,-0.033764645,-0.00955033,-0.01579268,0.061718494,0.029208168,0.017842736,0.027514394,-0.0012848111,-0.021010745,-0.059075452,0.062732585,0.014069396,0.0047638607,0.1377546,0.026354037,-0.014228802,0.02516535,0.0074351854,-0.05969672,0.05715642,0.029712265,-0.014161774,0.02123064,-0.02051397,0.054451395,0.0053504584,0.002772196,-0.0010595679,-0.023044126,-0.055865526,-0.013513371,-0.07357963,-0.04012157,-0.028052226,-0.046623148,-0.021922635,-0.007394594,0.0055355136,-0.0015018117,0.023354648,-0.01810931,0.07821577,-0.007234401,0.04610837,-0.089300886,0.016806407,-0.013774873,0.052941125,0.07240024,0.0064201313,0.0049175858,-0.07677626,-0.0016202282,0.036659762,0.03530842,-0.005511587,-0.019407464,-0.071217224,0.0058400924,-0.011022546,0.012946134,0.03406669,-0.046777997,-0.021665843,-0.027080934,0.0176673,-0.03264683,-0.067082256,-0.005217098,-0.053671464,-0.020191533,-0.052346867,0.029656487,-0.0065874774,0.04164133,0.05811357,0.038231447,0.01248302,0.061887287,-0.03906199,0.06907799,0.010240763,-0.020697916,-0.034827434,-0.074520275,0.09541047,-0.030929618,0.060371924,-0.07966814,-0.017350676,0.07647613,0.060623445,0.028105795,-0.08225013,0.012544124,-0.0018177246,0.009436887,0.045628604,0.02860666,0.041644365,-0.040555518,0.003280794,-0.019102637,0.028396258,0.05081877,-0.034777243,-0.039030526,-0.023106096,0.033668295,-0.037195798,-0.01949143,-0.053184446,-0.02812549,0.03305059,0.0058227396,0.077733256,0.01977121,-0.006381294,-0.01321074,0.071388945,-0.0580556,-0.023802936,0.025182743,-0.050011147,-0.007677103,-0.04033332,0.03088537,-0.0072502033,-0.06800703,0.014067527,-0.002301158,0.034007996,-0.03785008,-0.016641546,-0.035125166,-0.02969516,-0.04542767,0.043045465,0.030740742,0.026579434,-0.024205795,-0.05766974,0.038327467,-0.07859348,-0.015634827,-0.0059621106,-0.011568985,0.039902303,0.0058162836,-0.006650941,-0.018797254,-0.011504692,0.03467375,0.011073797,0.049049668,0.017722541,-0.03995508,0.058683258,-0.079185784,0.038401566,-0.022485787,-0.049557853,0.016600622,-0.017376399,0.0025810697,-0.054735135,0.015279073,-0.0510465,-0.01752545,-0.13940215,0.03762785,-0.023690566,0.029628769,-0.021373242,0.015866205,-0.08208722,-0.032507256,0.03504777,-0.10722439,0.037613425,-0.04991032,0.076535314,0.04171026,0.08309273,0.009887377,0.08861435,-0.04589625,-0.005806438,-0.08198735,0.017219143,-0.037086807,0.016391402,0.029567039,-0.07347685,0.00302027,0.03259345,-0.010424251,-0.06002783,0.014259241,0.0009688825,0.002229552,0.033448834,-0.018732078,0.013801304,-0.030690027,0.034461647,-0.049324382,0.06600631,0.020598233,0.044847663,-0.008222731,-0.035115596,0.08554605,0.019824872,-0.034766298,-0.02881066,0.03535179,0.02523222,-0.10042424,-0.11806481,-0.014594641,0.047268216,0.03596569,0.08633803,-0.06370476,-0.033931825,-0.06633913,0.01888822,-0.01473267,0.07197884,-0.008994678,-0.047862146,0.0166555,-0.0395169,-0.07763976,-0.0026371297,0.016685018,0.0010919883,0.03335211,-0.0039571864,0.06968854,-0.059548374,-0.034057606,0.009098674,-0.05633919,0.054426532,0.017528959,0.059753753,-0.04478127,0.01303977,-0.040743504,-0.0581099,-0.009071774,-0.0018929164,-0.038554937,-0.011606757,-0.004006753,-0.03941006,0.018060159,0.018376907,-0.028720759,0.02668106,0.019995559,0.0033202234,0.07111652,-0.014916563,-0.033387408,-0.028937414,-0.028163044,0.050749253,-0.14899336,0.051404286,-0.024493761,-0.020805545,-0.0320907,-0.025982266,0.027354019,-0.0017189205,-0.0630892,0.018559083,0.018914491,0.07224723,0.068770155,-0.0867444,0.0014323083,0.0824027,-0.0357419,-0.019734422,0.03939686,-0.03875758,0.0065165986,0.008734951,-0.011207919,-0.008854737,-0.066332735,-0.004771295,0.003136731,0.07994441,0.03875222,0.028291332,0.038276855,-0.03308303,0.027821846,-0.0054604737,-0.02887741,-0.021931821,0.018699039,0.032847036,0.043020345,-0.015401756,-0.06339319,-0.020883398,-0.012105839,0.119141944,0.057315197,0.035087433,0.07347736,0.091115385,0.08111006,-0.035465304,-0.044658806,0.055540863,-0.035376605,0.058908984,0.021029089,-0.045074522,0.023347283,0.0011562022,-0.0025227075,-0.004328299,-0.0037515804,0.020878369,0.0017460133,0.04152107,-0.033987194,-0.05422095,0.043238826,-0.011996694,0.032061644,0.038841035,0.084743425,0.074359715,0.041575015,-0.025456868,0.032344375,-0.0770079,0.027828928,-0.048719242,0.0034519879,0.047474,0.06765286,0.024709208,-0.009468587,-0.009016983,0.0019059519,-0.08963664,-0.07274695,0.0030234014,0.06088781,0.025265235,0.0011538885,0.005337164,0.0016134052,0.0139841195,-0.020570707,-0.03236956,-0.015125933,0.107789755
scanned_faces/22222.jpg,0.01094841,0.008375257,-0.053090226,-0.03579836,-0.02188699,-0.09991046,0.0037102788,-0.0121805435,-0.03318465,0.02898008,0.066659465,0.0061096675,-0.022185462,-0.02359732,-0.013056182,0.031959776,-0.0056219078,0.021525927,0.013785824,0.014636048,0.0010716504,-0.041504055,0.038366392,-0.08569692,-0.008838054,-0.07534413,-0.010781405,-0.10028255,0.024591098,-0.092586905,-0.00044850932,0.0060427114,-0.016130699,0.06537065,0.017528754,-0.035522524,0.02976252,-0.056964844,-0.033125088,0.037994005,-0.050853502,-0.007973989,-0.022007866,0.035720214,-0.04150704,-0.009702347,0.006134705,0.048207927,-0.036571898,0.046279773,-0.05811912,-0.040310144,-0.0065388577,-0.04287066,0.032764707,-0.012978968,-0.03189544,-0.010710378,-0.04345457,0.020858916,-0.04482901,0.07443514,-0.009984293,0.116145626,0.05614543,-0.07914744,0.0010804257,-0.02067409,-0.025284821,-0.10646254,-0.005453333,-0.034682587,0.021528961,0.040468074,-0.0335684,-0.06219544,0.025397532,-0.0050221034,0.083542265,-0.03729022,0.008967111,0.01749588,-0.10023938,0.053135313,0.011889225,0.061244708,-0.0051020714,0.0707272,-0.020441916,-0.030143252,0.009285052,-0.0090303635,-0.061856605,-0.089897044,-0.042166676,0.040885545,-0.028782822,0.050490018,-0.008179853,-0.0029451242,0.012621884,0.022711,-0.03762885,0.031269774,-0.029657822,-0.06413212,0.004980452,-0.03631358,-0.01036408,-0.06322044,0.076349355,-0.03353362,0.075906605,0.041637775,-0.022222098,0.046674483,0.014280702,0.038039785,-0.0077258814,0.06951003,0.005179798,-0.061561417,0.04671835,0.05895937,-0.041076314,0.009815668,0.048648544,-0.042024486,0.0028957028,0.011083041,-0.02201064,-0.030216994,0.014724155,-0.04616164,0.055693936,0.017529534,-0.03886093,-0.020042405,0.019359339,0.024913393,-0.018919991,0.022587895,-0.016808318,-0.04842396,-0.04455296,-0.01750437,-0.05799507,0.099145345,0.04996914,0.016161287,0.040866025,0.07902481,-0.00672854,-0.03730577,0.034065425,0.024511619,-0.012779761,-0.01931725,-0.055417098,-0.023730798,0.008596204,0.028452512,0.04821616,-0.022980316,-0.030265624,-0.00042409485,-0.044245973,0.100039236,-0.07480067,-0.01872356,-0.08160429,-0.07062491,0.017990297,-0.027404768,-0.049431637,-0.007899067,-0.06856244,0.047279835,0.029695367,0.022157982,0.0287287,-0.026958248,0.08322496,0.052598782,-0.0037710757,0.0122822495,-0.013521698,-0.0044139726,-0.032462023,0.05089712,-0.056343228,0.03891488,0.042304367,0.027088579,0.022171343,0.042045653,-0.052572835,0.0248594,0.048194215,-0.016158493,-0.003907802,-0.08846281,-0.0010375535,-0.041533493,0.0047968547,-0.03745251,0.0007871821,0.06746665,0.008138074,0.011721442,-0.049025666,0.062066447,-0.018472089,-0.022448229,-0.08527439,0.006160508,0.036725722,0.0036743523,-0.0067541497,0.036827978,0.013598209,0.081585154,0.10934048,0.024658645,0.07344367,0.041650753,-0.005282244,-0.02402704,-0.057357002,0.00966183,-0.017598689,0.027522327,0.012319101,-0.012391707,-0.037557658,-0.033862993,0.012486693,-0.010634895,0.10763843,-0.015890993,-0.023841295,-0.046388745,-0.047856256,-0.015568296,-0.053896822,-0.009616269,-0.07113671,0.0052775955,0.05195431,-0.014697602,-0.02796695,-0.0020910932,0.05433113,0.018590666,-0.09020907,-0.012866581,-0.038615443,0.039355166,0.0053056595,0.016959868,-0.022222804,-0.010301452,-0.043349013,0.04061084,-0.00022224057,-0.0024789164,0.02287692,-0.049649026,0.057254113,-0.03351127,0.0071703517,-0.0027744467,0.033633795,-0.042026263,-0.06739365,0.054744054,-0.014203081,0.013177273,0.03504461,0.09312009,-0.02916193,0.036167637,0.006054985,0.023937117,0.073820405,0.040309522,0.04380774,-0.02636707,0.07945906,0.05852459,0.028015364,-0.017678848,0.037125245,0.060444105,-0.0004708146,0.047395747,-0.026162507,-0.0017705214,0.038598605,0.0025455726,-0.0776549,0.063422576,-0.05453141,0.02132695,0.016974913,-0.010604756,0.030821634,-0.03678814,-0.04494571,-0.035508234,-0.091937825,0.0020510466,0.0047255135,-0.053518068,0.063764766,0.008666014,0.022994122,-0.046148654,0.0673121,-0.0016057702,-0.023914026,0.0016168447,-0.0056921695,0.021138592,0.052352957,-0.01076012,0.0067386557,0.092318304,-0.024772983,0.062766604,-0.03016225,0.08915807,-0.116849095,0.02970944,0.0046987776,0.012387486,0.013161747,0.0062977807,-0.07474115,0.06099582,0.018126875,-0.036141902,0.0075607523,0.018550126,-0.010565834,0.06831466,0.009777028,-0.027022952,0.06073009,0.09270757,0.021226045,-0.029372988,0.062386207,0.03018596,0.010613378,-0.062404692,-0.04021097,-0.0016713884,0.03004568,-0.0727678,0.042614054,-0.104249895,-0.048994996,-0.06272828,0.029037107,0.02988395,0.019783767,-0.010271056,-0.0604167,-0.033995178,-0.051174775,-0.002399821,-0.01967013,0.043288365,0.014064887,0.050545655,0.001011379,0.03428892,-0.0073552486,0.047149472,-0.031728912,0.024649963,0.003629818,0.02921809,0.03573345,-0.0636091,0.004910652,0.06452148,0.0009734471,0.017121673,-0.033710208,0.0076442193,0.0025217459,0.026476666,0.047613032,-0.02309469,-0.08363662,0.024177391,-0.02363265,-0.059972294,-0.009287442,-0.07873325,-0.0006481622,0.024073603,0.050818063,0.04515633,-0.018662805,0.04092523,0.03786345,-0.04998499,0.0045871576,0.0342846,-0.058420938,-0.005378867,-0.049131643,0.01988489,0.06540182,0.061783623,-0.06554156,0.01046802,-0.010991168,0.03233196,-0.013368309,0.052628063,0.007974724,0.05172905,0.07800977,-0.035388574,0.04699719,0.039571233,-0.05112856,0.02082679,0.07666921,-0.02117959,-0.03044835,0.013212063,-0.047651526,-0.08802646,-0.10531038,0.07101816,0.02361229,0.029107768,0.012128433,0.014259076,0.053725928,-0.0077115856,0.047117397,0.029979678,-0.0078117014,-0.048371438,0.033013538,0.017342806,0.08275111,0.012764905,-0.021495633,-0.007192484,-0.0040851496,0.048691314,0.048778962,-0.0057346127,0.07866639,0.054191206,0.027695695,0.0060000564,-0.031729504,0.008495299,0.071675874,0.0012856124,0.016107297,0.098565675,0.043397635,0.04218288,0.018023444,0.003963015,-0.010937998,-0.025266444,-0.026338896,-0.0026996736,0.0063229296,0.020725535,-0.013561849,-0.039355643,0.018236753,0.10335824,-0.016847687,-0.022018647,0.04423857,0.050000176,0.056738283,-0.06844898,-0.011415911,-0.066941984,-0.04434484,-0.008483362,0.016617373,-0.06924337,0.038347706,0.06113764,0.023582224,-0.09461879,-0.05185036,-0.0050545116,-0.07255078,0.052972738,-0.075966954,0.0034044178,-0.07354882,0.039315034,-0.07234725,-0.1344998,0.026184566,0.060680833
scanned_faces/211224.jpg,-0.014336669,-0.031087836,-0.0172879,-0.00077679974,0.019055624,-0.034702744,0.040759116,-0.07288119,0.0025189917,0.079326406,0.09010772,-0.039785463,0.07981275,0.0031581598,-0.0520334,-0.02872795,-0.020629777,0.06102571,0.029621951,0.03900714,0.10447488,-0.023911273,-0.0025308286,-0.029259553,-0.054395527,-0.027189273,-0.019054903,-0.04930212,-0.048397385,-0.07554855,0.051256273,0.024166614,-0.020255709,0.03845745,0.0330673,-0.038271014,0.025459386,-0.019106522,-0.047778323,0.041241333,-0.116686404,0.029072324,0.043389633,0.058058392,-0.009236683,0.08426056,0.047151268,0.03692687,-0.04357412,-0.0033112552,0.05314108,-0.01756708,-0.011777356,0.02102274,0.06388159,-0.07397062,0.042863227,-0.005560256,-0.06281065,0.016292349,0.01517791,0.052647673,-0.030780543,-0.08501615,-0.024399705,-0.04906996,-0.0025637185,0.0015163413,-0.0105442945,0.02897642,0.026434315,-0.018906655,-0.054954156,0.004932636,0.068048954,-0.024017941,0.04154044,0.07513645,-0.04092163,-0.051531613,-0.07614696,0.06384797,0.04172146,-0.048428573,-0.12090349,0.044205155,0.062569246,-0.0018947603,-0.022989286,0.017087303,-0.055592883,0.004159797,-0.05633309,0.0540873,0.041403227,0.046047896,0.04195694,-0.013168969,-0.017246464,0.06028994,-0.00025689267,-0.007943544,0.037342288,-0.06697363,-0.074402794,-0.028626729,-0.06909742,-0.03702358,-0.093229465,0.029119954,0.033180986,0.014418808,-0.00047334944,-0.023243366,0.0048179445,0.04431386,0.07034952,0.04975591,-0.003429192,0.08678552,0.01317136,0.010788641,0.012309084,0.03786841,-0.024007224,0.017909065,-0.09203558,0.0325399,0.06749383,-0.02110724,0.0574514,0.017630419,-0.002171445,0.015146147,0.06785766,0.021519547,-0.028628457,-0.016456671,-0.025140839,-0.02235811,-0.018087465,0.018971704,0.00382661,-0.02607279,0.009749091,0.054091703,0.024441684,0.03658862,0.062577404,0.026127195,-0.0036371367,-0.025436133,-0.057869494,0.051097225,-0.010080211,-0.07927389,-0.045179706,0.06831352,0.0193827,-0.08331059,-0.046493884,0.009552648,-0.08843235,0.07378768,0.06111907,0.024198227,-0.01172831,-0.047592383,-0.0008026197,-0.009655652,0.038678866,0.017940897,0.0054858197,-0.024492955,-0.033118226,-0.025209663,-0.0020045962,0.080829844,-0.043073587,-0.03677191,0.02030247,0.020475697,0.03841307,-0.007981736,0.0009606386,0.0978676,0.04022615,-0.046569396,-0.010395024,-0.026249202,0.006082218,0.023046575,0.082244255,0.0667758,-0.050692238,-0.03127051,-0.04344548,0.04211131,-0.021843094,0.0034403105,0.02793368,-0.014436196,-0.010960841,0.0065343305,-0.0025140638,0.020111034,-0.025825214,-0.020144507,0.0012330286,-0.04005743,0.029840017,-0.03020494,-0.009297299,0.028542856,-0.0026957921,0.01133783,0.05060991,-0.036401987,0.0548683,0.027354106,0.09309797,-0.057478417,0.059664022,-0.00058368006,3.3727425e-05,-0.012800595,-0.019109895,-0.005200637,-0.0089964615,0.010511295,0.015252963,0.11793009,-0.017397657,0.027879516,0.053951006,0.052278906,-0.07875318,-0.04138404,0.08956146,0.00016531722,-0.014864557,0.057175618,-0.0074837734,0.052279215,-0.047042575,-0.039223224,-0.0011099498,0.048426762,0.041688364,0.07719806,-0.06537037,-0.037233107,0.033397224,-0.06712492,-0.013357262,-0.030835997,-0.02231062,-0.03766626,0.01522074,-0.03850109,-0.07378836,-0.022300228,-0.001370903,0.05237532,-0.08628712,-0.052771654,-0.0026966797,-0.035399735,0.04377544,-0.019948142,0.07233666,0.04068951,-0.036929477,0.01843351,0.0067867422,-0.02392985,0.030681439,0.044171937,-0.04488974,0.004048831,0.011539825,-0.036863916,0.011578765,-0.03518886,0.04206654,-0.012551234,0.03966464,-0.12559505,-0.11610384,0.0030537918,0.0667689,0.04918647,-0.036832355,0.029817792,-0.0020506259,-0.0010610867,0.003097921,0.013732028,0.049195457,-0.052034825,0.028320255,0.0873962,-0.01194846,0.015198293,0.064248905,0.008819559,-0.032475214,0.06388067,0.016614592,0.04584772,-0.01820934,0.02241587,0.025197014,-0.0112476675,0.046421364,0.0005567139,0.030153029,-0.07313597,0.07665284,0.00029806016,-0.01174966,0.021281319,-0.001992893,-0.042407185,-0.009622638,0.031005355,0.01588429,0.0013367129,0.025609352,0.0146721015,-0.09549231,0.05592332,-0.02138816,0.026399804,-0.02352954,-0.014141917,0.011431825,-0.034223925,-0.06835928,0.02924892,0.010713427,0.008122737,-0.0013521378,-0.00095998624,0.03960249,0.07510922,-0.06698228,0.035954103,0.054109395,-0.0121267205,0.016511947,-0.0037346317,0.025084656,0.07553493,0.036764413,-0.039980963,0.052282345,0.022092178,-0.03682981,0.0076462836,0.06754989,0.008387271,-0.06968071,-0.04460765,-0.017193658,-0.0099461675,-0.024174254,0.038861964,-0.043797087,-0.0742403,-0.0188835,0.049382057,-0.056670938,0.041824345,-0.090800785,-0.005535647,-0.0036778233,-0.018911444,-0.040032968,-0.024549276,0.048763458,-0.021177137,0.024739256,-0.02628956,-0.05116237,0.009475703,-0.061853837,-0.09148863,-0.07920267,0.011837892,-0.040538933,0.055206735,0.04151135,0.05612449,0.033718865,0.016984884,-0.03357028,0.081441976,0.10343722,-0.023951653,0.02258609,-0.008402588,0.06365535,0.036997523,0.0642212,-0.0020960155,0.006306112,0.07990174,0.025856156,-0.034831192,-0.014987616,0.00018897357,0.0062484522,0.047177993,-0.06651022,0.0055514174,0.017219871,-0.021120543,0.016817559,0.041846313,-0.0069701388,-0.0027256296,-0.074019924,0.019082153,-0.004233037,0.07799555,0.06591452,-0.019780867,-0.011611701,0.0668189,-0.03126542,0.010389143,-0.005827051,-0.01412596,0.048776884,0.07268951,-0.009292596,0.008956192,-0.0053158654,-0.024163624,-0.008421348,-0.030776538,0.044181284,0.044419415,0.1146421,-0.07397977,0.0021717986,0.025005111,0.00025890788,-0.0313805,-0.018981308,0.09420475,-0.031770382,-0.016475884,-0.040484533,0.027651584,-0.07621232,0.04079609,0.054250374,0.009518961,0.017017301,0.0697516,0.046782464,0.015149439,-0.043412514,0.0035308783,-0.04133627,0.09419645,-0.04603606,0.020828255,0.090402074,0.02642481,-0.0155704105,0.053249557,-0.050594166,-0.0016362686,0.0104794875,-0.019654674,0.029580941,-0.012640331,-0.04599773,-0.024840945,0.023367435,0.034990482,-0.031137766,0.014559342,-0.020339426,0.05981196,0.015123348,-0.0507322,0.021615906,-0.028515758,0.056106277,0.07427085,0.07541359,0.0149375135,0.064020686,0.04192246,0.027714388,-0.002751121,0.0024703199,-0.07165495,0.10123977,-0.05509463,-0.0043275286,0.07588592,-0.01687378,0.03154647,-0.02913943,-0.014924368,-0.041339926,0.04660117
"scanned_faces/& ""C:/Program Files/Python311/python.exe"" c:/Users/DELL/OneDrive/Desktop/Facial_recognition/frontend/secondpage.py.jpg",0.01627779,-0.00573494,-0.031182189,-0.0022524165,-0.030228965,-0.032771807,0.053968213,-0.0718564,-0.024331864,0.055802576,0.12112135,-0.039785385,0.053563368,-0.040793236,-0.03344652,-0.028903851,-0.027233653,0.017207284,0.0731312,0.047352865,0.08276241,-0.022107517,-0.035908762,-0.040331457,-0.022484224,-0.03431347,-0.008210173,-0.06391643,-0.03757812,-0.023172265,0.022718433,0.029730799,-0.0109632695,0.060082283,-0.0022168113,-0.03139985,0.05954656,0.026078263,0.0317453,0.007814949,-0.08471604,-0.034755416,0.007954771,0.06162528,-0.04408642,0.070917286,-0.006733888,0.010024366,0.015870327,0.006311021,0.078182496,-0.05254339,-0.08015342,0.023629546,0.068474464,-0.06220434,0.0145931,0.07379216,-0.047540117,0.053970654,0.009682224,0.057011753,-0.050531518,-0.10302925,-0.011355925,-0.015091163,0.02947602,-0.01653513,-0.009719263,0.008267274,0.026061561,0.00522104,-0.028246315,0.027819501,0.05661483,-0.030361092,0.020356724,0.05015101,-0.02900277,-0.010474927,-0.083405234,0.046976727,0.06352996,-0.06962856,-0.078655146,0.0026739733,0.06997085,6.544075e-05,0.006528996,0.04926895,-0.075970635,-0.013503036,-0.09235583,0.09059448,-0.0028918083,-0.026458211,0.064586684,0.006447767,-0.092082426,0.08909454,-0.031091882,-0.030966887,0.056514543,-0.092811756,-0.040972527,-0.047096856,-0.0134479385,-0.014114311,-0.07398113,0.008991272,0.024050843,-0.017806895,-0.016658608,-0.026755247,0.023123313,0.061706457,0.11849735,0.025548285,0.013415842,0.08509191,-0.011918296,0.05835157,0.015648257,0.06418509,-0.038512383,0.004053508,-0.07554884,0.014657837,0.06812574,0.012324469,0.03334677,0.0091439625,0.0027734933,0.03537865,0.018811213,-0.003871657,-0.021741444,0.05013066,-0.0122567555,-0.007802233,0.0323089,-0.009374468,0.0132219065,-0.0007483543,-0.01121244,0.07446776,0.011535471,0.02353292,0.09220538,0.020824311,0.043227997,-0.019386737,-0.0507868,0.0014325589,0.00033567334,-0.08465618,-0.01862558,0.07070962,-0.012238233,0.0030565693,-0.035086766,-0.03865485,-0.08087588,0.061307367,0.05495893,0.02074433,0.0029869953,-0.042427868,0.010721366,0.05801236,0.05998428,0.04134624,-0.0017419747,-0.026978135,-0.044000912,-0.04208079,0.042163037,0.030722294,0.0029412617,-0.017676836,0.06679519,0.011278105,0.059208926,0.004106426,-0.027595732,0.0799407,0.09153445,-0.015786493,-0.04548271,0.0035651927,0.020120908,0.015364705,0.06816808,0.041919224,-0.010948624,-0.028723646,-0.02057083,0.065064676,-0.0081742685,0.014830858,0.03237564,-0.024163902,0.021779317,0.05520141,0.04081889,0.039452087,-0.01865665,0.005347398,-0.01498963,-0.031286135,0.016507927,-0.09230261,-0.01901913,0.037655246,-0.03651168,-0.019706778,0.065636285,-0.039702848,0.06507234,0.06791176,0.048337243,-0.044696428,0.053058587,-0.061506692,-0.008945209,0.014380935,-0.012965317,0.05449581,-0.013542162,0.04593576,-0.0026515177,0.09342075,-0.081096135,0.015883705,0.023300955,0.08443416,-0.08230212,-0.02872982,0.019854039,-0.03030841,-0.014607056,0.077296324,0.03104825,0.08178406,0.040508967,0.0012839617,-0.043501038,0.021912975,0.0655268,0.0073302253,-0.054198846,0.014525651,-0.0011776781,-0.06669435,-0.046241697,-0.056022525,-0.0057991217,-0.03748183,0.04417495,-0.038776632,-0.060928565,-0.013778032,-0.03535497,0.042852845,-0.0838919,-0.023543216,0.046332456,-0.034046404,0.013058355,-0.025497392,0.039053682,0.045620784,-0.07269252,0.06841934,-0.032661244,0.003388149,-0.009502946,-0.032805566,-0.033029,-0.026185172,-0.01968764,0.03373812,-0.052317012,-0.06852258,0.044086933,-0.04408816,-0.010919527,-0.10738621,-0.096921355,0.0064663324,0.025710214,0.029514462,-0.033113893,0.03321668,-0.013937424,-0.0062942705,0.01068913,0.032524984,0.030126488,-0.020520877,0.0302639,0.042232715,-0.014655326,0.03970319,0.0051781936,-0.024575176,-0.03866896,0.072245404,0.01289904,0.024070041,0.049902588,0.026917344,0.07464279,-0.04010824,0.03568333,-0.03719385,0.038255326,-0.11605998,0.053536646,-0.015535849,0.012088382,0.044905726,-0.066340536,0.0014359306,0.026763901,0.02689489,0.04851905,-0.010595563,0.01618789,0.0051360214,-0.049429227,0.027523236,-0.03379351,0.042090755,0.01772335,-0.024397427,-0.01251878,-0.08059133,-0.030559344,0.02953608,0.0775097,0.02386709,-0.026269086,-0.037925504,0.011724988,0.0306015,-0.083010025,-0.0046322076,0.019474642,-0.008505248,0.016502624,0.013219461,-0.01761125,0.098373525,-0.0051063886,0.03265404,0.09564789,0.067594,-0.06726336,0.0078811385,0.025581477,0.020198448,-0.05349068,-0.04314388,-0.030811083,-0.045577675,-0.0116464915,-0.0029318684,-0.114569694,-0.03276568,-0.028881311,0.0030575024,-0.087692834,-0.005221708,-0.050179236,-0.047357447,-0.0021074743,-0.025345331,-0.059399165,-0.037103776,0.048353087,-0.0036490024,0.0017018095,0.014541513,0.01752741,-0.033236504,-0.080553465,-0.04684716,-0.09250198,0.037649233,0.0039252522,0.02304388,0.0010590418,-0.024697766,0.019905718,-0.006979389,0.009133572,0.025168154,0.04932116,0.025555648,0.02585448,0.03055753,0.0927362,0.033202432,0.0024402116,-0.038489047,0.04129972,0.0036193882,0.041005358,0.007821224,0.0020341112,-0.048251044,-0.022868417,0.04308585,-0.07798946,-0.0049143992,-0.008020453,0.04940583,0.0068553607,0.024438186,-0.0070811138,-0.0051055145,-0.071626656,0.017051637,-0.01901586,0.05629133,0.035278983,0.00091434596,-0.00095347175,0.04291047,0.048998144,0.020073652,-0.01750096,-0.025443757,0.0019650469,0.08362414,-0.014760717,-0.018608691,0.013208879,-0.01437921,-0.010108268,0.006788969,0.05601186,0.046911918,0.074047714,-0.05066807,0.02444447,0.032940026,-0.01613952,-0.02984363,0.035233844,0.05892125,-0.060136233,-0.0053273183,-0.047088973,-0.007906286,-0.044175014,0.03252767,0.049045626,0.049413584,0.007922329,0.034650758,0.08018991,-0.0069499784,-0.08980401,-0.003512502,-0.046943936,0.10418664,-0.015112576,-0.041055787,0.10340757,0.004124283,0.067656346,-0.020625068,-0.047941536,-0.036715392,-0.0010339074,0.017923824,-0.01727679,-0.01075359,-0.053044215,-0.0017046024,0.067602,0.045068327,0.0005375072,0.006027164,-0.04035469,0.05075887,-0.007647102,-0.024690473,-0.011091437,-0.0114486,-0.004959515,0.05642336,0.05164007,0.04890271,0.06266638,0.057402782,0.023844378,-0.031544723,0.03169182,-0.023250964,0.094083644,-0.027595978,0.02567197,0.017781464,-0.014047365,0.03522604,-0.04800537,0.044806123,-0.016227538,0.023208106
"scanned_faces/& ""C:/Program Files/Python311/python.exe"" c:/Users/DELL/OneDrive/Desktop/Facial_recognition/frontend/secondpage.py.jpg",-0.005106797,-0.026319064,-0.04190659,-0.015231664,-0.03754754,-0.044087406,0.0529404,-0.05992793,-0.03724846,0.07604958,0.10550442,-0.03748117,0.098461464,-0.02062241,-0.045845117,-0.008378277,-0.022258207,0.0023939782,0.054467972,0.035302833,0.08147846,-0.012601117,-0.020003624,-0.041599486,-0.012168656,-0.028161652,-0.030318936,-0.09695628,-0.034784324,-0.06403936,-0.013917032,0.04046699,-0.0535378,0.043018244,-0.0086133275,-0.04937295,0.03993332,-0.031043576,-0.02223556,-0.021230672,-0.10235088,0.008152832,0.0047320183,0.06642425,-0.032275666,0.0823964,0.026454607,0.015625406,0.0023299865,0.011625862,0.047161154,-0.051843643,-0.059621453,-0.00042749787,0.060475666,-0.061585944,-0.0054610106,0.038375072,-0.0595408,0.045481045,0.051339433,0.069210835,-0.030983929,-0.06705452,-0.003239719,-0.017132644,0.012496343,-0.010918277,0.00384043,0.032162398,0.004604318,0.006332612,-0.0028351278,0.0613608,0.06133357,-0.0045370227,0.026000474,0.04430068,-0.0007695174,-0.03812272,-0.04626938,0.046233583,0.023024589,-0.055295587,-0.09575668,0.0055899243,0.074904546,0.013516051,0.014316095,0.023233386,-0.04895174,0.0066432306,-0.07040999,0.10457316,-0.017060066,0.012257969,0.050298635,-0.025696883,-0.0703257,0.06551185,-0.0092367865,-0.070487104,0.050388668,-0.09335211,-0.095448144,-0.047052328,-0.0350848,-0.049706347,-0.114990726,-0.00075537624,0.020593839,-0.026069451,0.0074153375,0.009226861,-0.009168101,0.023596449,0.07078534,0.04754169,-0.0030810847,0.10794483,0.015826311,0.009295452,0.023988599,0.04575873,-0.020661725,0.017241081,-0.05834342,0.051115584,0.08130998,0.0047883415,0.043058716,-0.03847392,-0.016319873,0.03963029,0.020784538,0.007083579,-0.009521097,0.0424524,-0.021889633,0.0020114249,-0.02006448,0.031433098,0.035308704,-0.03408614,-0.0048444895,0.06578919,0.02203028,0.031402983,0.09185905,0.041385796,0.0056643398,-0.03132233,-0.05930038,0.017445397,0.011991198,-0.093682535,-0.025882648,0.052804608,-0.013447468,-0.015981898,-0.020997621,-0.054697953,-0.07841632,0.051412843,0.06592761,-0.0063497713,0.008945442,-0.032034818,0.022453958,0.010294677,0.06655616,0.031503886,0.013665857,-0.021570638,-0.08052029,-0.045712635,0.034472093,0.098144926,-0.017243816,0.015917238,0.055658825,-0.006744895,0.061122023,-0.0022031383,-0.030676011,0.0816964,0.0704627,-0.05047198,-0.0684675,-0.03576644,0.0005846058,0.006663904,0.08521055,0.05419498,-0.026057603,-0.010775337,-0.016033273,0.03188255,-0.009587745,0.02320986,0.045237172,-0.008018125,-0.02028235,0.03610937,-0.0051926705,0.012336447,-0.011433581,-0.016617166,-0.0046299305,-0.041688424,0.040077932,-0.04020752,-0.017706204,0.05144847,-0.024933113,0.017976627,0.055251673,-0.039791588,0.052495133,0.06077801,0.07784592,-0.008522039,0.06318004,-0.030678445,0.043757305,0.018431552,-0.050569218,0.014086735,0.012649572,0.03081608,0.002847159,0.09475696,-0.051387817,-0.00016697527,0.0031292168,0.11417141,-0.075121686,-0.050734673,0.05259074,-0.007595899,0.009713695,0.065021686,-0.03087023,0.07500335,0.0037242973,-0.0038989447,-0.036505096,0.024447655,0.105476804,0.016002124,-0.07621708,0.0054088244,-0.024767753,-0.05539538,-0.041616935,-0.055753786,-0.03171904,-0.03726871,0.011463314,-0.05139999,-0.07228949,-0.016705493,-0.041258074,0.034119878,-0.07229615,-0.013024551,0.015320989,-0.07006963,0.02706044,-0.017297417,0.074282005,0.031895433,-0.042582057,0.052575924,-0.018434344,0.013144751,0.002372858,-0.023670424,-0.028006222,0.0030890012,0.031952444,-0.009152569,-0.04747526,-0.07001522,0.055034406,-0.0009859191,-0.03038688,-0.11445835,-0.09827436,0.025464412,0.03157889,0.044166885,-0.026109064,0.055237196,-0.022514874,-5.1219995e-05,-0.009942995,0.010729197,0.008979835,0.0009800736,0.042777047,0.07239639,0.043239176,0.04643498,0.034698382,-0.0064541576,-0.032544926,0.041070025,-0.020712307,0.017308077,0.013287089,0.03024312,0.061959635,-0.0446725,0.05823657,-0.05054397,0.026311755,-0.091912776,0.03452524,-0.0108467555,0.00054759404,0.03222737,-0.056251932,-0.034262154,0.026545782,0.014559925,0.049384404,-0.0055242963,-0.006105893,0.011720068,-0.040606882,0.04937739,-0.051575486,0.04555431,0.009437886,-0.028991451,-0.0133117465,-0.07725043,-0.022122502,0.03164323,0.0862661,0.054875817,0.003460827,-0.03961244,0.020148301,0.056853764,-0.07893182,-0.008591048,0.014668195,0.016255002,0.020432308,-0.033511825,0.0077742836,0.09716587,-0.024375407,0.03109516,0.088372394,0.017352879,-0.029323796,-0.0019552668,0.043207426,-0.0060149226,-0.058809258,-0.0077918,-0.020016188,-0.0238534,0.023624131,-0.007978675,-0.119554326,-0.037559845,-0.0126687735,0.057710588,-0.04605555,0.024975922,-0.06784127,-0.026876995,-0.024809727,-0.028839141,-0.068825506,-0.03308467,0.05750151,0.011087318,0.05803471,0.0027610916,0.016172085,-0.00031324127,-0.083239324,-0.042995688,-0.08458895,0.034962997,0.0057425587,-0.01472363,0.0011856093,-0.02212222,0.02393661,0.011344577,-0.0054131234,0.016511586,0.021221822,0.006431333,-0.014073441,0.028308714,0.07148845,0.05864094,-0.008615018,-0.03210258,0.05445208,0.06839727,0.03802349,-0.0022353346,0.001088262,-0.023073908,-0.0058967792,0.05398214,-0.059503715,0.008362683,0.0031541497,0.053873125,0.0069109015,0.04885361,-0.059188016,-0.002882261,-0.053829994,0.013439931,0.034375343,0.065722235,0.057092015,-0.008756819,0.009347007,0.035597887,0.03406734,-0.003543508,0.0034503392,-0.021173209,0.0046653007,0.07967766,0.019042635,-0.0035371017,0.018495826,0.0030047202,-0.0061727366,-0.020873228,0.04492287,0.05995245,0.09801105,-0.06122363,0.01382033,0.051700503,-0.00096975197,-0.036240846,0.028552689,0.061790153,-0.014992465,-0.04064672,-0.04183671,-0.025563274,-0.038359746,0.033675678,0.02954643,0.03046574,0.01715225,0.037526887,0.08339615,0.0059939604,-0.060983565,0.0036200406,-0.024817767,0.10557431,-0.021647932,-0.061580095,0.089423284,0.037140574,0.0587325,0.0150262,-0.043224398,-0.043503646,-0.03872625,-0.0044480865,-0.0031428612,-0.016020374,-0.07402647,-0.0022584451,0.076549776,0.06963356,-0.010736967,-0.01679342,-0.044161614,0.03065635,-0.0013049908,-0.021667222,0.0028627438,-0.030362204,0.020321677,0.03801892,0.053150866,-0.015006983,0.088500306,0.05622204,0.032268997,-0.04049825,0.023719294,-0.018286444,0.060145937,-0.03542047,-0.011245872,0.04417266,-0.046647627,0.021577647,-0.055532828,0.007849571,-0.038919423,0.037974853
scanned_faces/user_1744976742.jpg,-0.03088332,0.0062906733,-0.04347614,0.016078608,-0.003772358,-0.034959387,0.06567179,-0.044090983,-0.029260237,0.069456935,0.118995994,-0.039926633,0.0827425,0.008488047,-0.0017674684,-0.010096219,-0.044490583,0.0008502543,0.008190538,0.036965214,0.08454596,-0.02564117,-0.025072966,-0.014176367,-0.030960765,-0.016384786,-0.02126669,-0.09496959,-0.0767047,-0.02905258,-0.00838383,0.030753743,-0.04308278,0.04134071,-0.04229836,-0.009130219,0.060061272,0.0141505245,0.004134035,-0.012336681,-0.094441235,-0.00089812314,0.0038526508,0.060425278,-0.038448248,0.091720596,0.038783904,0.032144736,0.009347678,-0.0028012095,0.041353848,-0.035321977,-0.042878307,-0.009934592,0.009758579,-0.07219495,0.017051324,0.008146733,-0.060561363,-0.0081929155,-0.007504543,0.048895326,-0.062672384,-0.111643195,-0.019394178,-0.037985742,-0.033291362,-0.03206616,0.01574598,0.055120695,0.0024658288,0.016385177,-0.03256279,-0.01010077,0.060952183,-0.007364844,-0.010705307,-0.004766063,-0.04274765,-0.006068546,-0.07278799,0.03614816,0.053927515,-0.06401073,-0.08545492,0.01089998,0.067042395,-0.008314243,-0.01699875,0.0024643817,-0.082927585,0.038515553,-0.09387727,0.07565813,0.06753373,-0.014753956,0.055235572,-0.054394465,-0.049303044,0.07415213,-0.026331756,0.0023529367,0.05286944,-0.06492086,-0.06720976,-0.047266446,-0.06804105,-0.021994282,-0.09539728,-0.009092034,0.022923648,-0.0051849126,-0.023146268,-0.03785659,-0.028972596,0.0062628263,0.08356666,0.037304804,-0.03682076,0.039214175,0.0016068881,0.037050936,0.0071150186,0.040363893,0.0016423678,-0.012043586,-0.077822424,0.067994975,0.07321793,-0.045409113,0.04905119,-4.2254054e-05,0.014150277,0.0502921,0.055313975,0.024560178,0.0019993475,0.04753408,-0.047918748,0.028899804,-0.005390302,0.03692315,-0.0032933762,-0.004177505,0.037600897,0.121350855,0.01316125,0.0047931722,0.08622841,0.052433487,-0.00020457251,-0.042055786,-0.052484054,-0.0044494267,0.02021483,-0.043077238,0.006311606,0.09797087,0.0075342925,-0.013280011,-0.026419783,-0.0431276,-0.06315649,0.09843945,0.0149084,-0.0048019076,-0.01524517,-0.04552064,0.015159708,-0.021529796,0.11068291,0.047341995,0.015950648,0.0105872,-0.05848664,-0.011761476,0.019687966,0.019611295,-0.02783377,0.031507645,0.04602023,-0.027333641,0.032515973,-0.011002525,-0.02760976,0.084687576,0.07983524,0.024524087,-0.044002913,-0.06158,-0.0018970283,-0.01897807,0.07553627,0.02408437,-0.0151413,-0.014854281,-0.018624669,0.0143779935,-0.045713115,0.045043066,0.008705581,-0.009446417,-0.008951645,0.030944934,0.038030308,0.08706014,-0.0038047829,-0.043499917,-0.011341241,-0.06223128,0.040076602,-0.04327291,0.0045634727,0.027542826,-0.0003382065,0.012154619,0.06428097,-0.062026802,0.10684064,-0.001135751,0.067219034,-0.036547948,0.031790208,-0.028653951,0.07352572,0.017357232,-0.0407894,0.033826914,-0.007635709,0.056176063,-0.051783253,0.124096945,-0.07288386,0.02571524,0.015430309,0.06596281,-0.048719674,-0.031007217,0.04435102,-0.031647574,0.004542701,0.056788333,-0.01565733,0.042618033,0.020703277,0.005963201,-0.014972169,0.041884523,0.08997958,0.04231362,-0.07414714,-0.020749025,-0.031196732,-0.07667376,0.032497246,-0.04424829,0.0034357707,-0.035365857,0.009530608,-0.0653701,-0.04225632,-0.002429768,-0.0057037827,0.041468676,-0.062809095,-0.039780643,-0.003497645,-0.09369698,0.029962124,-0.02488445,0.028051635,0.026086643,-0.06212187,0.062446933,-0.036299016,0.0013518627,0.0014573189,-0.01402717,-0.012598238,-0.018775875,0.016969556,-0.014640807,-0.0042226147,-0.045951705,0.0020590606,0.001283506,-0.0010640745,-0.12454879,-0.09846636,0.013033387,0.018723356,0.032876536,0.016389431,0.05029349,-0.036369268,-0.06405298,-0.02003295,-0.012165202,0.018916372,-0.007196608,0.017633036,0.052624945,0.0033097134,0.00074657105,0.04694991,-0.0018570309,-0.05097694,0.035821147,-0.009022315,0.028943779,0.044670604,0.030018978,0.032015212,-0.072234705,0.03253145,-0.022936177,0.039229274,-0.058540355,0.016600704,0.004229871,-0.003475369,0.082564026,-0.0656632,-0.042753037,0.03972969,0.043874696,0.038008593,0.009090763,0.029805342,-0.005114723,-0.018208556,0.03215037,-0.031015258,0.039150823,-0.04846876,-0.0393102,-0.015259859,-0.072199024,-0.00985707,-0.010738719,0.054285113,0.026742874,0.01615914,0.0018103013,0.025522998,0.049156833,-0.06402183,0.0102888895,-0.004875385,-0.051880073,-0.03690298,0.007658522,-0.0075180787,0.019330742,0.054255046,0.025202164,0.03922366,0.039289348,-0.04720422,-0.017815426,0.072912104,0.03215012,-0.067234464,-0.03391468,-0.0074975444,-0.062511146,-0.014104639,0.014013025,-0.08453122,-0.06519556,0.022514915,0.012638795,0.008742601,-0.011672972,-0.08142039,-0.06345375,-0.0301602,-0.01372749,-0.10182461,-0.062927574,0.037764277,-0.056490675,0.034885667,-0.0064543835,-0.016997948,-0.0029441274,-0.06950494,-0.04251641,-0.05223297,0.0451393,0.021776177,0.0031737126,0.023716286,0.0054840418,-0.012028613,0.00056968635,-0.013863282,0.005834669,0.018501842,0.0142907165,-0.0037656634,0.047728762,0.06271196,0.031739835,0.0060900166,0.006913186,0.04442147,0.05434779,-0.018448347,0.015212812,-0.051631782,-0.03961492,-0.016073491,0.06753062,-0.05121414,0.03462363,-0.0055186586,0.015264923,0.020743951,0.013404992,-0.03004362,-0.07662985,-0.092389576,-0.020142606,0.001450271,0.06558759,0.05204897,0.0006824087,0.047929388,0.057077866,0.023211837,-0.020663768,0.0045626387,-0.011495344,0.048730817,0.020359844,-0.033156898,-0.0073541603,0.015142493,-0.051863723,0.0004329123,0.00788916,0.058517862,0.10287315,0.056184143,-0.023176417,0.01816152,0.015736723,0.009059661,-0.026552908,-0.024068553,0.07550406,-0.029196884,-0.03994454,-0.026158648,0.0013573709,-0.017383471,0.04542393,0.056087453,0.011576582,0.037939925,0.07263526,0.070048764,-0.03880718,-0.070315436,0.015413433,-0.050756484,0.14759882,-0.010826232,-0.053043146,0.06671881,0.008200309,0.032555442,0.0004543284,-0.028298235,-0.038921576,-0.035432115,0.033485413,-0.012810378,-0.02602582,-0.09936304,-0.014176033,0.057875857,-0.021872753,0.0009399613,0.02629053,-0.027086824,0.014246226,0.008413814,-0.021649856,0.02698926,-0.038937997,0.015324,0.0600985,0.033440154,0.008270037,0.07294745,0.038802557,0.06929572,-0.0018378679,0.032106377,-0.03837593,0.11364384,-0.040021542,0.0053233304,0.08860722,0.0068513085,0.03372471,-0.017506417,0.048285794,-0.03200455,0.03992333
scanned_faces/user_1745048235.jpg,-0.043332618,0.04954893,0.010207792,-0.0020319948,0.046285454,-0.018481795,0.03572342,-0.100863084,-0.010454104,0.06419946,0.11981646,-0.040624388,0.034489155,0.005643344,0.0025744468,-0.03056487,-0.010327242,0.060618,0.015389511,0.048755795,0.09344655,-0.02019929,0.024644192,-0.05427205,-0.055680454,-0.019652974,0.027375596,-0.08748325,-0.05273562,-0.019283792,0.014353101,0.02969552,-0.022149269,0.04866624,0.046937853,-0.030764109,0.082828656,-0.046348542,0.014435217,0.039122555,-0.08752945,-0.035314143,-0.026512759,0.06520072,-0.025728278,0.047215965,0.015746968,0.02336081,-0.012787441,0.0054208455,0.022534726,-0.0517376,-0.086033426,0.013391939,0.03206532,-0.107617475,0.028320923,0.005966488,-0.051080693,0.025960214,0.04270591,0.046608593,-0.035034467,-0.106269635,-0.013974758,-0.036981147,0.0010697523,-0.036993172,-0.00028849137,0.02788452,0.03994371,0.0064710206,-0.03476995,-0.009858376,0.05502389,0.00055308366,0.028419204,0.0212099,-0.023073498,0.002163015,-0.069673635,0.014611305,0.051517345,-0.067742996,-0.07481418,-0.0020774524,0.05594803,0.047784247,-0.0050463155,0.024789909,-0.07851095,-0.017263133,-0.08138684,0.051823687,0.051173445,-0.026922576,0.011904664,0.022980401,-0.066128746,0.061960354,0.017321324,-0.0012922576,0.030511567,-0.04496456,-0.05618788,-0.012009982,-0.022462627,-0.033751782,-0.092903085,-0.019543534,0.011876928,-0.023792211,-0.027574277,-0.02164888,-0.0122971665,0.023505695,0.06417152,0.04300612,0.028366638,0.062483333,0.025716333,0.0138622485,-0.0019088036,0.08629852,-0.023412028,-0.027347445,-0.109024815,0.04371318,0.04636968,-0.0134531455,0.049529992,-0.006214069,0.005873302,-0.013760301,0.05731178,0.011901502,-0.021571105,-0.0062987683,-0.07453777,0.008585238,0.015359282,0.046552315,-0.04819325,0.019234352,-0.00052531064,0.08390055,0.012860506,0.003750855,0.07359069,0.031588048,-0.015349307,0.0025719742,-0.053134125,0.012337175,0.020667724,-0.08062882,-0.019446699,0.06983646,-0.00034784316,-0.04430809,-0.028725863,-0.008267586,-0.09345164,0.122033395,0.04335286,0.015308304,0.009734307,-0.02904198,0.021814415,-0.0126192905,0.049164515,0.02311064,-0.017789625,-0.021887682,-0.088702224,-0.058563177,-0.0128573,-0.009150299,-0.02291744,0.00453842,0.05721073,-0.0053519704,0.039002083,0.025938649,-0.0106018325,0.06259291,0.043245263,-0.0027803609,-0.051188663,-0.023484439,-0.027948372,0.02133572,0.08800227,0.060220186,-0.021423502,-0.08280975,-0.03952668,0.0024869354,0.011155693,0.043794286,0.008865875,-0.067194425,-0.014807236,0.055096503,0.0075470633,0.053385157,-0.028898785,-0.039369088,-0.029612323,-0.024200916,0.009619384,-0.08219453,-0.024697687,0.0066142045,-0.04144457,-0.02418213,0.061621252,-0.020264858,0.09435055,0.0637899,0.053305008,-0.031472538,0.06463508,-0.039410952,0.06200451,0.04115075,-0.013171338,-0.0061082286,-0.032989234,0.062873095,-0.01865665,0.115213804,-0.05583785,0.054026093,0.059441812,0.061999604,-0.05245644,-0.046816826,0.031895164,0.01611623,-0.013006347,0.04763981,0.03479296,0.07294212,0.014063861,-0.015791498,-0.045158513,0.023691798,0.09967788,0.00047911057,-0.026578061,-0.025896551,-0.012073674,-0.09736578,-0.0143658975,-0.07188844,0.022559665,0.026397655,0.025985867,-0.03881232,-0.02679146,0.005190797,0.0028587151,0.05938524,-0.0668412,0.00095910695,0.037951663,-0.064615645,0.019508438,-0.038999412,0.07063162,0.0048527443,-0.039442938,0.027053533,-0.014925162,0.01654095,-0.0004910243,0.018362625,-0.022124292,-0.045091655,0.033180553,0.005068997,-0.0084029855,0.0070809904,0.004504698,-0.058682818,0.021688104,-0.12801924,-0.067824624,0.0042630653,0.0024037084,-0.001243328,-0.022820339,-0.024789242,-0.048901163,-0.011836818,-0.014562502,0.015149092,0.031713564,-0.023219135,0.030922182,0.048172332,-0.051624335,0.027013827,0.015956892,-0.04417411,-0.0081274025,0.062682346,-0.057437483,0.03165296,0.036555193,0.0028321634,0.057763215,-0.0752851,0.03477639,0.002632126,0.01356741,-0.0753428,0.022594854,-0.0039056079,0.0032928954,0.052892968,-0.04703936,0.0015980231,0.018211976,0.011152614,0.09420374,0.046902686,0.069395,0.0466715,-0.03200921,0.009571156,-0.05449329,0.045880508,-0.044910923,-0.024084888,-0.0047170334,-0.06810014,-0.019702418,0.0021678645,0.022821002,-0.0018478454,-0.014905312,0.032907434,0.019374484,0.11814077,-0.09048499,0.002607565,-0.013955769,-0.032540604,-0.014577739,-0.01015162,0.015447696,0.05863727,0.040415894,0.035683937,0.057311196,0.0731006,-0.05184958,-0.009185455,0.03908677,0.031495173,-0.10590013,-0.05061427,-0.0021685741,-0.056806277,-0.009300623,0.041265633,-0.1073333,-0.0040133675,-0.029442692,0.006955679,-0.012889723,0.02140223,-0.04580097,-0.036302894,0.016666843,-0.015056372,-0.09509667,-0.032328892,0.06055448,-0.043432422,0.0047331355,-0.04670507,-0.012721948,0.0067882063,-0.089583635,-0.04484126,-0.06102353,0.088595346,-0.036388155,0.052115154,-0.028646879,0.016671099,0.017335357,-0.005740576,-0.024501698,0.02288641,0.0059041316,0.013475612,-0.016529411,0.008203718,0.06601917,0.03862627,0.023728054,0.003958841,0.024891023,0.0052990983,0.025985071,0.005248338,-0.052473344,-0.053656813,-0.009116335,0.109282784,-0.07853607,0.015151953,-0.015580831,0.015134887,0.020775475,0.0064292257,-0.008335975,-0.04623627,-0.066801354,-0.0019313509,0.0022534973,0.106940545,0.02501927,-0.024186626,-0.0045288024,0.06773286,-0.010114317,0.006390181,0.004161343,-0.005964656,0.00024559975,0.012169814,-0.04117033,-0.008947287,-0.01253774,-0.0066441474,-0.009519099,0.011305524,0.016135776,0.06726991,0.05397525,-0.027558077,0.009144166,-0.014582923,-0.007540602,-0.027177606,0.026288474,0.08144162,-0.03344829,-0.014908356,-0.04873935,0.014633042,-0.070567355,0.103867665,0.058189705,0.063907325,0.030589985,0.052553706,0.042663824,-0.013846611,-0.056085084,0.024529817,-0.067819044,0.10905624,0.034539327,-0.035814524,0.059901692,0.022758156,0.043753598,-0.00652433,-0.011919756,-0.013865819,-0.0019925912,-0.006637684,-0.036371443,-0.0059448276,-0.018610086,0.023081051,0.047456108,0.030551808,0.012662893,0.068523645,0.0005182146,0.012786543,0.04315492,-0.04801052,-0.0016738548,-0.02203818,-0.0311875,0.055190288,0.043949764,0.014806262,0.053421207,0.054195564,0.039434463,0.0043953713,0.0011744495,-0.03665518,0.12508985,-0.026392786,0.0018702254,0.07361677,0.01964357,0.031381313,-0.06266189,0.002793419,-0.0024937207,0.053053536
scanned_faces/user_1745051374.jpg,-0.0030219662,0.0551417,0.013164286,-0.022932613,0.0013664839,-0.034108777,0.04568244,-0.06673184,0.025905369,0.029207863,0.11856213,-0.041838083,0.054181725,-0.026165187,-0.036652643,-0.014457637,0.0015474531,0.037291184,0.058612514,0.021353649,0.10028754,-0.044238824,-0.003696411,-0.036878653,-0.0211513,-0.038648978,-0.012158182,-0.064919315,-0.044414055,-0.008211193,0.011612185,0.017060915,-0.013063491,0.032832988,0.072067216,-0.021892808,0.07141269,-0.027884325,0.025441153,0.04359101,-0.09229286,-0.0058128866,0.0057145376,0.06532082,-0.03988684,0.05950884,-0.03024264,0.01733755,0.005041353,0.008247044,0.0396162,-0.05257922,-0.103949256,0.02592682,0.072989926,-0.065702945,0.04097548,0.017153079,-0.06417897,0.045123797,0.030426187,0.0672079,-0.0480073,-0.089489765,-0.015153772,-0.025504438,0.0014299698,-0.014726799,0.017967047,-0.012097375,0.030999688,0.0010940016,-0.0604783,-0.003148848,0.08496808,-0.026347134,0.029489893,0.079340294,-0.031359375,-0.0008973194,-0.101746924,-0.007225072,0.030969579,-0.0953446,-0.068469144,0.0020664535,0.0433425,0.036462385,0.014529733,0.04747895,-0.06947305,-0.037633322,-0.06920532,0.04354411,0.008401323,-0.017651761,0.03157859,0.006028239,-0.06799169,0.09090853,-0.022369435,-0.026091073,0.019427558,-0.055730022,-0.033517443,-0.017442731,-0.012352883,-0.017193468,-0.057117876,0.013764038,0.020167785,-0.015392681,0.009593003,-0.02294753,-0.003148402,0.03077182,0.081157126,0.037992418,0.00698197,0.06782494,-0.0054530804,0.047858786,0.0069845365,0.07324153,-0.01296894,-0.0027300136,-0.09215553,0.006032934,0.040082384,0.025908725,0.012872995,0.008810347,0.02607159,-0.016053366,0.06744475,0.02966369,-0.010658162,-0.00038566583,-0.024897702,-0.022793619,0.04130691,-0.009073243,-0.027483314,-0.000833864,-0.030234104,0.051248483,0.014851609,0.044077873,0.06795881,0.023400927,0.02277113,-0.042699594,-0.047720633,0.02342646,0.009755126,-0.0602856,-0.030692667,0.09508479,0.013042867,-0.020969853,-0.019681638,-0.014320911,-0.12251918,0.10036191,0.06964344,0.03271999,0.039743204,-0.02220722,0.01462714,0.037717845,0.03163133,0.027977578,-0.014325356,-0.038955048,-0.03790289,-0.06967405,0.011958837,0.008026465,-0.029411778,-0.036364455,0.049297255,0.0017888052,0.049330104,0.013418591,-0.029634459,0.06665328,0.050436277,-0.029803008,-0.04797255,0.013687125,-0.011235679,0.04553487,0.08220199,0.033260196,-0.042626344,-0.07032483,-0.018665975,0.031904154,0.02177169,-0.009347703,0.03325888,-0.035413716,0.037982058,0.04051324,0.04100947,0.04114773,-0.061447512,-0.03406739,-0.032185216,-0.0114042405,0.011354655,-0.09920921,0.0076165544,-0.019262074,-0.030915946,-0.041760027,0.06814116,-0.05727157,0.07112103,0.067966044,0.062161077,-0.057969257,0.065536745,-0.044779737,-0.002829275,0.012888523,0.004313231,0.009982144,-0.046184547,0.031238228,0.0031450118,0.11373907,-0.085873306,0.022243,0.09129362,0.094605826,-0.055329148,-0.03185588,0.024197316,0.025842622,-0.023198653,0.07572593,0.060394302,0.08640459,0.008423196,-0.0046423757,-0.026306031,0.026082851,0.06168596,-0.00025381948,-0.034852766,0.0005032946,0.021374306,-0.06725738,-0.050762925,-0.06542071,-0.014162558,-0.0050282674,0.031017039,-0.024879528,-0.047384933,-0.005285544,0.0036879883,0.05495922,-0.07959212,-0.008928683,-0.0032555773,-0.021227304,-0.03206539,-0.042917553,0.051549282,0.029687082,-0.043848276,0.056511484,-0.008516666,-0.008871364,-0.0087155085,-0.015062068,-0.05436412,-0.05724871,-0.017985065,0.024418093,-0.018085396,-0.02387232,0.018684981,-0.08154135,0.028798437,-0.10668522,-0.10228415,0.017050304,0.008411563,0.00204448,-0.05842469,0.009812474,0.010216284,0.0072587198,-0.0009753303,0.016215568,0.027820555,-0.02991226,0.009790183,0.058474284,-0.041186538,0.029181063,-0.00144614,-0.009126521,-0.0051730946,0.06999581,0.028170306,0.021727482,0.012869916,0.0024170077,0.07745729,-0.054504104,0.06665769,-0.017377788,0.04691097,-0.08654981,0.021193253,-0.06341687,-0.016912596,0.026078228,-0.061630875,-0.0011778553,-0.023905834,0.05818329,0.05333922,0.035785187,0.027180526,0.036010757,-0.057655085,0.034299873,-0.062079802,0.062200565,-0.0042020283,0.0015934529,-0.016660422,-0.03781813,-0.01792585,0.03469244,0.038637336,-0.0010976737,-0.03171989,0.012566335,0.0047978326,0.063213855,-0.040100727,0.007562051,-0.01965945,-0.03769729,-0.0068051005,0.035876192,0.043295942,0.086931005,0.0054143737,0.02079686,0.11094638,0.05972893,-0.04739975,-0.025142664,0.011088636,0.044292204,-0.083904915,-0.058231145,-0.023447448,0.0042529684,-0.01531151,0.015565049,-0.09766753,0.025163269,-0.061980225,0.012708623,-0.044393744,0.03002279,-0.059619732,-0.021886107,0.057118975,-0.047086794,-0.06583061,-0.015310289,0.06285809,-0.011509651,0.013726361,0.00019881732,0.028491806,0.01029233,-0.075170726,-0.045898765,-0.09070316,0.048384763,-0.014867443,0.05772918,-0.020274838,0.030545123,0.019039258,-0.021035625,0.018538764,0.036540825,0.015349045,0.013745096,0.031230055,-0.01317136,0.07591861,0.04037759,0.0075096902,-0.025406748,0.018027974,0.0031950397,0.060837608,0.003522663,-0.014716501,-0.031252597,-0.047366556,0.047948446,-0.09413675,-0.005638887,-0.009843999,0.0023509641,0.041734688,0.03938423,0.012173095,0.0082958685,-0.0677837,-0.003246973,0.017619397,0.09428246,0.031254813,-0.027620608,-0.01367551,0.07887911,0.00076300744,0.026185798,-0.01959806,-0.014872336,0.015113802,0.06580605,-0.0030326375,-0.007081739,-0.011192458,-0.0069641317,0.0018318358,0.011967352,0.0642759,0.033182647,0.10903582,-0.06954,0.014820522,0.008767699,-0.020187972,-0.011432707,0.017694477,0.03494512,-0.041618172,-0.023078583,-0.06585629,-0.01071923,-0.054681897,0.08658,0.049275145,0.04530395,0.021795766,0.06273524,0.050137814,-0.01538864,-0.081830196,0.010786209,-0.048850354,0.08171458,0.009842655,-0.047410212,0.07581968,0.011989845,0.041177545,-0.027953265,-0.026637098,-0.021634908,-0.032783225,0.008347395,-0.02224282,-0.030418016,-0.03329475,0.018329674,0.072145686,0.06586691,-0.014668835,0.05898628,-0.008700961,0.047954503,-0.0076849693,-0.039328333,0.021285357,-0.011232469,-0.0147028,0.046818815,0.09014751,0.06606918,0.03230462,0.055504143,0.013001825,-0.0317542,0.007553933,-0.039293855,0.11764127,-0.037901614,0.018538034,0.045001216,-0.0015700624,0.04942796,-0.034610104,-0.0025273182,-0.053387236,0.027379168
scanned_faces/user_1745072845.jpg,-0.02973928,0.018124882,0.015410455,0.01850465,0.026321152,-0.010411804,0.047594115,-0.0940858,-0.015422109,0.055120125,0.13143995,-0.054024536,0.0752143,0.01558337,-0.0118069695,0.0020978916,-0.06428355,0.020050159,0.056595605,0.030553374,0.07219367,-0.015710281,-0.02153853,-0.025284044,-0.03705936,0.011153835,-0.0046360563,-0.08752452,-0.028026644,-0.016440758,0.025483603,0.015485189,0.013232168,0.026425581,0.015647473,-0.02409117,0.069652036,0.011992497,0.0371437,0.011073364,-0.10991694,-0.03322203,0.01689321,0.060215034,-0.017917115,0.06893694,-0.009366536,0.036125805,0.0037176206,0.026046533,0.055400908,-0.037474737,-0.0990294,-0.008053066,0.039360378,-0.08730312,0.06474712,-0.010376634,-0.07767683,0.052419323,0.050885238,0.016489413,-0.015076404,-0.10929346,-0.053780388,-0.044494737,-0.017173272,-0.036626555,-0.020070737,0.03635006,0.040546846,0.024581295,-0.026097486,0.0020614984,0.03494819,0.0035907594,0.032772474,0.038451202,-0.030006815,0.00025658705,-0.06566526,0.018285573,0.036912672,-0.061241288,-0.060827456,-0.012319575,0.07877386,0.028755283,-0.0022898894,0.019087387,-0.07398593,-0.043123297,-0.085059375,0.08759588,0.06592738,-0.034037437,0.035572067,-0.012551171,-0.0574956,0.07969143,0.0030929185,-0.019427452,0.05994827,-0.04038191,-0.055254746,-0.056027733,-0.06008774,-0.007048494,-0.053755123,-0.013278202,0.012537419,0.0020716551,-0.018239692,-0.041374832,0.018967522,0.026556928,0.07482827,0.029775962,0.02785348,0.048822436,0.038716815,0.03308336,-0.00061399984,0.04622459,-0.025917027,-0.021436699,-0.11642253,0.039294828,0.08500762,0.028199632,0.081844226,0.0030541436,0.0045600357,0.039521493,0.018786827,0.003342575,-0.007251711,0.04123196,-0.04177593,0.024406271,0.039142385,0.022826985,-0.010124247,-0.035809636,0.011348375,0.08466191,0.048295077,0.012553853,0.04247208,-0.0004235142,0.0159057,0.0015727258,-0.040931392,-0.013016632,-0.010398932,-0.07736702,-0.037973512,0.09597616,0.020512128,-0.029089175,-0.06946601,-0.034131564,-0.07494486,0.0802352,0.039728187,-0.012979176,0.022210151,-0.032508627,0.011799093,0.011495741,0.08660017,0.037488848,0.025753401,-0.028649539,-0.019830968,-0.06432268,0.004107189,-0.015857244,0.0028722545,0.013087694,0.03608463,0.011677644,0.01622785,-0.020751547,-0.025732813,0.054927565,0.08305083,-0.008054703,-0.073681526,-0.031125648,-0.022815056,0.028815506,0.102685645,0.036847092,-0.02854633,-0.068768315,-0.038436428,0.016289733,-0.0115315365,0.020867715,0.025001055,-0.030027196,0.0032616248,0.045948967,-0.0059526954,0.06988595,-0.015080758,-0.035906203,-0.040891,-0.066479355,-0.0035048465,-0.11698771,-0.0063129403,0.01974441,0.02834056,-0.022378597,0.061568365,-0.035754245,0.12311515,0.03981363,0.039052125,-0.062609434,0.040674284,-0.050668743,0.02392372,-0.0033680182,-0.0003737665,0.013882723,-0.027314743,0.046526965,-0.005329727,0.12204227,-0.07583047,0.059572067,0.022446867,0.056520592,-0.05629087,-0.029563142,0.04195693,-0.009362463,-0.03162396,0.059016142,0.031223826,0.053919878,0.020524427,-0.0081094615,-0.036070686,0.040391102,0.063685365,0.040709946,-0.04700636,-0.0397166,-0.020031923,-0.05980318,-0.025697934,-0.027798386,-0.027278947,-8.759586e-05,0.04053097,-0.02580912,-0.067532405,-0.021362428,0.0014169207,0.059157543,-0.06355728,-0.020266045,0.045997296,-0.053717807,0.028852914,-0.014580379,0.07942672,0.02899299,-0.040379476,0.07262672,-0.01292829,-0.00063992874,0.0330299,0.036823977,-0.04718142,-0.03337572,-0.0058245375,-0.0005857663,-0.0044490118,-0.03940026,0.01602925,-0.06188197,0.0051750494,-0.13042758,-0.08982322,-0.008982229,0.038545717,-0.0027917365,-0.048190888,0.026431784,-0.02647869,-0.011363298,-0.042853907,0.001294311,0.037929047,-0.025627106,0.012699181,0.037775405,0.00079284573,0.008990425,0.0013120086,-0.0150887575,-0.046881653,0.10468609,-0.02088397,0.04137439,0.028014435,0.010115355,0.06830629,-0.030734384,0.018536327,-0.0030255767,0.024068523,-0.10539876,0.0011949956,0.0017712718,-0.017174575,0.070945464,-0.0850341,-0.034987435,0.0028295366,0.06946876,0.03460098,0.03361384,0.044129394,0.0014574087,-0.015760923,-0.00678161,-0.04893589,0.0389411,-0.03191652,-0.03984153,0.0005157824,-0.046268653,-0.052549373,0.019740729,0.031655382,0.011942221,0.021310337,0.019391114,0.024756318,0.061186243,-0.10404529,-0.017011099,-0.002331928,-0.04110023,-0.029927999,-0.0055975155,-0.0062508993,0.076663814,0.025006369,0.008464098,0.06740495,0.05190348,-0.055298477,-0.03378716,0.030796356,0.029956037,-0.049510255,-0.053245932,-0.041318472,-0.06882688,-0.035861794,0.027489617,-0.11426344,-0.025588842,0.003718255,0.01779324,-0.06535013,-0.0019002566,-0.03562912,-0.05370534,0.022522293,-0.024218777,-0.060949136,-0.026440574,0.042019606,-0.03813957,-0.0025555782,-0.011628289,-0.0026882784,-0.041700047,-0.09682164,-0.059313197,-0.10521569,0.04315109,0.03431123,0.010209003,0.010513202,-0.0051039774,0.0224181,-0.026457831,0.0076471833,0.047271796,0.014589103,0.019403,-0.012012872,0.016268488,0.064627856,0.04598384,0.008336986,0.01035334,0.027502209,0.008785692,0.006659558,0.011360859,-0.039829694,-0.02422723,-0.019590793,0.05337173,-0.028668128,-0.001089509,-0.035674542,0.032013234,0.032959837,0.023171762,-0.0074031167,-0.07162731,-0.071516015,-0.044103775,-0.026093246,0.124986455,0.044271663,-0.0019464262,0.014819032,0.0801506,0.04341369,0.016855126,-0.045618344,0.010485274,0.016516302,0.06796665,-0.030173933,-0.020182895,-0.0117174545,0.008787876,-0.0021612104,0.020214614,0.004067737,0.02775315,0.041838713,-0.051627833,-0.016326629,0.0027046727,0.0061263395,-0.039026134,0.012481088,0.062484074,-0.04872299,0.006236124,-0.018850408,-0.004655529,-0.054145165,0.046188746,0.024177263,0.06510694,-0.009389841,0.027899396,0.056924146,0.03665719,-0.055448644,-0.004900245,-0.040003557,0.10109204,-0.016939573,-0.049048476,0.055361513,-0.017899686,0.033554003,-0.029737059,-0.057153508,-0.017896434,0.009397728,0.004696915,-0.029897327,-0.0012492294,-0.059010707,0.0086984215,0.05085935,0.025510598,-0.022914888,0.06462766,-0.021672184,0.05355139,-0.013530844,-0.031592965,-0.008374084,0.010238363,9.277383e-05,0.019566197,0.06261234,0.051761966,0.028365582,0.04457345,0.030672427,-0.045889694,0.05247384,-0.036762495,0.12762451,-0.06839043,0.018790025,0.071155086,0.024151383,0.01636148,-0.042854663,0.027351523,-0.008451851,0.020857528
scanned_faces/user_1745133854.jpg,-0.06480831,0.030833146,-0.07334468,-0.017808003,-0.0013736024,-0.050673876,0.07876377,-0.0681179,0.022298172,0.04241726,0.09448808,-0.029706763,0.044376045,-0.04920112,-0.03806453,0.04011884,-0.037545446,-0.017250726,0.043556143,0.045309737,0.04314077,-0.07358083,-0.027136996,-0.053406097,-0.011674772,-0.02719816,0.01014194,-0.0931075,-0.021779904,-0.052517645,-0.0041353875,0.015951337,-0.040619023,0.05492889,0.007466356,0.002665779,0.071507365,-0.021290287,0.024074333,0.067967035,-0.06319583,-0.002186779,0.0007369697,0.024848202,-0.050598178,0.045966733,-0.035392664,0.042589925,-0.012527957,0.030193606,0.0054926868,-0.032036137,-0.092703395,-0.022437422,-0.006990956,-0.05011428,0.03685522,-0.038279735,-0.062885895,0.033374354,0.02865896,0.0819531,-0.034349572,-0.02444416,-0.022827348,-0.031503193,-0.0029974568,-0.07780878,-0.058797628,-0.050049048,-0.011159354,-0.055824846,-0.01632853,0.020841455,0.0068524745,-0.005960641,0.000101035796,0.04327357,-0.01480427,-0.024642248,-0.080006324,0.00082408625,-0.039221548,-0.044435978,0.0076675205,0.006615415,0.024666537,0.04042502,-0.06126683,0.0067113247,-0.038540006,-0.05049524,-0.07531448,-0.027225206,0.0506883,0.0141194,0.029661134,-0.03345518,-0.034544874,0.084574535,-0.021041706,-0.027996033,0.0059337406,-0.010802725,-0.078348875,-0.07008742,-0.057206217,0.009278096,-0.04389788,-0.029063853,0.05553941,-0.039614696,0.031190485,-0.0025902328,0.005978467,0.014858151,0.011555638,0.049236234,0.0095428135,0.047119837,0.0062961434,-0.017448844,0.043110654,0.06860797,-0.005230493,-0.08556292,-0.055840354,0.014868731,-0.03514839,0.015696023,-0.028727276,-0.018052595,0.024671854,-0.050335083,0.025397923,0.034438543,0.043760188,-0.01045274,-0.028589232,0.048248094,0.055114813,-0.02912116,-0.022641078,0.01828855,-0.027444068,0.007006819,-0.020720467,0.1000008,0.017041165,-0.008259059,0.0077348975,0.0634441,-0.027597468,-0.028482016,0.06962523,-0.007210938,0.032775152,0.12599282,0.014021554,0.024960544,0.047803003,0.03663684,-0.0238829,0.030510373,0.024750216,0.025705762,0.024172612,-0.02846934,0.018794866,0.0072654192,-0.0144175,0.05210818,0.069799975,-0.08013947,0.0021149216,-0.0641982,-0.0042195898,-0.06077686,-0.026482191,-0.029910326,0.013053937,0.00019840698,0.006356702,0.021207882,-0.08176917,0.07835928,0.006014085,-0.01452012,-0.072762534,0.016366882,-0.091874,0.029357448,0.10272899,-0.003527158,-0.020480057,-0.054327685,0.011010093,0.03871384,0.019946657,-0.026137576,-0.029918639,-0.08046127,-0.008296095,-0.01807134,0.0260259,0.044491705,-0.046598524,-0.040316615,-0.027281605,0.008990343,0.0010885238,-0.03676312,-0.011312419,-0.075419486,0.01089514,-0.030508457,0.0046097036,-0.026603512,0.06342804,0.018819785,0.0937542,-0.044461608,0.0750311,-0.05011555,0.04390208,-0.010780995,0.041927237,-0.03322833,-0.08637744,0.049146846,-0.033066127,0.1309738,-0.07365075,0.002839636,0.010688836,0.07037404,0.012264008,-0.07003418,0.007542707,-0.0025797477,0.0071313954,0.036679145,-0.04906423,0.022324335,-0.045478154,-0.00028556705,-0.05798645,0.05307714,0.025371527,-0.00018217666,-0.076995134,0.018038085,0.04913274,-0.02851562,-0.010044626,-0.0032049487,-0.06150034,-0.022887772,0.02195831,0.060737096,-0.029176638,0.011319986,-0.05133064,0.0602036,-0.05176791,0.022457354,-0.015388262,-0.071320735,-0.0198763,-0.07441513,0.014517094,0.012066634,-0.06067912,0.029017795,0.019411122,0.05389943,-0.0076773167,0.007355826,-0.03888933,0.021483362,-0.032576177,0.039391413,0.029503321,0.021902597,-0.011956836,-0.06240198,0.057321515,-0.05125535,-0.047724597,0.03198616,0.046053898,-0.01809757,-0.022577267,0.03227848,-0.003254077,0.0062664915,-0.012606554,0.041976906,0.048727922,0.004542235,-0.047215056,0.060857367,-0.049429182,-0.035420544,-0.031211479,0.0016280767,0.00053968956,0.040964674,0.024828121,-0.058532976,-0.03327628,-0.048840728,0.021036984,-0.13138032,0.011710734,-0.0073266774,0.043361787,-0.07974106,0.026157258,-0.024785543,-0.0327714,0.055932526,-0.07195069,-0.015972624,0.0033724366,0.049235426,0.025201138,0.052502576,-0.021161376,0.06124202,-0.045200717,0.031179948,-0.077878155,0.07825824,-0.023979856,-0.0022132858,0.0038162575,-0.043504152,-0.01123901,0.06792358,0.015809307,-0.052251603,0.05246031,0.013892741,0.0012680381,0.011581438,-0.0121115,-0.02324701,-0.02047448,0.039868757,-0.06620326,0.06346723,0.045825783,0.038200207,0.007770064,-0.05484159,0.06525964,0.019582342,-0.023626005,-0.050766427,0.078561194,-0.00317151,-0.08211563,-0.11349611,-0.006218289,0.037007798,0.015913598,0.03978412,-0.0988715,-0.06596963,-0.010872415,0.011113163,-0.010559941,0.0883526,-0.029106136,-0.05014955,0.038140565,-0.017780175,-0.0820508,-0.03753006,0.017533801,-0.004058318,0.0097702695,-0.022425056,-0.0031139932,-0.06942493,-0.04942651,-0.0016033691,-0.04999627,0.05280975,0.05630125,0.040599898,-0.024783626,0.015798451,-0.004695127,-0.036039684,-0.023885388,0.023317575,-0.010401365,-0.027704988,0.00045372965,-0.032865677,-0.018723499,0.040964734,-0.010253154,0.07636993,0.017217297,0.041330013,0.049234625,-0.055306666,-0.05957549,-0.010145484,-0.020495214,-0.004939909,-0.083581835,0.023266906,-0.0077077113,0.017621359,-0.04577908,0.021332853,0.012128197,0.0042986125,-0.0566113,0.0018107124,0.00962865,0.11094471,0.081762135,-0.062391676,0.07709006,0.11616906,-0.03765955,-0.0049645775,0.05580496,-0.015817584,0.0013972643,0.008090558,-0.03976459,-0.043544512,-0.066809796,0.011346104,-0.008953296,0.091601335,0.018244116,0.06916758,0.048770428,-0.03836911,0.0424111,-0.0015606391,-0.017895699,-0.04842184,-0.000744665,-0.011937169,0.015277306,-0.04441941,-0.056282,-0.00061297393,0.038796052,0.08670361,0.061693527,0.016994964,0.06981519,0.10465215,0.057248678,-0.010348612,-0.04206585,0.058843397,-0.010881198,0.06355922,0.0033558055,-0.023553872,0.05191795,0.004344615,-0.0071382923,0.012591728,-0.0015583257,0.017420212,1.3187402e-05,0.044802245,0.011039141,-0.028385373,-0.001873585,-0.04654108,0.03114441,0.069660336,0.017827095,0.07726594,-0.0046498654,0.04786457,-0.014671969,-0.017136868,0.047255717,-0.019098684,0.0124806445,0.030952903,0.087075315,0.04094102,0.0027648415,-0.026399378,0.048015807,-0.09105052,-0.018336577,-0.03551319,0.06010167,0.0045376834,-0.022651156,0.062923975,0.024285505,0.03965387,-0.025259571,-0.06071363,-0.01974185,0.10008622
