image_name,dim_0,dim_1,dim_2,dim_3,dim_4,dim_5,dim_6,dim_7,dim_8,dim_9,dim_10,dim_11,dim_12,dim_13,dim_14,dim_15,dim_16,dim_17,dim_18,dim_19,dim_20,dim_21,dim_22,dim_23,dim_24,dim_25,dim_26,dim_27,dim_28,dim_29,dim_30,dim_31,dim_32,dim_33,dim_34,dim_35,dim_36,dim_37,dim_38,dim_39,dim_40,dim_41,dim_42,dim_43,dim_44,dim_45,dim_46,dim_47,dim_48,dim_49,dim_50,dim_51,dim_52,dim_53,dim_54,dim_55,dim_56,dim_57,dim_58,dim_59,dim_60,dim_61,dim_62,dim_63,dim_64,dim_65,dim_66,dim_67,dim_68,dim_69,dim_70,dim_71,dim_72,dim_73,dim_74,dim_75,dim_76,dim_77,dim_78,dim_79,dim_80,dim_81,dim_82,dim_83,dim_84,dim_85,dim_86,dim_87,dim_88,dim_89,dim_90,dim_91,dim_92,dim_93,dim_94,dim_95,dim_96,dim_97,dim_98,dim_99,dim_100,dim_101,dim_102,dim_103,dim_104,dim_105,dim_106,dim_107,dim_108,dim_109,dim_110,dim_111,dim_112,dim_113,dim_114,dim_115,dim_116,dim_117,dim_118,dim_119,dim_120,dim_121,dim_122,dim_123,dim_124,dim_125,dim_126,dim_127,dim_128,dim_129,dim_130,dim_131,dim_132,dim_133,dim_134,dim_135,dim_136,dim_137,dim_138,dim_139,dim_140,dim_141,dim_142,dim_143,dim_144,dim_145,dim_146,dim_147,dim_148,dim_149,dim_150,dim_151,dim_152,dim_153,dim_154,dim_155,dim_156,dim_157,dim_158,dim_159,dim_160,dim_161,dim_162,dim_163,dim_164,dim_165,dim_166,dim_167,dim_168,dim_169,dim_170,dim_171,dim_172,dim_173,dim_174,dim_175,dim_176,dim_177,dim_178,dim_179,dim_180,dim_181,dim_182,dim_183,dim_184,dim_185,dim_186,dim_187,dim_188,dim_189,dim_190,dim_191,dim_192,dim_193,dim_194,dim_195,dim_196,dim_197,dim_198,dim_199,dim_200,dim_201,dim_202,dim_203,dim_204,dim_205,dim_206,dim_207,dim_208,dim_209,dim_210,dim_211,dim_212,dim_213,dim_214,dim_215,dim_216,dim_217,dim_218,dim_219,dim_220,dim_221,dim_222,dim_223,dim_224,dim_225,dim_226,dim_227,dim_228,dim_229,dim_230,dim_231,dim_232,dim_233,dim_234,dim_235,dim_236,dim_237,dim_238,dim_239,dim_240,dim_241,dim_242,dim_243,dim_244,dim_245,dim_246,dim_247,dim_248,dim_249,dim_250,dim_251,dim_252,dim_253,dim_254,dim_255,dim_256,dim_257,dim_258,dim_259,dim_260,dim_261,dim_262,dim_263,dim_264,dim_265,dim_266,dim_267,dim_268,dim_269,dim_270,dim_271,dim_272,dim_273,dim_274,dim_275,dim_276,dim_277,dim_278,dim_279,dim_280,dim_281,dim_282,dim_283,dim_284,dim_285,dim_286,dim_287,dim_288,dim_289,dim_290,dim_291,dim_292,dim_293,dim_294,dim_295,dim_296,dim_297,dim_298,dim_299,dim_300,dim_301,dim_302,dim_303,dim_304,dim_305,dim_306,dim_307,dim_308,dim_309,dim_310,dim_311,dim_312,dim_313,dim_314,dim_315,dim_316,dim_317,dim_318,dim_319,dim_320,dim_321,dim_322,dim_323,dim_324,dim_325,dim_326,dim_327,dim_328,dim_329,dim_330,dim_331,dim_332,dim_333,dim_334,dim_335,dim_336,dim_337,dim_338,dim_339,dim_340,dim_341,dim_342,dim_343,dim_344,dim_345,dim_346,dim_347,dim_348,dim_349,dim_350,dim_351,dim_352,dim_353,dim_354,dim_355,dim_356,dim_357,dim_358,dim_359,dim_360,dim_361,dim_362,dim_363,dim_364,dim_365,dim_366,dim_367,dim_368,dim_369,dim_370,dim_371,dim_372,dim_373,dim_374,dim_375,dim_376,dim_377,dim_378,dim_379,dim_380,dim_381,dim_382,dim_383,dim_384,dim_385,dim_386,dim_387,dim_388,dim_389,dim_390,dim_391,dim_392,dim_393,dim_394,dim_395,dim_396,dim_397,dim_398,dim_399,dim_400,dim_401,dim_402,dim_403,dim_404,dim_405,dim_406,dim_407,dim_408,dim_409,dim_410,dim_411,dim_412,dim_413,dim_414,dim_415,dim_416,dim_417,dim_418,dim_419,dim_420,dim_421,dim_422,dim_423,dim_424,dim_425,dim_426,dim_427,dim_428,dim_429,dim_430,dim_431,dim_432,dim_433,dim_434,dim_435,dim_436,dim_437,dim_438,dim_439,dim_440,dim_441,dim_442,dim_443,dim_444,dim_445,dim_446,dim_447,dim_448,dim_449,dim_450,dim_451,dim_452,dim_453,dim_454,dim_455,dim_456,dim_457,dim_458,dim_459,dim_460,dim_461,dim_462,dim_463,dim_464,dim_465,dim_466,dim_467,dim_468,dim_469,dim_470,dim_471,dim_472,dim_473,dim_474,dim_475,dim_476,dim_477,dim_478,dim_479,dim_480,dim_481,dim_482,dim_483,dim_484,dim_485,dim_486,dim_487,dim_488,dim_489,dim_490,dim_491,dim_492,dim_493,dim_494,dim_495,dim_496,dim_497,dim_498,dim_499,dim_500,dim_501,dim_502,dim_503,dim_504,dim_505,dim_506,dim_507,dim_508,dim_509,dim_510,dim_511
scanned_faces/12345.jpg,-0.05341416,0.013792701,-0.006311381,-0.0013081868,0.028907504,-0.0052881795,0.055500608,-0.10842403,0.028871141,0.047257956,0.10225941,-0.025399584,0.06386575,-0.01832661,-0.028436145,-0.015452956,-0.0075651915,0.049900405,0.06631572,0.038907256,0.097779214,-0.029737681,0.034481093,-0.033134647,-0.039074358,-0.020031057,0.0033716208,-0.06701501,-0.04093859,-0.011491267,0.023144819,0.04152665,-0.04017779,0.02686936,0.044161566,-0.01997266,0.085801534,-0.03238132,0.0075589526,0.055014767,-0.05187944,-0.026499318,-0.02919285,0.06627496,-0.022430787,0.06158838,0.0067670173,0.026579818,-0.023600575,-0.0056934464,0.012668794,-0.06976576,-0.09938215,0.012719434,0.030155526,-0.079851545,0.053281527,0.014699138,-0.022756465,0.03556754,0.02886366,0.064191125,-0.039678674,-0.08899632,-0.02346538,-0.008085847,-0.005607642,-0.035208512,-0.057781383,0.0039497255,0.03385794,0.000634876,-0.016229577,0.018722655,0.072888315,-0.020502185,0.008563866,0.07447913,-0.052158404,-0.04297527,-0.060452778,0.00301746,0.030732518,-0.06578933,-0.067322776,-0.012032351,0.044318814,0.042687,-0.019752393,0.022811392,-0.03884746,-0.0068361154,-0.06575669,0.060977817,0.06237569,-0.034515694,0.022159712,0.016096823,-0.087666266,0.095335424,0.019896507,-0.022846635,0.02197105,-0.048290763,-0.059959035,-0.037980784,-0.033538904,-0.022538885,-0.090501875,0.024754334,0.029072262,0.006085138,-0.031189034,-0.016520733,0.0039496194,0.010339381,0.03983792,0.06311204,0.03322307,0.085372575,0.028777096,0.015857788,0.022548623,0.040496133,-0.022781339,-0.024540871,-0.078353204,0.052554313,0.037905473,-0.024805093,0.04017218,-0.025014577,-0.0043726824,0.009286007,0.034720752,0.0505671,-0.017925126,0.0026698478,-0.057968583,0.0068141483,-0.0041733677,0.017608594,-0.024079274,0.03895926,0.009518697,0.035034515,0.008262831,0.04335355,0.09483671,-0.0041537387,0.016045922,0.018740091,-0.030750407,0.00026271553,0.036107276,-0.06634562,-0.045754436,0.08694261,0.010723778,-0.023612507,-0.035756234,0.006194067,-0.107507,0.11547566,0.048361678,0.021193948,0.02444802,-0.06108879,0.023727495,0.0056327363,0.02389264,0.015172827,0.01259226,-0.0344477,-0.035951994,-0.04251648,0.0119347945,0.0026655465,-0.016503291,-0.032860804,0.042743843,0.01394465,0.026837228,0.02997179,-0.049719695,0.07258434,0.06294863,-0.010637669,-0.05000617,-0.0359583,0.004606381,0.00795158,0.10583069,0.04443665,-0.010097029,-0.09823566,-0.042480107,0.04358097,0.0115625905,0.029306613,0.013569559,-0.054464344,0.0005097205,0.043914706,0.019763645,0.06351344,-0.020372156,-0.046650235,0.03021572,-0.045997575,0.016071703,-0.07018777,-0.038532604,0.018980512,-0.013840622,-0.03774681,0.0448766,-0.03932241,0.08579706,0.060122296,0.06637821,-0.04428419,0.04421071,-0.07276117,0.020159844,0.022201352,-0.00771687,0.009043797,-0.049863018,0.07023685,-0.032707777,0.12411755,-0.06759243,0.05137632,0.04847242,0.09215148,-0.039083518,-0.04463779,-0.007207604,0.018580562,-0.0368592,0.08699846,0.04139684,0.0880596,-0.0056982916,-0.030733848,-0.048885655,0.033127025,0.057548787,0.031805463,-0.020960031,-0.02332603,-0.01003919,-0.0774842,-0.028978555,-0.05063337,-0.013912632,-0.015132448,0.042031743,-0.004320996,-0.07326562,0.001953325,-0.02299388,0.07540553,-0.08436942,-0.012107512,0.03840688,-0.057753462,-0.00372907,-0.05835024,0.06650894,0.005805264,-0.045506164,0.06054606,-0.009177631,-0.016002126,-0.007838605,0.018251134,-0.031281292,-0.049569197,0.021438645,0.03406936,0.0014264643,-0.017284928,0.01627792,-0.06216048,0.014176711,-0.13588329,-0.06546231,-0.0032034314,0.029722989,0.01400075,-0.054420672,0.0012517752,-0.029541582,-0.022729916,0.036753703,0.022945542,0.022874013,-0.0237053,0.026310254,0.07288723,-0.045353133,0.044417523,-0.005754364,-0.0051891734,-0.03296508,0.06534615,0.0069352463,0.013033374,0.036433842,-0.0035115357,0.060605697,-0.060859043,0.014716178,-0.008694182,0.045064114,-0.07810449,0.05394424,-0.03332004,-0.0033768076,0.026963335,-0.06160018,0.0014755926,0.017975789,0.026284106,0.111470416,0.02578267,0.044680107,0.025160767,-0.06559326,-0.008051595,-0.027167099,0.030018626,-0.0327173,-0.03034728,0.009456469,-0.05754388,-0.008881387,0.015044041,0.024703376,-0.01779626,0.00012929941,0.01577028,0.016595973,0.077530265,-0.063260905,0.011834923,-0.029510617,0.007092005,0.019668976,0.018236576,-0.0062435344,0.08977249,-0.0060785306,0.01271926,0.10224669,0.064377174,-0.027158046,-0.018577674,0.04548597,0.026556803,-0.08027916,-0.045338135,0.010424913,-0.009526569,-0.010910254,0.023760784,-0.1210391,-0.013606329,-0.04130837,0.004088632,-0.05650788,0.039312508,-0.020021956,-0.043984443,0.052824743,-0.04395515,-0.06959929,-0.028397165,0.050772414,-0.03811821,0.024841571,-0.008155659,-0.021505628,0.0054128775,-0.10088469,-0.049775977,-0.073248714,0.044589102,0.0118663255,0.05524407,-0.0030471215,-0.011373979,0.047403447,-0.007220079,0.010179428,0.026558176,0.006778769,0.0061007184,-0.0010207653,0.0018975477,0.057378612,0.06050055,0.033438683,-0.007882591,0.016339852,0.03363601,0.06862841,0.0026615313,-0.020217864,-0.04057841,-0.0152971465,0.06962437,-0.06685966,0.0005034869,-0.009860202,0.005947218,0.0026799706,0.012293969,-0.027010618,-0.024783203,-0.06266899,0.00034945362,-0.029849702,0.0913792,0.057779092,-0.04628139,-0.03355767,0.07537301,-0.00067896134,0.052537616,0.010060731,0.021375539,0.01055572,0.04929684,-0.009881444,0.0044396645,-0.0017011748,-0.03459394,-0.008241629,0.016793195,0.043194376,0.040742554,0.08628468,-0.06543218,-0.0014088344,-0.0016933299,-0.01882421,-0.0017083221,0.013384589,0.04203819,-0.054865796,0.006637609,-0.047095895,0.041816752,-0.06288829,0.08136047,0.063386634,0.04988238,0.027157584,0.057762064,0.021896226,-0.028212005,-0.05620118,0.021917982,-0.09325723,0.094867125,0.025988095,-0.023238394,0.08160615,0.0003715643,0.043648046,-0.009446528,0.0024180822,-0.0045535904,0.012287,0.032497,-0.016776115,0.0027065717,0.0041050026,-0.0035050183,0.037660886,0.06625462,0.0050726715,0.058268555,-0.022567917,0.02622178,0.027226869,-0.045933045,0.0139661785,-0.034810085,-0.023199352,0.034861833,0.07145969,0.0447735,0.01380861,0.03998421,0.039733715,-0.0110390205,-0.01558305,-0.05348354,0.14067028,-0.028744735,-0.0075415443,0.057003558,0.019218557,0.029888315,-0.04733586,-4.9839637e-05,-0.027385365,0.05327782
scanned_faces/12341.jpg,0.04658394,0.013098384,0.034055173,0.019672912,0.006282405,-0.009676758,0.089378454,-0.014118746,0.08412349,-0.027896062,0.014357751,0.040792797,0.04236426,0.04652635,-0.02759751,-0.06752253,-0.044286128,0.03139143,0.025088131,0.00777002,-0.009678401,-0.010218005,0.0066042915,0.0028325252,-0.009762959,-0.010198213,-0.054187067,-0.040862873,-0.055131108,-0.059424914,0.07192748,0.05105128,0.018425662,-0.08171508,0.085151546,-0.0022106387,-0.019323116,0.050192054,-0.030935159,0.0024461932,-0.004584926,-0.029503342,-0.081101835,-0.0078871995,-0.059050497,-0.050994396,-0.058893625,0.038982444,0.033892248,-0.07349769,-0.01574752,-0.033966817,-0.05376248,0.045046397,-0.012827118,0.026980689,0.037169486,0.014349529,-0.037777547,0.0075948616,-0.015542887,0.032765254,0.034713525,-0.022968506,0.01416366,-0.00401393,-0.0009743551,-0.07424284,0.0676853,-0.017500589,0.01596202,0.015705798,-0.034097567,-0.05087231,0.05397872,-0.04421149,0.020615788,-0.012238291,0.009905201,0.06312806,-0.071224995,-0.0060409363,-0.029905979,-0.016514935,9.895959e-05,-0.01909036,0.094629325,-0.0032748333,-0.0051563,0.012102488,-0.027842248,0.03749199,0.029889008,0.017089665,0.03639643,-0.05120161,-0.032879435,-0.064025514,-0.10392599,0.08311137,0.018926261,-0.0033671951,0.022443617,-0.013120041,0.060609993,0.043785747,-0.008333789,0.08256864,0.020696033,0.04816147,0.025949525,0.017851958,-0.07084745,-0.0030468113,-0.071686655,-0.0831153,0.05692528,0.021737648,-0.105294235,-0.011383702,-0.08378028,0.0061261943,-0.047425367,0.06918085,-0.09386847,0.013296818,-0.039135404,-0.070097074,-0.011621565,0.052550253,-0.024205007,-0.04587571,0.08179832,-0.048739623,0.02193582,0.084156245,0.018747928,0.036487468,0.031720415,-0.015464005,0.05709815,0.021280382,0.020348765,0.050057866,-0.017119974,0.056413624,-0.060082626,0.015145565,0.031114124,0.005667138,0.026419498,-0.042117458,-0.023750586,-0.01858196,0.011714178,-0.020338116,0.038239233,0.09260393,-0.046841327,0.04143038,-0.044466715,0.010046328,-0.022432966,0.047042582,-0.022794388,-0.03210118,0.0090896115,0.029778885,0.0420287,0.04543539,0.007736243,-0.014972356,-0.041240063,-0.022898791,-0.03189201,-0.03226872,-0.04430896,-0.0052278605,-0.017680379,0.03373823,-0.039784778,0.03736716,-0.008219916,-0.025160663,0.023566313,0.014087775,0.035541955,-0.029695451,-0.06357687,-0.029475303,-0.011320439,-0.0121386,-0.00068184873,-0.017951671,-0.027253399,0.02034575,-0.011112881,-0.032250423,0.107837975,-0.02078655,0.06039289,0.06686297,-0.034273166,0.028654585,0.0605138,-0.025761338,-0.059019856,-0.014149775,0.025324805,0.02074381,-0.0639886,-0.12121921,-0.04203764,-0.011653987,-0.05454254,0.010129776,0.022987297,0.0010996264,0.034557723,0.0445894,0.032489866,0.03770831,0.024980765,0.048170112,-0.011191582,0.0026370678,0.007142742,-0.0031643256,-0.06527797,-0.0024771318,-0.0017498641,0.013174475,-0.032009095,-0.08755538,0.0073905317,0.08751261,-0.07105598,0.09440428,0.014219228,-0.039574668,-0.03256194,-0.038712434,0.06573816,0.016153993,0.04008207,-0.028103618,0.07049041,-0.03389738,0.022308933,0.027860273,0.03329239,-0.04098549,0.005276968,0.09012219,0.0032433164,0.01081948,-0.015112516,0.05640536,-0.02777985,0.02646018,0.06041661,0.109474674,0.037128914,-0.0015261591,0.027836641,-0.03175498,-0.03412658,0.042864185,-0.0077692103,0.040581744,-0.026312197,-0.09581072,-0.04255212,0.0376367,0.028596846,-0.009783898,-0.03279562,-0.13348287,-0.0410142,-0.014007187,0.007895924,0.05529927,-0.12828274,-0.017591413,-0.07180394,-0.020786213,-0.09336211,0.00097268715,-0.016492695,0.0418052,-0.030774897,-0.040833857,0.07703635,-0.06116914,0.03994352,-0.00849783,0.026072303,-0.06545701,-0.036208645,-0.021196142,-0.040364172,0.042586803,0.055908244,-0.017048316,-0.06320627,-0.038951784,-0.041253515,-0.009538479,0.020428687,-0.031589974,0.020626958,0.015705626,0.0701522,0.02409386,0.017388469,0.02112984,0.06779003,-0.004735949,-0.06912882,-0.09552151,-0.02206391,-0.01605991,0.012394846,0.03870753,0.035602193,0.017891107,-0.008383911,0.018835636,0.016561704,-0.0125602055,-0.0021813181,0.07079111,0.0023349582,0.028181177,0.016800068,0.002826921,0.029218892,0.01811072,-0.010869757,-0.024384612,0.022198914,-0.041555107,-0.017800367,-0.064180546,-0.005515851,-0.021042276,-0.0011601077,0.06193068,-0.08745157,-0.041519247,-0.037168127,0.06689474,0.013493735,-0.007529795,-0.02047749,0.05945757,0.07626182,0.045032438,0.09304218,0.008990982,-0.04673031,0.16288386,0.02033806,-0.0037795012,-0.050726272,0.046882503,-0.018459061,0.051410474,0.01006718,0.020570574,-0.03071028,-0.032084923,0.053750295,0.08256025,-0.03526902,-0.030208072,0.015266849,0.06623256,-0.032388624,-0.017345622,0.014435548,0.07418226,-0.018502159,0.03141421,0.021286229,0.007567582,-0.03127066,-0.026451433,-0.03133403,0.018942604,0.037153307,-0.083297536,-0.058634028,-0.00018517143,0.0019657728,-0.026740229,-0.016456276,-0.03595232,-0.061055332,0.020302048,-0.03239061,-0.0031224466,-0.049881093,0.014172931,-0.0167509,0.026984036,0.0028051895,-0.071637265,0.019578846,0.010721038,-0.031618547,0.049761765,-0.016012361,-0.049376395,-0.019884814,0.014627872,-0.037591822,-0.036445137,-0.02721222,-0.0035215693,0.045973677,-0.0041424856,-0.10228928,0.051735453,0.09210944,0.0003922627,-0.015672332,-0.0072615165,0.009720956,-0.0009469432,-0.045732826,-0.020376867,-0.0033317641,-0.055307988,-0.078061745,0.0041700285,-0.052821487,0.022194292,-0.0029727316,-0.043094598,0.019969912,0.0041810623,0.028168317,-0.013718203,0.017339986,-0.0683374,-0.0116338935,-0.021880394,-0.11130377,0.061672654,0.013646285,-0.009014138,-0.034654845,0.014271749,-0.048212264,-0.07220293,-0.049932867,0.054641943,0.0693666,0.0024703972,-0.02704719,0.07959228,0.024372248,-0.021795545,-0.08771004,0.06129631,-0.027298592,0.011853995,0.041692108,-0.10743599,-0.0046341107,-0.02523816,0.031428326,-0.090735026,-0.0052763396,-0.042221252,-0.077041015,0.034832217,0.0053703953,-0.055330947,-0.033220213,0.042241205,0.049105864,0.012104632,0.03647885,0.0068952753,0.003896682,-0.0524002,-0.02438911,-0.06472055,-0.013334365,-0.026810303,-0.029691475,-0.020555306,0.035069626,-0.01123627,-0.07145673,0.0037493035,-0.09669635,-0.024472544,0.029273666,-0.026522616,0.024109235,-0.0007114229,0.018518966,-0.042492643,0.026992328,0.039036326,0.025610493,-0.022264663,-0.10590192,-0.026406148
