image_name,dim_0,dim_1,dim_2,dim_3,dim_4,dim_5,dim_6,dim_7,dim_8,dim_9,dim_10,dim_11,dim_12,dim_13,dim_14,dim_15,dim_16,dim_17,dim_18,dim_19,dim_20,dim_21,dim_22,dim_23,dim_24,dim_25,dim_26,dim_27,dim_28,dim_29,dim_30,dim_31,dim_32,dim_33,dim_34,dim_35,dim_36,dim_37,dim_38,dim_39,dim_40,dim_41,dim_42,dim_43,dim_44,dim_45,dim_46,dim_47,dim_48,dim_49,dim_50,dim_51,dim_52,dim_53,dim_54,dim_55,dim_56,dim_57,dim_58,dim_59,dim_60,dim_61,dim_62,dim_63,dim_64,dim_65,dim_66,dim_67,dim_68,dim_69,dim_70,dim_71,dim_72,dim_73,dim_74,dim_75,dim_76,dim_77,dim_78,dim_79,dim_80,dim_81,dim_82,dim_83,dim_84,dim_85,dim_86,dim_87,dim_88,dim_89,dim_90,dim_91,dim_92,dim_93,dim_94,dim_95,dim_96,dim_97,dim_98,dim_99,dim_100,dim_101,dim_102,dim_103,dim_104,dim_105,dim_106,dim_107,dim_108,dim_109,dim_110,dim_111,dim_112,dim_113,dim_114,dim_115,dim_116,dim_117,dim_118,dim_119,dim_120,dim_121,dim_122,dim_123,dim_124,dim_125,dim_126,dim_127,dim_128,dim_129,dim_130,dim_131,dim_132,dim_133,dim_134,dim_135,dim_136,dim_137,dim_138,dim_139,dim_140,dim_141,dim_142,dim_143,dim_144,dim_145,dim_146,dim_147,dim_148,dim_149,dim_150,dim_151,dim_152,dim_153,dim_154,dim_155,dim_156,dim_157,dim_158,dim_159,dim_160,dim_161,dim_162,dim_163,dim_164,dim_165,dim_166,dim_167,dim_168,dim_169,dim_170,dim_171,dim_172,dim_173,dim_174,dim_175,dim_176,dim_177,dim_178,dim_179,dim_180,dim_181,dim_182,dim_183,dim_184,dim_185,dim_186,dim_187,dim_188,dim_189,dim_190,dim_191,dim_192,dim_193,dim_194,dim_195,dim_196,dim_197,dim_198,dim_199,dim_200,dim_201,dim_202,dim_203,dim_204,dim_205,dim_206,dim_207,dim_208,dim_209,dim_210,dim_211,dim_212,dim_213,dim_214,dim_215,dim_216,dim_217,dim_218,dim_219,dim_220,dim_221,dim_222,dim_223,dim_224,dim_225,dim_226,dim_227,dim_228,dim_229,dim_230,dim_231,dim_232,dim_233,dim_234,dim_235,dim_236,dim_237,dim_238,dim_239,dim_240,dim_241,dim_242,dim_243,dim_244,dim_245,dim_246,dim_247,dim_248,dim_249,dim_250,dim_251,dim_252,dim_253,dim_254,dim_255,dim_256,dim_257,dim_258,dim_259,dim_260,dim_261,dim_262,dim_263,dim_264,dim_265,dim_266,dim_267,dim_268,dim_269,dim_270,dim_271,dim_272,dim_273,dim_274,dim_275,dim_276,dim_277,dim_278,dim_279,dim_280,dim_281,dim_282,dim_283,dim_284,dim_285,dim_286,dim_287,dim_288,dim_289,dim_290,dim_291,dim_292,dim_293,dim_294,dim_295,dim_296,dim_297,dim_298,dim_299,dim_300,dim_301,dim_302,dim_303,dim_304,dim_305,dim_306,dim_307,dim_308,dim_309,dim_310,dim_311,dim_312,dim_313,dim_314,dim_315,dim_316,dim_317,dim_318,dim_319,dim_320,dim_321,dim_322,dim_323,dim_324,dim_325,dim_326,dim_327,dim_328,dim_329,dim_330,dim_331,dim_332,dim_333,dim_334,dim_335,dim_336,dim_337,dim_338,dim_339,dim_340,dim_341,dim_342,dim_343,dim_344,dim_345,dim_346,dim_347,dim_348,dim_349,dim_350,dim_351,dim_352,dim_353,dim_354,dim_355,dim_356,dim_357,dim_358,dim_359,dim_360,dim_361,dim_362,dim_363,dim_364,dim_365,dim_366,dim_367,dim_368,dim_369,dim_370,dim_371,dim_372,dim_373,dim_374,dim_375,dim_376,dim_377,dim_378,dim_379,dim_380,dim_381,dim_382,dim_383,dim_384,dim_385,dim_386,dim_387,dim_388,dim_389,dim_390,dim_391,dim_392,dim_393,dim_394,dim_395,dim_396,dim_397,dim_398,dim_399,dim_400,dim_401,dim_402,dim_403,dim_404,dim_405,dim_406,dim_407,dim_408,dim_409,dim_410,dim_411,dim_412,dim_413,dim_414,dim_415,dim_416,dim_417,dim_418,dim_419,dim_420,dim_421,dim_422,dim_423,dim_424,dim_425,dim_426,dim_427,dim_428,dim_429,dim_430,dim_431,dim_432,dim_433,dim_434,dim_435,dim_436,dim_437,dim_438,dim_439,dim_440,dim_441,dim_442,dim_443,dim_444,dim_445,dim_446,dim_447,dim_448,dim_449,dim_450,dim_451,dim_452,dim_453,dim_454,dim_455,dim_456,dim_457,dim_458,dim_459,dim_460,dim_461,dim_462,dim_463,dim_464,dim_465,dim_466,dim_467,dim_468,dim_469,dim_470,dim_471,dim_472,dim_473,dim_474,dim_475,dim_476,dim_477,dim_478,dim_479,dim_480,dim_481,dim_482,dim_483,dim_484,dim_485,dim_486,dim_487,dim_488,dim_489,dim_490,dim_491,dim_492,dim_493,dim_494,dim_495,dim_496,dim_497,dim_498,dim_499,dim_500,dim_501,dim_502,dim_503,dim_504,dim_505,dim_506,dim_507,dim_508,dim_509,dim_510,dim_511
scanned_faces/123.jpg,-0.02563387155532837,-0.008036909624934196,-0.011778829619288445,0.01696660742163658,-0.007895895279943943,0.01165043469518423,0.035536862909793854,-0.073420450091362,-0.005112739745527506,0.05319226533174515,0.12439620494842529,-0.037492696195840836,0.05974476411938667,-0.004010084085166454,-0.01329075451940298,-0.04564591869711876,-0.04162260890007019,0.0015138935996219516,0.07515379041433334,0.027074743062257767,0.1087908074259758,-0.006549985148012638,0.03095034882426262,-0.017526304349303246,-0.0148512814193964,0.0015663544181734324,0.016078727319836617,-0.06485942751169205,-0.04078201577067375,-0.0245314110070467,0.051437485963106155,0.04446110129356384,-0.03265828639268875,0.061076320707798004,0.02717047557234764,0.002171799773350358,0.06263743340969086,0.008798074908554554,0.012541929259896278,0.024487627670168877,-0.031890448182821274,-0.0319112204015255,0.001974934944882989,0.06480567902326584,-0.04229143634438515,0.04740181937813759,0.011659872718155384,0.02796669863164425,-0.025091417133808136,-0.024330923333764076,0.060583680868148804,-0.05591018125414848,-0.06886813789606094,-0.00043079190072603524,0.04800991341471672,-0.059082288295030594,0.03323526680469513,0.028841255232691765,-0.027669215574860573,0.04321965202689171,0.014362772926688194,0.050721969455480576,-0.04244799539446831,-0.10135877132415771,0.014317654073238373,-0.021104231476783752,0.013994005508720875,-0.04221738129854202,-0.03033110685646534,0.014385112561285496,0.05257070064544678,0.02176552638411522,-0.029753338545560837,0.011166125535964966,0.0786963403224945,0.0015437647234648466,0.02286563813686371,0.049164947122335434,-0.04932737350463867,-0.014730689115822315,-0.030023843050003052,0.03023180365562439,0.04080939665436745,-0.03876705467700958,-0.05417138338088989,0.017631322145462036,0.07976014912128448,0.01850738935172558,0.006291987374424934,0.02849903330206871,-0.06029900535941124,0.004974222742021084,-0.103548564016819,0.08421861380338669,0.048825766891241074,-0.039991412311792374,0.03461514413356781,-0.00012877638801001012,-0.07530979067087173,0.08388476073741913,0.030115753412246704,-0.026716100051999092,0.061845727264881134,-0.06258495897054672,-0.0457252599298954,-0.01118489634245634,-0.028934063389897346,-0.014657189138233662,-0.06813748925924301,0.015860579907894135,0.03562922403216362,0.01689867489039898,-0.013388504274189472,-0.03818255290389061,-0.0032815986778587103,0.029337061569094658,0.040253642946481705,0.0476604700088501,0.020688502117991447,0.10407896339893341,0.013832652010023594,0.023872923105955124,0.002561993896961212,0.041219864040613174,-0.05333511158823967,-0.016116000711917877,-0.07770969718694687,0.0633641853928566,0.08587583154439926,-0.027603039517998695,0.07515384256839752,-0.002489450154826045,-0.006752687972038984,0.04463540390133858,0.03531207516789436,0.06088723614811897,-0.012661592103540897,0.031174497678875923,-0.05394037067890167,0.016469009220600128,-0.009018758311867714,0.018020913004875183,0.03035733290016651,0.000548283220268786,0.004972573835402727,0.05871059373021126,0.004244387615472078,0.06448841840028763,0.09595659375190735,-0.01938541606068611,0.019418559968471527,0.011061463505029678,-0.028265470638871193,-0.006196938455104828,-0.007089658174663782,-0.06165332347154617,-0.014319010078907013,0.07568575441837311,-0.004743339493870735,-0.04499257728457451,-0.04564866051077843,-0.00394042581319809,-0.08663563430309296,0.07527793943881989,0.07222028821706772,0.0034731251653283834,-0.012028141878545284,-0.06704602390527725,-0.005142968613654375,0.016733285039663315,0.06307473033666611,0.001780558144673705,0.004021021071821451,-0.02258572354912758,-0.03221900761127472,-0.036157432943582535,0.009330591186881065,-7.595226634293795e-05,-0.030066058039665222,0.0002998820855282247,0.04711909219622612,0.025471240282058716,0.046416670083999634,0.015532471239566803,-0.05350369215011597,0.0747663602232933,0.09271389245986938,0.005496471654623747,-0.058195918798446655,-0.04543611407279968,0.01962440088391304,0.004955267999321222,0.09810434281826019,0.026157762855291367,0.0023744357749819756,-0.05330474674701691,-0.03028344362974167,0.05813852697610855,-0.0036265570670366287,0.05446333438158035,0.010077903047204018,-0.032352812588214874,0.015141142532229424,0.052050188183784485,0.021199500188231468,0.058149635791778564,-0.0015951450914144516,-0.03038020431995392,0.02456001006066799,-0.059800826013088226,0.00966411642730236,-0.06661980599164963,-0.04010599106550217,0.04431837797164917,-0.030997876077890396,-0.020392021164298058,0.06776273995637894,-0.041249923408031464,0.10008108615875244,0.028876056894659996,0.057982657104730606,-0.055754393339157104,0.049338873475790024,-0.050995051860809326,0.016152724623680115,0.022982457652688026,-0.041589509695768356,0.007401738315820694,-0.011784618720412254,0.02792290598154068,-0.014591380022466183,0.135606050491333,-0.07325630635023117,0.0661083534359932,0.03656204417347908,0.06331203877925873,-0.059785399585962296,-0.0400746650993824,-0.01526779867708683,-0.008090532384812832,-0.053804896771907806,0.07436643540859222,0.02509220689535141,0.07408551871776581,0.03701850026845932,0.008592621423304081,-0.05772549659013748,0.03591339662671089,0.061577022075653076,0.03480296581983566,-0.03087788075208664,-0.018427766859531403,-0.020100699737668037,-0.07427898794412613,-0.021908549591898918,-0.06011086702346802,-0.008697649464011192,-0.04135189950466156,0.05554956942796707,-0.03776134178042412,-0.06212607026100159,-0.03222346678376198,-0.004352405667304993,0.042888540774583817,-0.09384648501873016,-0.020867926999926567,0.06392046064138412,-0.038425691425800323,0.023686323314905167,-0.02159721776843071,0.06778737902641296,0.04357542097568512,-0.07599195092916489,0.0605163499712944,-0.02558002434670925,-0.013512607663869858,-0.01718638464808464,-0.003654703265056014,-0.05059070512652397,-0.025503534823656082,0.024856828153133392,0.001896779052913189,-0.008392522111535072,-0.05811268463730812,0.028386902064085007,-0.03641057014465332,-0.0018546091159805655,-0.14089608192443848,-0.06263003498315811,0.0026970042381435633,0.08638142049312592,0.019064629450440407,-0.038885656744241714,0.01939600706100464,-0.06115235015749931,-0.00797957368195057,0.016802558675408363,0.019462229683995247,0.009284733794629574,-0.009188707917928696,0.028157727792859077,0.061312779784202576,-0.038306113332509995,0.03221844136714935,0.015068885870277882,-0.045714594423770905,-0.06400959938764572,0.11058835685253143,0.0037088668905198574,0.019473770633339882,0.023777522146701813,-0.00867061223834753,0.0589132159948349,-0.040523186326026917,0.014263779856264591,-0.002458637347444892,0.06676395237445831,-0.10109085589647293,0.06497463583946228,-0.0024227388203144073,-0.00253275316208601,0.03799283877015114,-0.058441922068595886,-0.04161454364657402,0.033401958644390106,0.034862399101257324,0.09843076765537262,0.018516696989536285,0.07923001050949097,0.023133348673582077,-0.03355040028691292,0.006760489195585251,-0.034799814224243164,0.03928991034626961,0.014096486382186413,-0.041360028088092804,-0.01265126932412386,-0.033628176897764206,-0.04212387278676033,0.008503158576786518,0.062277521938085556,-0.013973943889141083,-0.008144045248627663,0.0013599341036751866,0.021166784688830376,0.05048562213778496,-0.07218146324157715,0.00939902663230896,-0.01346505805850029,-0.013566209003329277,0.017065504565835,-0.026614338159561157,-0.027914997190237045,0.09286659955978394,0.013574136421084404,0.013681380078196526,0.05940830335021019,0.038720160722732544,-0.062168389558792114,0.0019768455531448126,0.06650613993406296,0.023281779140233994,-0.07655690610408783,-0.048384275287389755,-0.011717461980879307,-0.03802012279629707,-0.005697909742593765,0.0082695372402668,-0.11664290726184845,-0.038077544420957565,-0.015321957878768444,0.005476522259414196,-0.06437356024980545,0.012938410975039005,-0.03758140653371811,-0.07522233575582504,0.01669965870678425,-0.026572871953248978,-0.024931225925683975,-0.025138208642601967,0.04260985553264618,-0.026899054646492004,0.005069718696177006,-0.004833466373383999,-0.021867504343390465,-0.027273934334516525,-0.07775726914405823,-0.043107736855745316,-0.0674963966012001,0.038502469658851624,0.006084555760025978,0.02779969573020935,0.012698790058493614,-0.03968484699726105,0.04511461406946182,-0.024464592337608337,-0.023700935766100883,0.03820224851369858,0.04439568519592285,0.012525309808552265,-0.005879183299839497,0.03467516601085663,0.09956495463848114,0.038630809634923935,0.029431642964482307,0.01029786467552185,0.04805248603224754,0.03573881462216377,0.0681079626083374,-0.000925938889849931,0.0019116015173494816,-0.05756412073969841,0.007098581176251173,0.05844684690237045,-0.07125687599182129,-0.03147180750966072,-0.012231417000293732,0.0016887640813365579,-0.0066951848566532135,0.014637255109846592,-0.0007056083995848894,-0.03714905306696892,-0.06796368956565857,0.0020105449948459864,-0.036231786012649536,0.052340734750032425,0.030918970704078674,-0.02675515227019787,0.01376821007579565,0.023642465472221375,0.050663284957408905,0.03358371928334236,0.015251409262418747,0.023601355031132698,0.00660305842757225,0.03506205603480339,-0.011033250950276852,-0.0027786619029939175,-0.026311438530683517,-0.0285768061876297,-0.019445456564426422,-0.008093471638858318,0.048506636172533035,0.056821323931217194,0.09256409853696823,-0.05848696455359459,-0.032411184161901474,0.03712226822972298,0.0008453784976154566,-0.005474908743053675,0.023703256621956825,0.04402372986078262,-0.04657191410660744,0.012357743456959724,-0.029867855831980705,0.04076017439365387,-0.07275787740945816,0.055115956813097,0.06587011367082596,0.05186719074845314,0.020669227465987206,0.04948955774307251,0.049356475472450256,-0.011442568153142929,-0.0562359094619751,-0.03392576053738594,-0.07269347459077835,0.10700295120477676,-0.028073381632566452,-0.019711052998900414,0.0820561945438385,-0.005102460738271475,0.05352863296866417,-0.012854347936809063,-0.025944039225578308,-0.014419293962419033,0.020641563460230827,0.0188128799200058,-0.02025696635246277,-0.007735369727015495,-0.01899533160030842,0.0017238262807950377,0.029903484508395195,0.04734049364924431,-0.025321273133158684,0.01777069829404354,-0.019801132380962372,0.0658351331949234,-0.004573517013341188,-0.0433725006878376,0.01368559431284666,-0.032225485891103745,0.023145601153373718,0.07081056386232376,0.03024270571768284,0.05581644922494888,0.04294601082801819,0.028620222583413124,0.05798494443297386,-0.029438061639666557,0.02197294495999813,-0.031151659786701202,0.12945836782455444,-0.03921634703874588,0.006411449052393436,0.0016688883770257235,0.005743997171521187,0.02270151861011982,-0.06127765029668808,0.04159775748848915,0.007353837136179209,0.048265568912029266
