image_name,dim_0,dim_1,dim_2,dim_3,dim_4,dim_5,dim_6,dim_7,dim_8,dim_9,dim_10,dim_11,dim_12,dim_13,dim_14,dim_15,dim_16,dim_17,dim_18,dim_19,dim_20,dim_21,dim_22,dim_23,dim_24,dim_25,dim_26,dim_27,dim_28,dim_29,dim_30,dim_31,dim_32,dim_33,dim_34,dim_35,dim_36,dim_37,dim_38,dim_39,dim_40,dim_41,dim_42,dim_43,dim_44,dim_45,dim_46,dim_47,dim_48,dim_49,dim_50,dim_51,dim_52,dim_53,dim_54,dim_55,dim_56,dim_57,dim_58,dim_59,dim_60,dim_61,dim_62,dim_63,dim_64,dim_65,dim_66,dim_67,dim_68,dim_69,dim_70,dim_71,dim_72,dim_73,dim_74,dim_75,dim_76,dim_77,dim_78,dim_79,dim_80,dim_81,dim_82,dim_83,dim_84,dim_85,dim_86,dim_87,dim_88,dim_89,dim_90,dim_91,dim_92,dim_93,dim_94,dim_95,dim_96,dim_97,dim_98,dim_99,dim_100,dim_101,dim_102,dim_103,dim_104,dim_105,dim_106,dim_107,dim_108,dim_109,dim_110,dim_111,dim_112,dim_113,dim_114,dim_115,dim_116,dim_117,dim_118,dim_119,dim_120,dim_121,dim_122,dim_123,dim_124,dim_125,dim_126,dim_127,dim_128,dim_129,dim_130,dim_131,dim_132,dim_133,dim_134,dim_135,dim_136,dim_137,dim_138,dim_139,dim_140,dim_141,dim_142,dim_143,dim_144,dim_145,dim_146,dim_147,dim_148,dim_149,dim_150,dim_151,dim_152,dim_153,dim_154,dim_155,dim_156,dim_157,dim_158,dim_159,dim_160,dim_161,dim_162,dim_163,dim_164,dim_165,dim_166,dim_167,dim_168,dim_169,dim_170,dim_171,dim_172,dim_173,dim_174,dim_175,dim_176,dim_177,dim_178,dim_179,dim_180,dim_181,dim_182,dim_183,dim_184,dim_185,dim_186,dim_187,dim_188,dim_189,dim_190,dim_191,dim_192,dim_193,dim_194,dim_195,dim_196,dim_197,dim_198,dim_199,dim_200,dim_201,dim_202,dim_203,dim_204,dim_205,dim_206,dim_207,dim_208,dim_209,dim_210,dim_211,dim_212,dim_213,dim_214,dim_215,dim_216,dim_217,dim_218,dim_219,dim_220,dim_221,dim_222,dim_223,dim_224,dim_225,dim_226,dim_227,dim_228,dim_229,dim_230,dim_231,dim_232,dim_233,dim_234,dim_235,dim_236,dim_237,dim_238,dim_239,dim_240,dim_241,dim_242,dim_243,dim_244,dim_245,dim_246,dim_247,dim_248,dim_249,dim_250,dim_251,dim_252,dim_253,dim_254,dim_255,dim_256,dim_257,dim_258,dim_259,dim_260,dim_261,dim_262,dim_263,dim_264,dim_265,dim_266,dim_267,dim_268,dim_269,dim_270,dim_271,dim_272,dim_273,dim_274,dim_275,dim_276,dim_277,dim_278,dim_279,dim_280,dim_281,dim_282,dim_283,dim_284,dim_285,dim_286,dim_287,dim_288,dim_289,dim_290,dim_291,dim_292,dim_293,dim_294,dim_295,dim_296,dim_297,dim_298,dim_299,dim_300,dim_301,dim_302,dim_303,dim_304,dim_305,dim_306,dim_307,dim_308,dim_309,dim_310,dim_311,dim_312,dim_313,dim_314,dim_315,dim_316,dim_317,dim_318,dim_319,dim_320,dim_321,dim_322,dim_323,dim_324,dim_325,dim_326,dim_327,dim_328,dim_329,dim_330,dim_331,dim_332,dim_333,dim_334,dim_335,dim_336,dim_337,dim_338,dim_339,dim_340,dim_341,dim_342,dim_343,dim_344,dim_345,dim_346,dim_347,dim_348,dim_349,dim_350,dim_351,dim_352,dim_353,dim_354,dim_355,dim_356,dim_357,dim_358,dim_359,dim_360,dim_361,dim_362,dim_363,dim_364,dim_365,dim_366,dim_367,dim_368,dim_369,dim_370,dim_371,dim_372,dim_373,dim_374,dim_375,dim_376,dim_377,dim_378,dim_379,dim_380,dim_381,dim_382,dim_383,dim_384,dim_385,dim_386,dim_387,dim_388,dim_389,dim_390,dim_391,dim_392,dim_393,dim_394,dim_395,dim_396,dim_397,dim_398,dim_399,dim_400,dim_401,dim_402,dim_403,dim_404,dim_405,dim_406,dim_407,dim_408,dim_409,dim_410,dim_411,dim_412,dim_413,dim_414,dim_415,dim_416,dim_417,dim_418,dim_419,dim_420,dim_421,dim_422,dim_423,dim_424,dim_425,dim_426,dim_427,dim_428,dim_429,dim_430,dim_431,dim_432,dim_433,dim_434,dim_435,dim_436,dim_437,dim_438,dim_439,dim_440,dim_441,dim_442,dim_443,dim_444,dim_445,dim_446,dim_447,dim_448,dim_449,dim_450,dim_451,dim_452,dim_453,dim_454,dim_455,dim_456,dim_457,dim_458,dim_459,dim_460,dim_461,dim_462,dim_463,dim_464,dim_465,dim_466,dim_467,dim_468,dim_469,dim_470,dim_471,dim_472,dim_473,dim_474,dim_475,dim_476,dim_477,dim_478,dim_479,dim_480,dim_481,dim_482,dim_483,dim_484,dim_485,dim_486,dim_487,dim_488,dim_489,dim_490,dim_491,dim_492,dim_493,dim_494,dim_495,dim_496,dim_497,dim_498,dim_499,dim_500,dim_501,dim_502,dim_503,dim_504,dim_505,dim_506,dim_507,dim_508,dim_509,dim_510,dim_511
scanned_faces/123.jpg,0.052675314247608185,0.023766163736581802,0.03944336250424385,0.012962519191205502,-0.01174146868288517,-0.012805595993995667,0.0645550787448883,-0.003874616464599967,0.08238387107849121,-0.04775821790099144,-0.0035133122000843287,0.04738037288188934,0.041047483682632446,0.04507008194923401,-0.0306318998336792,-0.053453054279088974,-0.034374091774225235,0.020944220945239067,0.03307625278830528,0.00173182284925133,-0.023310352116823196,-0.014009597711265087,0.011721977964043617,0.0029352298006415367,0.012769883498549461,-0.013501490466296673,-0.03828665614128113,-0.03480522334575653,-0.04253711178898811,-0.06116863712668419,0.05375315994024277,0.0435122512280941,0.004106816370040178,-0.06924715638160706,0.08984316885471344,0.004424121230840683,-0.02999761514365673,0.041600897908210754,-0.03284398466348648,0.014611317776143551,0.0097687728703022,-0.027748582884669304,-0.07662603259086609,-0.019192663952708244,-0.06582233309745789,-0.0515730082988739,-0.07479611039161682,0.029830897226929665,0.04489234834909439,-0.05760155990719795,-0.02442132867872715,-0.022232694551348686,-0.06059107184410095,0.026763534173369408,-0.02177703008055687,0.03513042628765106,0.04042833298444748,-0.0011096624657511711,-0.026722371578216553,0.006400430575013161,-0.017870882526040077,0.03286899998784065,0.050247009843587875,0.0028893710114061832,0.03655551001429558,0.004990856163203716,-0.007197363302111626,-0.07360269129276276,0.060417186468839645,-0.04072815552353859,0.017607761546969414,0.018902979791164398,-0.029587680473923683,-0.04239681735634804,0.05333767086267471,-0.046504054218530655,0.01299191452562809,-0.018972398713231087,0.011350413784384727,0.047808077186346054,-0.06810493022203445,-0.03192597255110741,-0.043593425303697586,-0.021107573062181473,0.012782901525497437,-0.02388615719974041,0.08968140929937363,-0.004852912854403257,-0.006322869099676609,0.01791452243924141,-0.008595938794314861,0.03028726577758789,0.031386926770210266,-0.019846955314278603,0.013199065811932087,-0.056177765130996704,-0.0316704623401165,-0.07178815454244614,-0.10199403762817383,0.0795786902308464,0.023702414706349373,-0.009353182278573513,0.012856729328632355,0.0018833271460607648,0.03995654731988907,0.04222456365823746,0.007126899901777506,0.09114532172679901,0.02611462213099003,0.05156530439853668,0.01874854601919651,-0.0076543414033949375,-0.049474965780973434,0.03221425041556358,-0.08331476897001266,-0.1003972664475441,0.022795896977186203,0.03551627695560455,-0.09998616576194763,-0.016639215871691704,-0.08238118141889572,0.008282897062599659,-0.05225111544132233,0.05650506541132927,-0.08232664316892624,0.009203392080962658,-0.023027198389172554,-0.051012903451919556,-0.03199654445052147,0.05557510256767273,-0.05079502612352371,-0.07230667024850845,0.07306233793497086,-0.05075083673000336,0.016377415508031845,0.09742890298366547,0.015460939146578312,0.03544638305902481,0.027660293504595757,-0.006242792122066021,0.07267605513334274,0.018002964556217194,0.02675919607281685,0.03580906614661217,-0.02080547623336315,0.04519091546535492,-0.0637960359454155,0.030385278165340424,0.03820264711976051,0.004887172486633062,0.033022645860910416,-0.02036045677959919,-0.012606002390384674,-0.013918522745370865,0.018849259242415428,-0.0028780268039554358,0.055672235786914825,0.080279640853405,-0.043167594820261,0.06032183766365051,-0.04425463080406189,0.014747489243745804,-0.018119944259524345,0.05152342841029167,-0.026425974443554878,-0.03337087482213974,0.02718736231327057,0.026815475896000862,0.026487506926059723,0.03612770140171051,-0.004261988680809736,-0.0025236383080482483,-0.02927423268556595,-0.02578325755894184,-0.015344369225203991,-0.047193918377161026,-0.04606865346431732,-0.016136234626173973,-0.03244897350668907,0.04558812454342842,-0.04439335688948631,0.03649427369236946,-0.016294917091727257,-0.017293909564614296,0.004677283577620983,0.006061720196157694,0.010905208066105843,-0.028139732778072357,-0.0712026059627533,-0.025294974446296692,-0.013231328688561916,0.0046579246409237385,-0.003152897348627448,-0.030842188745737076,-0.04048952832818031,0.02738342247903347,-0.013349545188248158,-0.037592388689517975,0.11325065791606903,-0.03062630444765091,0.044864729046821594,0.06870488077402115,-0.04797627776861191,0.03843700513243675,0.07418238371610641,-0.04380157217383385,-0.07329607754945755,-0.020726623013615608,0.012270771898329258,0.028736336156725883,-0.05849497765302658,-0.11172839999198914,-0.033158402889966965,-0.01193063985556364,-0.04751762002706528,0.007000460755079985,0.01724500022828579,-0.007786288391798735,0.03663529083132744,0.05085664242506027,0.04289230704307556,0.04595710709691048,0.017489617690443993,0.04358391463756561,-0.001280079479329288,0.021947039291262627,0.006519804708659649,-0.020191384479403496,-0.06663526594638824,0.005831728223711252,0.009715472348034382,0.01222312543541193,-0.016129786148667336,-0.09811694920063019,0.013288279063999653,0.08512122184038162,-0.04959540441632271,0.08957371115684509,0.014866246841847897,-0.032195672392845154,-0.03698702156543732,-0.0451045036315918,0.05806611105799675,-0.003446006216108799,0.030575113371014595,-0.019168315455317497,0.06397027522325516,-0.029099006205797195,0.035276930779218674,0.01608976349234581,0.0216271560639143,-0.04264754429459572,-0.0003357944660820067,0.10133983194828033,0.004444398917257786,0.018360743299126625,-0.007212991360574961,0.048840779811143875,-0.04817776381969452,0.047515589743852615,0.05793949216604233,0.11912382394075394,0.025773443281650543,-0.01953722909092903,0.0309858787804842,-0.03837940841913223,-0.05870344117283821,0.024294454604387283,-0.023597871884703636,0.0434354729950428,-0.02605282887816429,-0.0767441913485527,-0.02445540577173233,0.02900620922446251,0.02656976692378521,-0.004324405454099178,-0.04559025913476944,-0.15530286729335785,-0.026633191853761673,0.0007188823656179011,0.011476235464215279,0.04086007550358772,-0.12415475398302078,-0.005525194574147463,-0.07896392047405243,-0.025910599157214165,-0.09618938714265823,0.013394788838922977,-0.0029029797296971083,0.05693478137254715,-0.0435585081577301,-0.04099760949611664,0.08632836490869522,-0.07064912468194962,0.05858670920133591,-0.025362035259604454,0.01239451952278614,-0.04918983206152916,-0.03387688100337982,-0.008800775744020939,-0.05059325322508812,0.02439201809465885,0.04923141375184059,-0.023170599713921547,-0.06971219927072525,-0.03969189524650574,-0.01764504238963127,-0.010567737743258476,0.024017609655857086,-0.03352595865726471,0.0009877488482743502,0.0035644639283418655,0.04286126792430878,0.006059597712010145,0.022653939202427864,0.02162996120750904,0.08019369095563889,-0.01029314287006855,-0.06807161867618561,-0.10076077282428741,0.0009025485487654805,-0.0329933762550354,0.007006741128861904,0.020598676055669785,0.03505275025963783,0.024615997448563576,-0.012594486586749554,0.021558884531259537,0.00926283560693264,-0.007805075030773878,0.0014242774341255426,0.061794597655534744,0.0028223355766385794,0.025144308805465698,0.03002047911286354,0.03245098516345024,0.009097394533455372,0.03277928754687309,-0.010650145821273327,-0.01565430499613285,-0.005117152817547321,-0.03573073074221611,-0.004730501677840948,-0.05755153298377991,-0.007744555361568928,-0.005403408780694008,0.02028914913535118,0.06292229890823364,-0.08854563534259796,-0.02062036283314228,-0.0630335807800293,0.05008263140916824,0.023850761353969574,0.003773670643568039,-0.04109322652220726,0.029497303068637848,0.07581061869859695,0.03866126760840416,0.09529188275337219,0.0031011817045509815,-0.03453805297613144,0.1470053344964981,0.017270907759666443,-0.005102758761495352,-0.046359360218048096,0.04730484262108803,-0.0067438725382089615,0.04745498299598694,0.0054855020716786385,0.030923999845981598,-0.03293294459581375,-0.01333534810692072,0.05329820141196251,0.0874655544757843,-0.036043375730514526,-0.03642949089407921,0.019919488579034805,0.06215076521039009,-0.04069235175848007,-0.014732630923390388,-0.006338261533528566,0.0909949317574501,-0.017396021634340286,0.02058028243482113,0.031381700187921524,0.002789172576740384,-0.03526252880692482,-0.008260059170424938,-0.015072234906256199,0.011067325249314308,0.0404500812292099,-0.06727033853530884,-0.06058097630739212,-0.003041876247152686,-0.0012557964073494077,-0.041309911757707596,-0.008776704780757427,-0.040375035256147385,-0.08945783227682114,0.026058057323098183,-0.011587167158722878,-0.00592247536405921,-0.07551950961351395,0.01760854758322239,-0.022916585206985474,0.01474212296307087,-0.0016349863726645708,-0.06507442891597748,0.01474993396550417,0.015516073442995548,-0.05220428481698036,0.056497812271118164,-0.018002184107899666,-0.03253248706459999,0.00022492533025797457,-0.011828151531517506,-0.03473042696714401,-0.035664524883031845,-0.0399046428501606,0.004088980611413717,0.04172683507204056,0.018095027655363083,-0.08994343131780624,0.05280192568898201,0.11098863929510117,-0.015214553102850914,-0.0011780757922679186,-0.021495379507541656,0.015266991220414639,-0.0036784016992896795,-0.05092369019985199,-0.027090666815638542,0.0018961232854053378,-0.06444916129112244,-0.0723576694726944,0.00216705072671175,-0.03603396937251091,0.004058123100548983,-0.0035983107518404722,-0.04541889205574989,0.03342873975634575,0.014576171524822712,0.03919218108057976,-0.016863731667399406,0.00984967965632677,-0.06793753802776337,-6.399307312676683e-05,-0.025901976972818375,-0.11376981437206268,0.07062409073114395,0.01171434298157692,-0.017663639038801193,-0.014709092676639557,0.022699592635035515,-0.038076065480709076,-0.06245109811425209,-0.033343974500894547,0.049887705594301224,0.06195080652832985,-0.002043958054855466,-0.022874142974615097,0.07760180532932281,0.014848541468381882,-0.029203319922089577,-0.08234072476625443,0.062263600528240204,-0.003828447312116623,-0.004893989767879248,0.05932610109448433,-0.10311651229858398,0.0009812602074816823,-0.015547963790595531,0.047047726809978485,-0.08428177982568741,0.012784642167389393,-0.03325045108795166,-0.08382713049650192,0.030201179906725883,0.003949200734496117,-0.06433755159378052,-0.031158743426203728,0.049088601022958755,0.0679456889629364,0.023935720324516296,0.031145820394158363,0.010333910584449768,0.016112588346004486,-0.0484342984855175,-0.04356116056442261,-0.047723595052957535,-0.005775358993560076,-0.019530456513166428,-0.027569184079766273,-0.04221396520733833,0.03825492784380913,-0.012384370900690556,-0.08589337021112442,0.0018748693400993943,-0.0888846144080162,-0.031924083828926086,0.03216078132390976,-0.012014799751341343,0.004287908785045147,0.005437375511974096,0.01951785758137703,-0.04694054648280144,0.010021774098277092,0.03403409942984581,0.006197242997586727,-0.03069206140935421,-0.10301898419857025,-0.01752578467130661
