image_name,dim_0,dim_1,dim_2,dim_3,dim_4,dim_5,dim_6,dim_7,dim_8,dim_9,dim_10,dim_11,dim_12,dim_13,dim_14,dim_15,dim_16,dim_17,dim_18,dim_19,dim_20,dim_21,dim_22,dim_23,dim_24,dim_25,dim_26,dim_27,dim_28,dim_29,dim_30,dim_31,dim_32,dim_33,dim_34,dim_35,dim_36,dim_37,dim_38,dim_39,dim_40,dim_41,dim_42,dim_43,dim_44,dim_45,dim_46,dim_47,dim_48,dim_49,dim_50,dim_51,dim_52,dim_53,dim_54,dim_55,dim_56,dim_57,dim_58,dim_59,dim_60,dim_61,dim_62,dim_63,dim_64,dim_65,dim_66,dim_67,dim_68,dim_69,dim_70,dim_71,dim_72,dim_73,dim_74,dim_75,dim_76,dim_77,dim_78,dim_79,dim_80,dim_81,dim_82,dim_83,dim_84,dim_85,dim_86,dim_87,dim_88,dim_89,dim_90,dim_91,dim_92,dim_93,dim_94,dim_95,dim_96,dim_97,dim_98,dim_99,dim_100,dim_101,dim_102,dim_103,dim_104,dim_105,dim_106,dim_107,dim_108,dim_109,dim_110,dim_111,dim_112,dim_113,dim_114,dim_115,dim_116,dim_117,dim_118,dim_119,dim_120,dim_121,dim_122,dim_123,dim_124,dim_125,dim_126,dim_127,dim_128,dim_129,dim_130,dim_131,dim_132,dim_133,dim_134,dim_135,dim_136,dim_137,dim_138,dim_139,dim_140,dim_141,dim_142,dim_143,dim_144,dim_145,dim_146,dim_147,dim_148,dim_149,dim_150,dim_151,dim_152,dim_153,dim_154,dim_155,dim_156,dim_157,dim_158,dim_159,dim_160,dim_161,dim_162,dim_163,dim_164,dim_165,dim_166,dim_167,dim_168,dim_169,dim_170,dim_171,dim_172,dim_173,dim_174,dim_175,dim_176,dim_177,dim_178,dim_179,dim_180,dim_181,dim_182,dim_183,dim_184,dim_185,dim_186,dim_187,dim_188,dim_189,dim_190,dim_191,dim_192,dim_193,dim_194,dim_195,dim_196,dim_197,dim_198,dim_199,dim_200,dim_201,dim_202,dim_203,dim_204,dim_205,dim_206,dim_207,dim_208,dim_209,dim_210,dim_211,dim_212,dim_213,dim_214,dim_215,dim_216,dim_217,dim_218,dim_219,dim_220,dim_221,dim_222,dim_223,dim_224,dim_225,dim_226,dim_227,dim_228,dim_229,dim_230,dim_231,dim_232,dim_233,dim_234,dim_235,dim_236,dim_237,dim_238,dim_239,dim_240,dim_241,dim_242,dim_243,dim_244,dim_245,dim_246,dim_247,dim_248,dim_249,dim_250,dim_251,dim_252,dim_253,dim_254,dim_255,dim_256,dim_257,dim_258,dim_259,dim_260,dim_261,dim_262,dim_263,dim_264,dim_265,dim_266,dim_267,dim_268,dim_269,dim_270,dim_271,dim_272,dim_273,dim_274,dim_275,dim_276,dim_277,dim_278,dim_279,dim_280,dim_281,dim_282,dim_283,dim_284,dim_285,dim_286,dim_287,dim_288,dim_289,dim_290,dim_291,dim_292,dim_293,dim_294,dim_295,dim_296,dim_297,dim_298,dim_299,dim_300,dim_301,dim_302,dim_303,dim_304,dim_305,dim_306,dim_307,dim_308,dim_309,dim_310,dim_311,dim_312,dim_313,dim_314,dim_315,dim_316,dim_317,dim_318,dim_319,dim_320,dim_321,dim_322,dim_323,dim_324,dim_325,dim_326,dim_327,dim_328,dim_329,dim_330,dim_331,dim_332,dim_333,dim_334,dim_335,dim_336,dim_337,dim_338,dim_339,dim_340,dim_341,dim_342,dim_343,dim_344,dim_345,dim_346,dim_347,dim_348,dim_349,dim_350,dim_351,dim_352,dim_353,dim_354,dim_355,dim_356,dim_357,dim_358,dim_359,dim_360,dim_361,dim_362,dim_363,dim_364,dim_365,dim_366,dim_367,dim_368,dim_369,dim_370,dim_371,dim_372,dim_373,dim_374,dim_375,dim_376,dim_377,dim_378,dim_379,dim_380,dim_381,dim_382,dim_383,dim_384,dim_385,dim_386,dim_387,dim_388,dim_389,dim_390,dim_391,dim_392,dim_393,dim_394,dim_395,dim_396,dim_397,dim_398,dim_399,dim_400,dim_401,dim_402,dim_403,dim_404,dim_405,dim_406,dim_407,dim_408,dim_409,dim_410,dim_411,dim_412,dim_413,dim_414,dim_415,dim_416,dim_417,dim_418,dim_419,dim_420,dim_421,dim_422,dim_423,dim_424,dim_425,dim_426,dim_427,dim_428,dim_429,dim_430,dim_431,dim_432,dim_433,dim_434,dim_435,dim_436,dim_437,dim_438,dim_439,dim_440,dim_441,dim_442,dim_443,dim_444,dim_445,dim_446,dim_447,dim_448,dim_449,dim_450,dim_451,dim_452,dim_453,dim_454,dim_455,dim_456,dim_457,dim_458,dim_459,dim_460,dim_461,dim_462,dim_463,dim_464,dim_465,dim_466,dim_467,dim_468,dim_469,dim_470,dim_471,dim_472,dim_473,dim_474,dim_475,dim_476,dim_477,dim_478,dim_479,dim_480,dim_481,dim_482,dim_483,dim_484,dim_485,dim_486,dim_487,dim_488,dim_489,dim_490,dim_491,dim_492,dim_493,dim_494,dim_495,dim_496,dim_497,dim_498,dim_499,dim_500,dim_501,dim_502,dim_503,dim_504,dim_505,dim_506,dim_507,dim_508,dim_509,dim_510,dim_511
aug0_img1_bright_aug_0.png,0.010605095885694027,-0.03291906788945198,-0.057628318667411804,0.06604520976543427,0.008957990445196629,0.01676018536090851,-0.03640703484416008,0.044994354248046875,0.02402699925005436,0.02198944240808487,0.021917715668678284,0.031224746257066727,-0.03893452510237694,0.010326207615435123,0.0023140530101954937,0.05218367278575897,0.09408640116453171,0.07173960655927658,-0.028915269300341606,0.013583624735474586,0.04137871041893959,0.04113006964325905,0.02200143039226532,-0.004958502482622862,-0.045226942747831345,-0.01934128627181053,0.04223930463194847,0.0740986242890358,0.033133767545223236,-0.040273964405059814,0.014710363931953907,0.03212964907288551,0.01229813788086176,0.046665292233228683,0.03585077449679375,-0.010842429473996162,-0.04146026819944382,-0.06972327828407288,-0.0001318938157055527,0.019203441217541695,0.04862568899989128,-0.07300672680139542,0.01593843474984169,-0.04161982610821724,0.007981722243130207,0.012678573839366436,0.00986816268414259,-0.03951817750930786,-0.009163104929029942,0.0656353309750557,0.04614127427339554,0.03087904118001461,0.09954097867012024,-0.02848898246884346,-0.06247862055897713,-0.03833114728331566,-0.03388145565986633,-0.005553815048187971,0.0558105930685997,0.031562160700559616,-0.020943552255630493,0.0361296609044075,-0.028917182236909866,0.048092909157276154,-0.04501361399888992,0.02242407761514187,0.014004390686750412,0.034488338977098465,0.03479762375354767,-0.04646754637360573,-0.010691853240132332,-0.05144292116165161,-0.006815468426793814,0.04521346837282181,0.03614188730716705,0.02071903645992279,-0.012819641269743443,-0.005993066821247339,-0.07619154453277588,-0.035680416971445084,0.0025262790732085705,-0.000933708215598017,-0.053237538784742355,0.004323785658925772,0.015756582841277122,-0.0364970937371254,0.08877132833003998,0.016826966777443886,-0.047860946506261826,-0.00824281107634306,-0.05452181026339531,0.016929980367422104,0.028177378699183464,-0.006070574279874563,0.025690432637929916,0.06815377622842789,-0.020484473556280136,-0.02889261581003666,-0.07222946733236313,0.026446746662259102,0.023664863780140877,0.09208784997463226,0.03660573437809944,-0.007931097410619259,0.0012212129076942801,-0.02768910489976406,0.009515397250652313,-0.034945473074913025,0.003136957297101617,0.009465400129556656,0.03983158990740776,-0.05064995586872101,-0.0602802075445652,-0.029885249212384224,-0.013996407389640808,-0.05029013380408287,-0.019892005249857903,0.02417135052382946,-0.02573242411017418,0.04935705289244652,0.03486061468720436,0.05457878112792969,-0.07674729824066162,-0.019091758877038956,-0.06671686470508575,-0.027835965156555176,0.020183874294161797,0.02647467888891697,0.011512847617268562,-0.04392882063984871,-0.05435436591506004,-0.020845426246523857,-0.006004126742482185,-0.08494973927736282,-0.00898053776472807,0.04305922985076904,-0.028666121885180473,-0.05169293284416199,0.036501847207546234,0.07935577630996704,0.06443368643522263,0.016387661918997765,0.00788817647844553,-0.007192953955382109,0.02100057154893875,-0.017288101837038994,-0.09335877746343613,0.021318716928362846,0.06324426084756851,-0.023454390466213226,0.033848583698272705,0.053974639624357224,0.009950905106961727,0.004114548675715923,0.05734633281826973,-0.04819395765662193,-0.028971875086426735,0.027659855782985687,0.0036956167314201593,-0.035946074873209,-0.011460011824965477,0.04710990563035011,0.02197890914976597,0.10256702452898026,0.07932616770267487,-0.01995866373181343,-0.002085747430101037,-0.0032316904980689287,-0.012232271954417229,0.021975507959723473,-0.03280765935778618,0.07535518705844879,-0.03319833427667618,-0.03543693199753761,0.03324326127767563,0.020362092182040215,-0.06237058341503143,0.03262680396437645,-0.02383273094892502,0.0018976927967742085,-0.1005394384264946,0.027916667982935905,-0.06428486108779907,-0.011848898604512215,-0.02773839421570301,-0.0035142109263688326,-0.05571386590600014,-0.034790728241205215,-0.05474099889397621,0.022058701142668724,0.064984530210495,0.006769680418074131,0.07087957859039307,-0.02653239294886589,0.03311609849333763,-0.02419985830783844,-0.058287523686885834,0.017175134271383286,-0.012260125949978828,-0.013915021903812885,0.04990708827972412,0.03911653906106949,0.035786524415016174,-0.024376625195145607,0.024070188403129578,-0.026357609778642654,-0.02578076720237732,-0.03966277837753296,-0.06655320525169373,0.061511047184467316,0.024569721892476082,0.023735281080007553,-0.037073709070682526,0.0464073121547699,-0.019937412813305855,0.045595932751894,-0.02591652236878872,0.002019620966166258,-0.022804217413067818,-0.040753379464149475,0.09959177672863007,0.02457088977098465,0.011821790598332882,0.0245647095143795,0.04320702329277992,-0.004027320072054863,0.0245377067476511,-0.02151644416153431,-0.006359792314469814,0.09017924219369888,0.04036718234419823,-0.07373166084289551,0.05285801365971565,-0.06113441288471222,-0.005782117135822773,0.028832271695137024,-0.0027667228132486343,-0.02114521525800228,0.01897846907377243,0.021810967475175858,-0.028900712728500366,0.005710157100111246,0.0769219845533371,-0.0401497408747673,0.06306086480617523,0.05120955780148506,0.0036143548786640167,0.036736976355314255,0.0626797303557396,0.007629833184182644,-0.1135571151971817,-0.005986390169709921,0.018494388088583946,-0.007504948880523443,0.02779131568968296,-0.04753413796424866,0.06489219516515732,-0.04475896805524826,-0.010905392467975616,0.04125825688242912,-0.022885296493768692,-0.002703509759157896,0.008015505038201809,-0.07510498911142349,-0.014420581050217152,-0.12826745212078094,-0.03782637417316437,-0.03695060685276985,-0.001978362910449505,-0.04632044583559036,-0.024012161418795586,0.02291012555360794,0.05320798233151436,0.02727613039314747,0.05890575796365738,-0.006826281081885099,-0.10896506905555725,-0.046485427767038345,-0.0779920220375061,0.02207622490823269,-0.02050739899277687,0.0065600271336734295,0.00979042798280716,-0.025111781433224678,-0.03367450460791588,0.0059062945656478405,0.027521168813109398,0.020686957985162735,-0.0778428241610527,-0.008278585970401764,-0.015450917184352875,0.05088821053504944,0.056656863540410995,-0.09713491052389145,-0.013443075120449066,-0.03392995893955231,0.03228902816772461,0.00881871022284031,0.03450832888484001,-0.013011174276471138,0.0731184110045433,-0.038133058696985245,-0.025746917352080345,0.0004499373899307102,-0.001484361826442182,-0.02388274110853672,0.004220969974994659,-0.03857384994626045,0.02368995174765587,-0.04557284340262413,-0.027729375287890434,-0.008184666745364666,-0.06676237285137177,-0.06594514101743698,0.03286854550242424,0.021390076726675034,0.061778727918863297,0.0176372192800045,0.16556930541992188,-0.09928968548774719,0.04867583140730858,-0.08020956069231033,-0.014674381352961063,-0.06283590197563171,0.05283693969249725,-0.003992389887571335,-0.0022287219762802124,0.04265962168574333,0.04135986417531967,0.04835879057645798,-0.028303103521466255,0.042424771934747696,-0.039375029504299164,0.04494093358516693,0.028760449960827827,0.09943777322769165,0.0008417773060500622,-0.0528925396502018,-0.0632195696234703,-0.030720431357622147,0.03202832117676735,-0.05496571213006973,0.08108900487422943,-0.010286029428243637,0.06319152563810349,-0.005627460312098265,0.030632253736257553,0.06967581063508987,-0.029090717434883118,0.041887316852808,-0.009747281670570374,-0.06481340527534485,-0.06128345802426338,0.07458727061748505,0.06578994542360306,-0.01809210702776909,0.04225151613354683,0.02356897108256817,-0.05199240520596504,0.017172029241919518,0.02636769227683544,0.019946139305830002,-0.04383448138833046,-0.03940461575984955,-0.03227140009403229,0.013599187135696411,-0.03321930393576622,0.06770139187574387,-0.0099108275026083,-0.10093729197978973,-0.0017320365877822042,0.058081045746803284,-0.01641182042658329,0.02904549241065979,-0.02854982018470764,0.04636242240667343,-0.05666723847389221,0.08184219896793365,-0.05825014412403107,-0.03758235648274422,-0.1063152328133583,0.0907597690820694,-0.01548883505165577,-0.0030299497302621603,0.034982092678546906,-0.04643700644373894,-0.024579789489507675,0.017921866849064827,-0.030064905062317848,-0.057727497071027756,-0.0014210065128281713,0.0942445695400238,-0.03628294914960861,-0.04898865520954132,-0.03494679182767868,-0.053461819887161255,-0.03945349529385567,0.03410503640770912,0.06374438852071762,0.03160194680094719,0.05032290890812874,-0.03135392442345619,-0.0016405961941927671,-0.00724380649626255,-0.029214996844530106,-0.01894133724272251,0.059083398431539536,-0.009899010881781578,0.03412287309765816,-0.07851368933916092,0.044112905859947205,-0.020676646381616592,0.06056066229939461,0.022425582632422447,-0.06758344918489456,-0.046359650790691376,0.011731543578207493,-0.03186890482902527,-0.013362049125134945,-0.04093059524893761,0.1291733980178833,0.0025932462885975838,-0.010501678101718426,0.028139561414718628,-0.02658088505268097,-0.04154536873102188,0.04843853414058685,-0.0065041761845350266,-0.014712397009134293,-0.08523645997047424,-0.07823441922664642,-0.022271983325481415,0.010743264108896255,-0.07562218606472015,0.06663932651281357,-0.0581408366560936,0.02852214127779007,-0.04389521852135658,-0.0010957411723211408,-0.08204851299524307,-0.04816760867834091,0.027353573590517044,0.006617272272706032,0.050309620797634125,-0.06914572417736053,-0.006842941977083683,0.019191395491361618,0.031770892441272736,0.021297616884112358,0.0053480579517781734,-0.004095318261533976,-0.015203353017568588,0.030571958050131798,0.07434318214654922,-0.038561515510082245,0.01794378273189068,-0.05449487641453743,0.05136120691895485,0.018002524971961975,0.10794419795274734,-0.00413611251860857,0.025186792016029358,-0.0029366344679147005,-0.014218044467270374,0.03495920076966286,0.027293475344777107,0.005829768721014261,-0.09655335545539856,0.026432650163769722,0.009579869918525219,0.048078808933496475,-0.0006319537642411888,0.022992972284555435,0.008924842812120914,-0.022598782554268837,0.11146578937768936,0.018078770488500595,0.005597384180873632,0.08541799336671829,-0.06147007644176483,0.040176909416913986,-0.014031161554157734,-0.035356003791093826,-0.028293078765273094,-0.04747083783149719,-0.06774614006280899,-0.03667411208152771,0.01163594052195549,-0.015230095013976097,-0.09080081433057785,0.022290000692009926,-0.012421810999512672,0.03514599800109863,-0.0023216467816382647,0.07660705596208572,-0.015710407868027687,0.030643479898571968,-0.03878655284643173,0.015617065131664276,0.005742570385336876,-0.015272035263478756,0.052301693707704544,0.002892503747716546,-0.006035005208104849,0.04275030642747879,-0.015446361154317856,0.02452686056494713,-0.009157021529972553,-0.04146072641015053,0.010806535370647907,-0.01607486978173256,0.020602049306035042
aug0_img1_bright_aug_10.png,0.04829489439725876,0.052378423511981964,-0.007168584503233433,-0.0015913861570879817,-0.0026366268284618855,-0.0009817387908697128,0.05533955991268158,0.015365381725132465,0.07298151403665543,-0.020067313686013222,-0.016840757802128792,-0.005311345681548119,0.020091572776436806,0.010352777317166328,0.039154309779405594,-0.03668762370944023,0.007834739051759243,-0.003215655218809843,0.019334549084305763,0.020706631243228912,-0.05990074947476387,0.01613963581621647,-0.012534414418041706,-0.011250884272158146,0.0028982022777199745,-0.0012588626705110073,-0.04413288086652756,-0.010353593155741692,-0.02910366654396057,-0.04535803198814392,0.024113455787301064,0.08197342604398727,-0.006513160187751055,-0.03706078976392746,0.080586276948452,-0.004042110871523619,0.04033985361456871,0.017033904790878296,-0.010531743057072163,-0.05909055843949318,0.046003308147192,-0.04261854663491249,-0.016965363174676895,-0.039846811443567276,-0.08387704193592072,-0.11364644020795822,-0.024033328518271446,-0.0005212104879319668,0.024187132716178894,-0.07957093417644501,-0.02140994369983673,-0.01813756301999092,-0.03452243655920029,0.001441110041923821,-0.019901705905795097,0.015054445713758469,-0.03874582797288895,0.027347730472683907,0.02850276790559292,0.016679586842656136,-0.01682192273437977,0.06448312848806381,0.00430468562990427,-0.004400743171572685,-0.003818884491920471,-0.006220326758921146,0.04309488460421562,-0.04168575629591942,0.09244352579116821,0.005932225380092859,-0.00341170746833086,-0.046436477452516556,-0.007149246521294117,-0.03528345376253128,0.00646664435043931,-0.04417313262820244,0.0034551494754850864,-0.05534237623214722,0.012173667550086975,0.022697417065501213,-0.005973645020276308,0.009018748067319393,-0.0692891925573349,0.020940301939845085,0.010936385951936245,-0.035086095333099365,0.028439776971936226,-0.005973897874355316,-0.013667884282767773,0.007334757596254349,-0.009366698563098907,0.07321492582559586,0.05747180059552193,0.00653777876868844,0.02297814190387726,-0.013181379996240139,-0.04127401486039162,-0.04911567270755768,-0.09548764675855637,-0.0057768262922763824,-0.010793066583573818,0.013873404823243618,-0.014334646053612232,-0.025300731882452965,0.009937380440533161,0.030527587980031967,0.052226342260837555,0.02509487234055996,0.029261616989970207,0.07932263612747192,-0.025824986398220062,-0.04804597795009613,-0.06301556527614594,0.011981843039393425,-0.11185560375452042,-0.06907790899276733,0.06281481683254242,0.0127375153824687,-0.07992370426654816,0.016826653853058815,-0.09618885815143585,-0.01418829895555973,0.00018213933799415827,0.040469951927661896,-0.09640275686979294,0.02861938625574112,0.03776724264025688,-0.058476001024246216,-0.06364656984806061,0.07004326581954956,-0.05697420984506607,-0.019931703805923462,0.07578960061073303,-0.0765332281589508,-0.004471214488148689,0.07380250096321106,0.011291676200926304,-0.0027022145222872496,0.05303066223859787,-0.015632446855306625,0.025258539244532585,-0.040262509137392044,0.03593607619404793,0.05390673130750656,-0.030554333701729774,0.010562967509031296,-0.07047957181930542,-0.03134511038661003,0.07568113505840302,0.006887606345117092,0.07192156463861465,-0.02315913327038288,0.04415430501103401,0.0007810768438503146,0.009015319868922234,-0.00852410588413477,0.025646692141890526,0.014165548607707024,-0.008972657844424248,0.03017980232834816,0.00854040402919054,-0.010111508890986443,0.026634667068719864,0.0315156914293766,-0.009586462751030922,-0.07367096096277237,-0.02573901042342186,0.019857821986079216,0.07505656033754349,0.04742161184549332,0.024936167523264885,0.03250529244542122,-0.07943718880414963,0.01727251335978508,-0.0628221184015274,-0.036638323217630386,-0.0070013487711548805,0.043212782591581345,0.028868485242128372,0.019329914823174477,-0.09691934287548065,0.061447832733392715,-0.030833860859274864,-0.04000118374824524,-0.021190574392676353,0.010076324455440044,0.04043247550725937,0.035811953246593475,-0.02540457248687744,0.020438624545931816,0.05126599594950676,-0.013944270089268684,-0.04791543260216713,-0.008532358333468437,0.0016686397138983011,0.04382912442088127,0.014310584403574467,-0.021096186712384224,0.07747948914766312,0.006084272172302008,0.0579257570207119,0.04783676192164421,0.013365080580115318,0.042210981249809265,0.05702584609389305,-2.4367454898310825e-05,-0.0187635850161314,0.008116436190903187,-0.03225911036133766,0.06779766827821732,-0.06640685349702835,-0.0800376832485199,-0.03708924353122711,0.009970059618353844,-0.05498076230287552,0.00881209783256054,0.038240380585193634,-0.009252737276256084,-0.025300223380327225,0.05662974342703819,0.0409996397793293,0.03506267070770264,-0.0031005542259663343,0.058838922530412674,-0.0016506044194102287,0.020597578957676888,0.03292189911007881,-0.02217385545372963,-0.05539318174123764,0.02373121678829193,0.04477563872933388,-0.06610497832298279,0.005192674230784178,-0.06743811815977097,-0.030368627980351448,0.0544046051800251,-0.02805229090154171,0.07162461429834366,-0.017630035057663918,-0.0679829940199852,0.0028637417126446962,-0.05190353840589523,0.05670302361249924,-0.01703038439154625,0.01938707008957863,0.0063724275678396225,0.06965434551239014,-0.024581322446465492,0.022246837615966797,0.0503043532371521,-0.022059209644794464,-0.06365486234426498,-0.009660078212618828,0.06338714063167572,-0.05166526511311531,-0.010307148098945618,0.029623376205563545,0.01766733080148697,0.008725854568183422,-0.056799329817295074,0.03941047191619873,0.08531510084867477,0.07696229219436646,-0.0911526083946228,0.09598087519407272,-0.01731473207473755,-0.07707887142896652,0.07640650123357773,0.004182484932243824,0.009728442877531052,0.009164271876215935,-0.09459936618804932,-0.016401687636971474,0.0634218081831932,-0.01792842149734497,0.004936344921588898,-0.09918345510959625,-0.10838828980922699,-0.008831951767206192,0.03960433229804039,-0.02264743112027645,0.06528154760599136,-0.0718003436923027,-0.010747101157903671,-0.08191797137260437,-0.05502882972359657,-0.11126935482025146,0.05908089876174927,0.0344817191362381,0.0547204315662384,-0.041412390768527985,0.002324781147763133,0.025669079273939133,-0.03744816035032272,0.003993092104792595,-0.038151778280735016,0.06248216703534126,-0.06865876168012619,-0.049056388437747955,-0.014450996182858944,-0.06331779062747955,-0.00641853641718626,0.0065244692377746105,-0.023304658010601997,-0.01457731518894434,-0.016549402847886086,-0.029140545055270195,-0.020416121929883957,0.015442327596247196,-0.03324119374155998,0.04444532096385956,0.056176766753196716,-0.0055764298886060715,-0.020437277853488922,0.0055392407812178135,0.005068611353635788,0.06213407963514328,0.02704417146742344,-0.027855154126882553,-0.13752040266990662,0.01130675058811903,-0.06369340419769287,0.033840786665678024,0.07903784513473511,0.011854696087539196,0.025144698098301888,-0.014742901548743248,0.04337183013558388,-0.009659036993980408,-0.013621162623167038,0.02336384914815426,0.05665351077914238,-0.0104377381503582,-0.0271256472915411,-0.0030774588230997324,0.0164379570633173,0.01917863078415394,-0.03501589223742485,0.04401899501681328,-0.04885929822921753,0.05121719092130661,-0.012409034185111523,-0.08876285701990128,-0.09780190140008926,-0.0013344979379326105,-0.0531405471265316,0.026277022436261177,0.02517472393810749,-0.09055683016777039,0.0026062254328280687,-0.03846203163266182,0.04911336302757263,-0.007663927040994167,0.013957974500954151,0.0018258835189044476,0.037314873188734055,0.06004471704363823,0.05434505268931389,0.11331331729888916,0.023190567269921303,-0.046772271394729614,0.1232706755399704,-0.007439144887030125,-0.037842392921447754,-0.05373277887701988,0.06267391890287399,-0.024709027260541916,-0.004895796999335289,0.030712144449353218,0.0505557507276535,-0.04222914204001427,-0.028385641053318977,0.009832178242504597,0.06661390513181686,-0.016223441809415817,0.01341981440782547,-0.0030809277668595314,0.09216868132352829,0.0192366112023592,-8.394079486606643e-05,0.014100060798227787,0.06514071673154831,0.021376850083470345,0.02259991317987442,0.08000001311302185,0.016743235290050507,-0.018682565540075302,0.06625670194625854,0.027890712022781372,-0.01729326695203781,0.012761997058987617,-0.0635964423418045,-0.04097883403301239,-0.005961630959063768,0.0016450214898213744,-0.033259760588407516,-0.05451498553156853,-0.032690808176994324,-0.0794907957315445,0.02950775809586048,-0.005702772177755833,-0.0489182285964489,-0.043855197727680206,0.017327800393104553,-0.04027765616774559,-0.01528165303170681,0.03555688634514809,-0.05994270369410515,0.037406761199235916,-0.0036684719379991293,0.02879735268652439,0.02799799293279648,0.0329403281211853,-0.024138279259204865,-0.015076356008648872,0.029698992148041725,-0.025595463812351227,-0.023016227409243584,-0.0464656688272953,0.002945918356999755,0.03960462287068367,-0.021068183705210686,-0.05347355082631111,0.09118349850177765,0.09734129160642624,-0.010972498916089535,-0.04540565237402916,0.06919639557600021,-0.023698363453149796,-0.002438975963741541,-0.03572036698460579,-0.06303488463163376,-0.0030745775438845158,-0.07178544253110886,-0.003577703610062599,0.030493417754769325,-0.04006878659129143,-0.03292296454310417,-0.014135426841676235,-0.06296177953481674,0.011264042928814888,-0.024843621999025345,0.056259945034980774,0.011239727959036827,0.00036215977161191404,-0.0205818023532629,0.009557368233799934,0.027673892676830292,-0.05727016553282738,0.09744399785995483,0.012223821133375168,-0.009255713783204556,-0.03329142928123474,-0.03909677639603615,-0.03363746777176857,-0.06975595653057098,-0.07168401777744293,0.029703762382268906,0.04062136262655258,0.010836332105100155,-0.009222898632287979,0.06267276406288147,-0.010047296062111855,-0.01472554076462984,-0.10397826135158539,0.014497735537588596,0.016084328293800354,-0.02175739035010338,0.040332160890102386,-0.05222057178616524,0.005304274614900351,-0.001933282590471208,0.01744580641388893,-0.05973528325557709,0.06449077278375626,-0.002932057250291109,-0.09995456039905548,0.05315539613366127,-0.006553013809025288,-0.03825907036662102,-0.04744968190789223,0.017428331077098846,0.05284418538212776,-0.002574991201981902,0.0013969617430120707,-0.03386369347572327,-0.04000883549451828,-0.02529711276292801,-0.048512786626815796,-0.038251351565122604,0.007731102406978607,-0.045479875057935715,-0.06328366696834564,-0.002437279326841235,-0.015940794721245766,-0.05295516923069954,-0.011212735436856747,-0.01637813076376915,-0.08569633960723877,-0.011338256299495697,0.03512153774499893,0.0018324789125472307,-0.05329585447907448,0.06585180759429932,-0.010381034575402737,-0.09743320196866989,-0.041489142924547195,-0.0234561488032341,0.03525352105498314,0.049629371613264084,-0.07115822285413742,0.007900352589786053
aug0_img1_bright_aug_11.png,-0.0011412501335144043,-0.1122792586684227,-0.01751718483865261,0.03112112544476986,-0.041635699570178986,-0.09535400569438934,-0.008037513121962547,-0.0008513508946634829,0.0795162171125412,-0.0060205417685210705,0.023972393944859505,-0.006736572831869125,-0.047475218772888184,-0.01353442668914795,-0.023491326719522476,0.07684849947690964,0.012315805070102215,0.005514747463166714,0.025623293593525887,0.07191966474056244,0.03720488399267197,0.02190140262246132,-0.047578033059835434,-0.00891788024455309,-0.07283943146467209,-0.08211421221494675,-0.04558485001325607,0.03989331051707268,0.017874978482723236,0.02474651299417019,0.05094451084733009,0.01821444369852543,0.03213297948241234,0.034605346620082855,0.015196772292256355,-0.0036441783886402845,-0.02594628930091858,0.013532299548387527,0.05795739218592644,0.06601961702108383,0.10398226231336594,-0.07522862404584885,0.005448425654321909,0.03395991772413254,0.005168155301362276,-0.007579124066978693,-0.03602585941553116,-0.04243709519505501,-0.01198379322886467,0.08940879255533218,0.05533820018172264,-0.011021330952644348,0.04879314824938774,0.06166939437389374,-0.04237174987792969,-0.06197379156947136,-0.0001733637909637764,-0.007356029469519854,0.03208322450518608,-0.02717299573123455,-0.006850165314972401,0.019138386473059654,0.010878948494791985,0.06611072272062302,-0.0016084096860140562,0.05381151661276817,0.05504264310002327,0.021807372570037842,-0.036951944231987,-0.04638184607028961,0.017076322808861732,-0.033997710794210434,-0.012151635251939297,0.02236076444387436,-0.05642130225896835,0.021816972643136978,0.007581974379718304,0.026961296796798706,-0.05052759125828743,-0.03194548189640045,0.046738773584365845,0.0505153052508831,-0.07513297349214554,0.03507792577147484,0.06277168542146683,-0.015965839847922325,0.08695171028375626,-0.006752416957169771,-0.013683627359569073,-0.0011130307102575898,0.06276281923055649,0.00028862591716460884,-0.013345025479793549,-0.0017069010064005852,-0.017645521089434624,0.04112620651721954,0.034937575459480286,0.009089507162570953,-0.08296294510364532,0.006976193282753229,0.01377476193010807,0.028722036629915237,0.01598144695162773,-0.012972714379429817,0.00025078278849832714,-0.017570750787854195,0.06639238446950912,0.05004310980439186,0.013702387921512127,0.08670882880687714,0.0342429019510746,0.0007870742119848728,-0.021735813468694687,-0.019053606316447258,-0.007346063852310181,-0.03358757495880127,-0.046666160225868225,0.03879139944911003,0.016524694859981537,0.07044018805027008,-0.010076876729726791,0.014902764931321144,-0.06131536513566971,-0.005340869072824717,-0.05996589735150337,0.05490998923778534,0.013658248819410801,-0.012932712212204933,-0.018895220011472702,-0.0009609363041818142,-0.03210453689098358,-0.05640674754977226,-0.027050381526350975,-0.0035442812368273735,0.04459913447499275,0.01794038526713848,-0.04851418361067772,-0.010007131844758987,0.041845060884952545,0.03910849988460541,-0.0026742874179035425,0.025511546060442924,0.030744776129722595,0.06114817410707474,-0.00490815844386816,0.010741587728261948,-0.025796597823500633,0.09816167503595352,-0.007720115128904581,-0.050034910440444946,0.05438882112503052,0.05453607812523842,0.005381311755627394,-0.09451994299888611,-0.006482160650193691,0.005364535376429558,-0.06317653506994247,0.03024071268737316,0.004249130375683308,0.04913880676031113,-0.04809015989303589,-0.04076948016881943,0.040074337273836136,0.05106040835380554,-0.01617337577044964,0.0022305010352283716,-0.04547431319952011,-0.014085360802710056,0.07297386229038239,-0.02477417141199112,-0.03104151226580143,-0.033611904829740524,0.00443759560585022,0.019292403012514114,0.04471062496304512,0.08937252312898636,-0.033148493617773056,0.016187557950615883,0.055665235966444016,-0.09704741835594177,-0.07632803171873093,0.005440216511487961,-0.02525654435157776,-0.02131858840584755,-0.06010110303759575,0.02814469300210476,-0.0022204623091965914,0.0015898117562755942,-0.0567205511033535,-0.04032382369041443,0.09800247848033905,-0.06837137788534164,0.0076394109055399895,0.05140410736203194,0.05535745993256569,-0.03531450778245926,-0.05170612037181854,0.07135578244924545,-0.03627976402640343,0.019071416929364204,0.02124396525323391,0.03717130050063133,0.03597627580165863,-0.018069369718432426,0.019245607778429985,-0.003187954192981124,0.08126334100961685,0.050025392323732376,0.04541236534714699,0.0001317627466050908,-0.007979553192853928,0.06091538444161415,-0.027493344619870186,0.04461805149912834,-0.040176209062337875,-0.03327331319451332,-0.00647400738671422,0.020778890699148178,0.01735653541982174,0.018573438748717308,0.06785230338573456,0.024946141988039017,-0.02074585109949112,0.030863529071211815,-0.013689650222659111,-0.041394539177417755,0.04729237034916878,-0.04928922653198242,-0.07592958211898804,0.03237379342317581,0.017688702791929245,-0.07468301057815552,0.07062366604804993,-0.008276710286736488,-0.06637725979089737,0.04450703039765358,0.026142846792936325,0.06008993461728096,-0.08828477561473846,0.028946278616786003,0.0017988266190513968,0.04489883780479431,0.03147859498858452,0.033768847584724426,-0.01920798048377037,-0.025729266926646233,0.031221656128764153,0.05176614969968796,-0.015656091272830963,-0.020966844633221626,-0.07853040099143982,-0.0379299595952034,-0.02898920141160488,0.002695106202736497,-0.03575247898697853,0.008597370237112045,0.012993489392101765,-0.12912295758724213,-0.007451239507645369,0.047850143164396286,-0.03140168637037277,-0.031063007190823555,-0.02784099616110325,-0.040494102984666824,0.004903701599687338,0.025126826018095016,-0.005590032786130905,-0.0076189590618014336,-0.02757928892970085,-0.06604406237602234,-0.01982410065829754,-0.004092574119567871,0.007018415257334709,0.05795906111598015,0.014489070512354374,-0.0005415999330580235,-0.04153340309858322,-0.07656171917915344,-0.03139476105570793,-0.027786985039711,-0.06216655299067497,0.013926052488386631,0.10213427990674973,0.007450506091117859,0.04968293383717537,0.008959485217928886,0.00043346124584786594,0.04170544445514679,0.03533750772476196,0.015644792467355728,-0.00595658365637064,0.08068837225437164,0.04920456185936928,-0.03907783702015877,-0.015973268076777458,-0.026137370616197586,0.05251115933060646,-0.0183491799980402,0.01649024710059166,0.013450748287141323,-0.021987706422805786,0.022447578608989716,-0.028264548629522324,0.029692267999053,-0.015391193330287933,0.04974134638905525,-0.02179335243999958,-0.0064585707150399685,0.07773149013519287,-0.010054312646389008,0.045726045966148376,0.05116359516978264,0.024815205484628677,-0.01616169698536396,-0.05132924020290375,-0.05335857346653938,0.04436284303665161,0.021181875839829445,0.1259540468454361,-0.060378216207027435,-0.03539564833045006,-0.031006796285510063,0.04391026124358177,-0.027427073568105698,0.0640256404876709,-0.03743517026305199,0.026744157075881958,0.007955293171107769,0.006604289170354605,0.028122583404183388,-0.03844987601041794,0.003462916472926736,-0.04274382442235947,0.010550730861723423,0.05070741847157478,0.06463118642568588,-0.02931646816432476,-0.04614988714456558,-0.01768321357667446,-0.05275501683354378,0.03149009495973587,-0.03915749862790108,0.040309879928827286,-0.04045891761779785,0.0072706607170403,-0.06636359542608261,-0.009947944432497025,-0.028645649552345276,-0.05226241424679756,0.050872962921857834,0.014384416863322258,-0.04059760645031929,-0.055099967867136,0.08593927323818207,0.007588653359562159,-0.026995981112122536,0.022487984970211983,0.021992187947034836,0.03092142567038536,0.0029259957373142242,-0.01975669153034687,0.05948799476027489,0.04362735152244568,0.0634588971734047,0.04986333101987839,-0.012012152001261711,-0.062034960836172104,0.06429831683635712,-0.005221760831773281,-0.09170690178871155,0.025316398590803146,0.0016492834547534585,-0.08367816358804703,0.027359291911125183,-0.03174171224236488,-0.012806644663214684,-0.022567257285118103,0.008934161625802517,0.023087963461875916,-0.014808613806962967,0.03940800577402115,0.07331567257642746,0.018567293882369995,0.025324244052171707,-0.010154134593904018,0.00956941768527031,0.01288760919123888,0.05557745695114136,-0.04244818165898323,-0.05480571463704109,0.08533787727355957,-0.020811356604099274,-0.016388073563575745,-0.0800134539604187,0.01108618639409542,-0.09483937919139862,-0.07497083395719528,-0.0065588150173425674,0.0269093606621027,-0.03588297590613365,0.11867546290159225,-0.04389219358563423,0.01821189373731613,-0.021058954298496246,0.0176058579236269,-0.021186331287026405,0.035891998559236526,-0.037775564938783646,0.0074899266473948956,-0.13811519742012024,0.02665255405008793,-0.023318909108638763,-0.004743531346321106,-0.07513701915740967,0.012057439424097538,-0.025519367307424545,-0.01712348498404026,-0.0207595806568861,-0.038558293133974075,0.0005819916259497404,0.02695371024310589,0.017138827592134476,0.05175059288740158,0.04040611535310745,-0.06152357906103134,-0.057435356080532074,0.04979255795478821,0.027874775230884552,-0.07373986393213272,-0.06312950700521469,-0.011001472361385822,0.012112454511225224,0.04118611663579941,-0.004487806465476751,0.06426411867141724,-0.010228523053228855,0.05361780524253845,-0.015435191802680492,-0.04438161477446556,-0.022429442033171654,-0.024611756205558777,-0.06519120186567307,0.026870276778936386,0.05955807864665985,-0.06119253858923912,-0.015760943293571472,0.0913410633802414,-0.01821940764784813,0.010833202861249447,0.08139009028673172,-0.05866038799285889,-0.03810698911547661,-0.07329827547073364,0.13067477941513062,-0.032855723053216934,0.048679813742637634,-0.05598214268684387,-0.08303114771842957,-0.09445041418075562,0.049897681921720505,0.025066126137971878,-0.07510247826576233,0.0036420370452106,-0.010654786601662636,-0.04713830724358559,0.01446984801441431,0.04866483807563782,-0.04781438410282135,-0.03615199774503708,0.04028724133968353,0.10906943678855896,0.02580174244940281,0.01316935382783413,-0.019859492778778076,0.012830954045057297,0.0746913030743599,-0.0500207245349884,0.049763452261686325,0.07550560683012009,-0.02989072911441326,-0.01213839277625084,-0.07195544987916946,-0.021516665816307068,0.041943587362766266,-0.050608668476343155,-0.05665839463472366,0.008198476396501064,0.00034091531415469944,-0.003787362715229392,-0.06149832531809807,0.04359811544418335,0.007037164643406868,0.0524420402944088,-0.03168816119432449,-0.014071960933506489,0.037606265395879745,0.0416947677731514,-0.0531248115003109,0.0010257554240524769,-0.013772323727607727,-0.02044466696679592,0.049317359924316406,-0.04164588451385498,0.05620630085468292,0.0412263348698616,-0.0033891734201461077,-0.011614365503191948,-0.061503712087869644,-0.06466929614543915,0.02075052447617054,0.011286613531410694,0.009461264126002789
aug0_img1_bright_aug_2.png,0.0008161710575222969,-0.07453693449497223,-0.0037010470405220985,-0.001594432513229549,-0.017479076981544495,0.039577629417181015,-0.04505109414458275,-0.01734054461121559,0.02280581369996071,-0.012891225516796112,0.04461907967925072,-0.018879380077123642,0.03662505000829697,-0.04619397222995758,0.059815384447574615,-0.0367073193192482,-0.027100151404738426,0.006530120503157377,-0.01966956816613674,-0.034501735121011734,-0.09111979603767395,0.06771742552518845,0.004544990602880716,-0.08070266991853714,-0.0927416980266571,0.027662063017487526,-0.09388870000839233,-0.08077966421842575,-0.06276476383209229,0.005938118323683739,-0.03281295299530029,0.1169801652431488,0.09318657964468002,-0.004248043056577444,-0.007900680415332317,-0.015133083797991276,0.03578290343284607,-0.00211346335709095,-0.00962927658110857,-0.016308186575770378,0.018843982368707657,-0.010565134696662426,-0.05767633765935898,-0.05926302820444107,-0.03989631310105324,-0.01807299256324768,0.06483995169401169,-0.002503664931282401,-0.04244600608944893,-0.08537445962429047,-0.04851865768432617,0.04927285388112068,-0.007771535776555538,0.04142571985721588,-0.008886527270078659,0.0036634302232414484,0.08601611107587814,-0.01807055063545704,-0.023685509338974953,0.04200302064418793,-0.04643140360713005,0.015569067560136318,-0.05681689828634262,-0.04613860324025154,-0.010913187637925148,0.04489578679203987,0.05265937000513077,-0.051564350724220276,0.0032225209288299084,-0.02818882465362549,0.04833913594484329,-0.016325797885656357,0.027102723717689514,-0.017883209511637688,-0.02379358746111393,0.0017154888482764363,-0.039485812187194824,-0.010669014416635036,-0.036528218537569046,0.024671364575624466,0.010765306651592255,-0.005727746523916721,0.03011811524629593,0.01850881800055504,0.03043847717344761,-0.031216982752084732,-0.018070325255393982,0.028867611661553383,-0.04288873448967934,-0.03387588635087013,0.0025719134137034416,0.00496586412191391,0.03318515419960022,0.015201536007225513,0.02258875221014023,0.0478065200150013,-0.04127189517021179,0.0015790972393006086,-0.06379305571317673,0.014018794521689415,-0.021601838991045952,-0.010653856210410595,0.04189077392220497,0.01662425324320793,0.04957899823784828,-0.01322888769209385,0.03465748578310013,-0.07505041360855103,-0.06483864039182663,-0.04465140029788017,-0.01801879145205021,0.034309763461351395,-0.12099839746952057,-0.04209396243095398,-0.07399521768093109,0.08449627459049225,0.06501564383506775,0.011455992236733437,0.07303526252508163,0.05979595705866814,-0.07976040989160538,-0.11388637125492096,0.00032780878245830536,0.043018192052841187,0.011181955225765705,0.02947237342596054,0.006208240520209074,-0.07526234537363052,-0.003118414431810379,-0.11081904172897339,0.054536692798137665,-0.011236715130507946,-0.002134822541847825,-0.0028602038510143757,-0.0361328050494194,0.04244571551680565,-0.04338425397872925,-0.02571328915655613,0.02346658520400524,-0.039580754935741425,-0.08100678026676178,0.0381152406334877,-0.06179007142782211,0.008523889817297459,0.06670711189508438,-0.009967676363885403,-0.08701115846633911,-0.057779502123594284,-0.04107958823442459,0.061383798718452454,0.0511787086725235,-0.026657581329345703,-0.03716208413243294,-0.012512576766312122,0.03709957376122475,0.0510178841650486,0.05054714158177376,0.020103277638554573,0.011842948384582996,-0.051355067640542984,-0.0111076720058918,-0.008712070062756538,-0.05766692012548447,-0.0647362470626831,-0.02779926359653473,-0.03220628574490547,-0.01985727995634079,0.04744384065270424,0.04016988351941109,0.04807938262820244,0.0003385353775229305,0.045454345643520355,-0.011800882406532764,-0.04333812743425369,-0.06345528364181519,-0.03431267291307449,0.03442910313606262,-0.05394432321190834,0.006456684321165085,-0.035173200070858,0.041892167180776596,0.03328850865364075,0.021702731028199196,0.04625450819730759,0.047411661595106125,0.062198590487241745,0.05292972922325134,0.05666263401508331,0.004447671119123697,-0.037270523607730865,-0.01593094877898693,-0.033180613070726395,0.016519205644726753,0.06608807295560837,-0.0029900060035288334,-0.012963328510522842,0.058191318064928055,0.007026274222880602,-0.014615234918892384,0.04419250786304474,0.010224878787994385,0.029144322499632835,0.012817680835723877,0.015857629477977753,-0.130880206823349,0.025220101699233055,-0.0292188860476017,0.003092249622568488,0.019050590693950653,0.0893876776099205,0.0036807905416935682,-0.006281343754380941,-0.0744556188583374,0.042711738497018814,-0.018531741574406624,0.0072398860938847065,0.038414888083934784,-0.008927430957555771,0.03204905986785889,-0.004598721396178007,0.013387157581746578,0.005115167237818241,-0.02004275657236576,-0.061595574021339417,-0.003060931107029319,-0.04476247727870941,-0.026177292689681053,-0.011678752489387989,0.010278362780809402,0.086163230240345,0.018804656341671944,0.015818193554878235,-0.021178776398301125,0.004854775033891201,-0.040069203823804855,-0.032173041254282,0.009949673898518085,-0.0020816586911678314,0.03242214396595955,-0.05245177820324898,0.05354287102818489,0.00017260342428926378,0.0075530074536800385,-0.03285783901810646,-0.04441872611641884,-0.016323532909154892,-0.01673043891787529,-0.00785745307803154,0.013589928857982159,-0.04874632507562637,0.09353792667388916,-0.04778771102428436,0.014440303668379784,-0.005391714163124561,0.036317165940999985,0.05497892573475838,0.048473674803972244,-0.03442848101258278,0.05380524322390556,0.012974184937775135,0.021662937477231026,-0.015280366875231266,0.040354546159505844,0.001767943031154573,-0.03699825704097748,0.03823251277208328,0.06507043540477753,0.022803131490945816,-0.019840167835354805,-0.021270010620355606,-0.03243483230471611,-0.003544352948665619,0.0029106081929057837,-0.05457468330860138,0.007887995801866055,0.02073671668767929,-0.027148080989718437,-0.0063962251879274845,-0.04267724230885506,0.03270668536424637,0.036617256700992584,0.1031685322523117,-0.05208003893494606,0.012536545284092426,-0.09532757848501205,0.041733115911483765,-0.009108194150030613,-0.058368198573589325,0.018851373344659805,-0.029343320056796074,-0.011353573761880398,-0.010055873543024063,0.05857185274362564,0.01847830042243004,-0.045819420367479324,-0.0002551381185185164,0.05671650171279907,-0.054015759378671646,-0.01989457756280899,0.0481649748980999,-0.03671256825327873,-0.05017862468957901,0.04444213584065437,0.018944984301924706,-0.08290400356054306,-0.07269910722970963,-0.010378212668001652,-0.009659792296588421,-0.05963217467069626,-0.06944447010755539,-0.034917619079351425,-0.023301322013139725,0.038784828037023544,-0.04551587253808975,-0.061924487352371216,0.020373111590743065,-0.05168992280960083,0.014343970455229282,0.03850923106074333,0.056634992361068726,-0.01516918744891882,0.04561018571257591,0.03469252586364746,0.02083245851099491,0.038184791803359985,-0.06983483582735062,0.03259963169693947,0.015476913191378117,0.04973223805427551,0.07289966940879822,0.05672764778137207,0.007381930947303772,0.04756592586636543,-0.033295802772045135,-0.05375565588474274,0.016103193163871765,0.019523879513144493,-0.05992833897471428,0.043459244072437286,-0.011027172207832336,0.01841842383146286,-0.06786903738975525,-0.030147161334753036,-0.0584784597158432,0.012113194912672043,-0.09109832346439362,-0.017270119860768318,-0.020879043266177177,-0.03133228421211243,0.013340543955564499,0.0009342244011349976,0.05056159943342209,-0.07970850169658661,-0.014395628124475479,0.05164291709661484,0.008833269588649273,-0.009316245093941689,-0.016365787014365196,-0.029063330963253975,0.05250570550560951,-0.042617689818143845,0.012788943015038967,-0.03551233932375908,-0.018606049939990044,-0.03038432076573372,0.026183396577835083,0.0005181497544981539,0.053770456463098526,-0.050678741186857224,0.06203535571694374,0.028270717710256577,-0.026075521484017372,-0.0407332144677639,-0.06339281052350998,0.0013699401170015335,-0.029565507546067238,0.03576052188873291,-0.02622520737349987,0.0408656969666481,-0.028143402189016342,-0.06598180532455444,-0.1073722243309021,0.0014045529533177614,-0.039689164608716965,-0.04014788940548897,-0.015931125730276108,-0.01630946435034275,-0.08406434208154678,0.05797206237912178,0.01884668879210949,0.01999347098171711,-0.020761149004101753,-0.002164585283026099,-0.05044182762503624,0.05652463808655739,0.05930406600236893,0.017245346680283546,-0.044465430080890656,0.0020622406154870987,0.005886719562113285,-0.09967286139726639,0.03714221715927124,-0.050204019993543625,0.04678696393966675,0.020310869440436363,-0.025471650063991547,0.012006882578134537,-0.022779444232583046,-0.06946301460266113,-0.023419255390763283,0.009660856798291206,-0.08565429598093033,0.0993252694606781,-0.04458592087030411,-0.06244898587465286,0.10214731842279434,-0.003906788304448128,-0.017336370423436165,0.037505507469177246,0.006537097506225109,-0.0496051199734211,-0.040840599685907364,-0.01981481723487377,0.04514223337173462,-0.037146080285310745,0.0005301675410009921,-0.06416483968496323,0.015188817866146564,-0.01689552702009678,-0.0022362424060702324,0.07439906895160675,0.006327557843178511,0.0006153210997581482,0.04337779060006142,-0.043168120086193085,-0.05308865010738373,0.050539709627628326,0.0033156368881464005,-0.047763481736183167,0.0002657984150573611,-0.02537022903561592,0.017882954329252243,-0.011485903523862362,-0.009751432575285435,0.05247357860207558,0.006176096387207508,-0.011314510367810726,-0.07542011886835098,-0.10489518195390701,-0.03310861811041832,-0.07409597188234329,0.06456014513969421,0.05049876868724823,-0.03233744949102402,-0.003704434959217906,-0.06907042860984802,0.029587237164378166,0.059669796377420425,-0.00564392376691103,0.08549029380083084,-0.04882027953863144,-0.018605006858706474,-0.012900419533252716,-0.07505498081445694,0.012996825389564037,-0.0020783732179552317,-0.05269823968410492,-0.01350050512701273,0.01264672726392746,-0.04545260965824127,-0.017545970156788826,-0.04379596188664436,-0.03884122148156166,0.0647825300693512,0.03167117014527321,-0.08025763928890228,-0.020969869568943977,-0.08381801843643188,0.0028851772658526897,0.12700341641902924,0.05026727169752121,-0.02856191247701645,0.030904237180948257,-0.09074129164218903,0.05108971893787384,-0.009699164889752865,-0.0012227828847244382,-0.09301722794771194,-0.005461056251078844,0.01932857371866703,-0.08716025203466415,-0.017118090763688087,0.01231361087411642,-0.014767729677259922,-0.023993032053112984,-0.05594666302204132,0.044419001787900925,0.005126853007823229,-0.013202647678554058,-0.006098428275436163,-0.03827989101409912,-0.03386823460459709,-0.009858532808721066,0.09032253175973892,-0.004157012794166803,-0.032781731337308884,-0.0011618012795224786,-0.03655191510915756,0.07880892604589462,0.027181236073374748,-0.08638666570186615,0.003444183152168989
aug0_img1_bright_aug_3.png,0.013043906539678574,0.06006443873047829,0.0007567788125015795,0.0065425545908510685,0.0466645248234272,-0.026843857020139694,0.04894959554076195,-0.004698764067143202,0.08693206310272217,-0.010962559841573238,-0.014828866347670555,-0.006676136516034603,-0.0004525789408944547,0.013119473122060299,0.04323443025350571,-0.03242344409227371,-0.017771685495972633,0.032007016241550446,-0.028652463108301163,0.05889839306473732,-0.059796273708343506,0.007531411945819855,-0.005834818817675114,-0.009629029780626297,-0.021173952147364616,0.00033834364148788154,-0.03516573831439018,-0.02051514945924282,-0.036294952034950256,-0.0199383944272995,0.05263657122850418,0.0884430930018425,-0.011531662195920944,-0.021659277379512787,0.1042124405503273,-0.005108261480927467,0.05712991580367088,-0.005755669437348843,-0.04757773503661156,0.015465482138097286,0.04576811194419861,-0.04335581883788109,-0.031848497688770294,-0.018169939517974854,-0.09214145690202713,-0.13065700232982635,-0.005486773792654276,0.053135406225919724,-0.008714109659194946,-0.0634915679693222,-0.029933812096714973,-0.03559809550642967,-0.00828153733164072,0.017492415383458138,-0.004633317701518536,0.0036176450084894896,-0.04723743349313736,0.0089948745444417,0.021954894065856934,0.0055698975920677185,-0.010519390925765038,0.06472332030534744,0.009472268633544445,-0.034496210515499115,0.0002689783868845552,-0.024046223610639572,0.020126299932599068,-0.028410544618964195,0.08126820623874664,-0.008409552276134491,0.022968925535678864,-0.045392636209726334,-0.048935532569885254,-0.06805386394262314,0.00691577885299921,-0.049374278634786606,0.019204022362828255,-0.04774744063615799,0.02939969301223755,0.022412912920117378,-0.01363015454262495,0.0036908239126205444,-0.04567112401127815,0.02810145728290081,-0.004395897965878248,-0.04687755927443504,0.026782646775245667,0.008558288216590881,-0.012793916277587414,-0.01168383751064539,0.018800038844347,0.0800933986902237,0.05674594268202782,-0.030294567346572876,0.05067460238933563,-0.023491734638810158,-0.035125285387039185,-0.04667476937174797,-0.08428999036550522,0.02864963933825493,-0.003950449172407389,0.05115026235580444,-0.01307486928999424,0.0007906588725745678,0.012471157126128674,0.06123808026313782,0.03626801446080208,0.03862079977989197,0.040000107139348984,0.07916849851608276,0.0031306149903684855,-0.025150250643491745,-0.06148754805326462,0.026096947491168976,-0.11042764782905579,-0.04000270739197731,0.06252597272396088,0.03150567039847374,-0.09830129146575928,-0.00895819440484047,-0.06678077578544617,-0.005948739126324654,0.0051682377234101295,0.05972309038043022,-0.0851670429110527,0.029087861999869347,-0.01588718593120575,-0.07532431930303574,-0.06333465874195099,0.06478402763605118,-0.04502258822321892,-0.0324120819568634,0.09831447154283524,-0.10049574077129364,0.022798076272010803,0.05864342674612999,-0.000672419264446944,-0.03878822177648544,0.04314713552594185,-0.005812599323689938,0.0225131306797266,-0.047598160803318024,-0.016200320795178413,0.06954972445964813,-0.007372410036623478,0.049526359885931015,-0.08389623463153839,-0.02917555347084999,0.0622287355363369,-0.018101507797837257,0.0487387590110302,-0.01582486741244793,0.030257156118750572,0.002617203863337636,0.0009137476445175707,-0.029125357046723366,0.03416944667696953,0.035606831312179565,-0.03986740857362747,0.016079355031251907,-0.011595687828958035,0.01110455859452486,0.016917774453759193,0.0433584563434124,-0.011263920925557613,-0.04408426582813263,-0.04560289904475212,0.029367119073867798,0.053051043301820755,0.0027014673687517643,0.011516171507537365,0.004465240985155106,-0.07914824783802032,0.0505223348736763,-0.04689643532037735,-0.030900629237294197,-0.010536640882492065,0.023012423887848854,-0.01169281080365181,0.0015535909915342927,-0.1019827276468277,0.08272555470466614,-0.019736411049962044,-0.0396067276597023,0.0042104353196918964,0.0267622172832489,0.024461425840854645,0.0269553754478693,-0.0221115555614233,0.005876354873180389,0.03276544064283371,-0.016381677240133286,-0.017246531322598457,0.0035359575413167477,-0.01426527090370655,0.040615081787109375,-0.0027642392087727785,-0.003368715289980173,0.08550837635993958,0.0096078310161829,0.023189419880509377,0.0032101545948535204,0.008924802765250206,0.02295050397515297,0.06968295574188232,-0.022144222632050514,0.0034977823961526155,0.029242737218737602,-0.03136473149061203,0.07065746933221817,-0.09217570722103119,-0.09170324355363846,-0.03509898483753204,0.01932930387556553,-0.04707944020628929,0.033339254558086395,0.037568867206573486,0.017397761344909668,-0.027103979140520096,0.024146659299731255,0.0206561591476202,0.023433983325958252,0.006466895341873169,0.05538315325975418,0.002018944825977087,0.041926782578229904,0.04806667938828468,-0.03017118014395237,-0.06599946320056915,0.04955931380391121,0.017675044015049934,-0.045228131115436554,0.003487593261525035,-0.06433790922164917,-0.006471916101872921,0.04687768593430519,-0.06861203908920288,0.09515994787216187,-0.0076257516629993916,-0.06966526806354523,-0.02630848065018654,-0.059156838804483414,0.057565588504076004,-0.01801438443362713,0.03674352914094925,-0.00372273288667202,0.09297047555446625,-0.0041884370148181915,0.03319183737039566,0.04354634881019592,0.0059815882705152035,-0.057768188416957855,-0.0005445043207146227,0.02905852161347866,-0.027549492195248604,-0.01381281204521656,0.042444050312042236,0.03854929283261299,-0.007789178751409054,-0.03455071151256561,0.060040365904569626,0.07026837021112442,0.07350311428308487,-0.07233351469039917,0.08435921370983124,-0.04690387845039368,-0.0860094502568245,0.08868059515953064,0.003677008207887411,-0.0027259220369160175,-0.010272450745105743,-0.12301240861415863,-0.03363912180066109,0.04236462339758873,-0.030370544642210007,0.002865545218810439,-0.061849456280469894,-0.07439327985048294,-0.012066052295267582,0.04264343902468681,-0.009412124752998352,0.06260068714618683,-0.06107344105839729,0.053415268659591675,-0.09119634330272675,-0.07096274942159653,-0.08220155537128448,0.027465583756566048,0.03342706710100174,0.04611659795045853,-0.07447867840528488,0.0018929626094177365,0.036502037197351456,-0.05243838205933571,0.01549691054970026,-0.016274359077215195,0.05728890374302864,-0.08828561007976532,-0.049321822822093964,0.0037284938152879477,-0.06712482869625092,0.007077733986079693,-0.013024987652897835,-0.020325224846601486,-0.0077793896198272705,-0.01620592549443245,-0.0038815848529338837,-0.022179173305630684,-0.022958338260650635,-0.019191445782780647,0.032002177089452744,0.06071854010224342,-0.0004255899984855205,-0.01690077967941761,0.004737642593681812,0.039330869913101196,0.03486835956573486,0.0328553207218647,-0.020312530919909477,-0.11980893462896347,-0.00018632644787430763,-0.04331308230757713,0.053190503269433975,0.11446766555309296,0.006101204548031092,0.021452808752655983,-0.016829513013362885,0.07928530126810074,-0.00446271151304245,0.019710607826709747,0.02409365400671959,0.05068207532167435,-0.008802677504718304,-0.031428053975105286,-0.02437755838036537,0.0020876736380159855,0.03235200420022011,0.0027309395372867584,0.023867927491664886,-0.034689951688051224,0.007004813756793737,-0.03928620368242264,-0.08349370956420898,-0.07175175845623016,0.033045168966054916,-0.03408334404230118,-0.0006445705657824874,0.060073092579841614,-0.06826631724834442,-0.02204868011176586,-0.051106758415699005,0.05741149187088013,0.00039061877760104835,-0.02170466259121895,0.01913093589246273,0.023685310035943985,0.03279004245996475,0.04265438765287399,0.13302019238471985,0.022068411111831665,-0.03133545443415642,0.13796111941337585,-0.05085919424891472,-0.0646766871213913,-0.04524783417582512,0.05462303012609482,-0.0659497082233429,0.03567202389240265,0.03966356813907623,0.03180814906954765,-0.02741600200533867,-0.04440326988697052,0.02503376267850399,0.06741252541542053,-0.03901136666536331,0.010620283894240856,-0.0047795758582651615,0.08542181551456451,0.03759583830833435,-0.022735262289643288,0.018013067543506622,0.0377587154507637,0.01033434085547924,-0.018910394981503487,0.023990992456674576,0.018293870612978935,-0.021255698055028915,0.029866071417927742,0.030084887519478798,-0.0010612960904836655,0.0017580243293195963,-0.034072939306497574,-0.04408913105726242,0.010568760335445404,0.010373183526098728,-0.05417419970035553,-0.06353623420000076,-0.012509693391621113,-0.040347468107938766,0.004355234559625387,-0.0016306950710713863,-0.020236900076270103,-0.04489962011575699,0.007604398299008608,-0.023065878078341484,-0.01075669750571251,0.022466560825705528,-0.08737128227949142,0.03380347043275833,0.012130724266171455,-0.007503636181354523,0.02646365389227867,0.030931778252124786,-0.04568210989236832,-0.02920825406908989,0.04192105680704117,-0.03194533661007881,-0.06130675971508026,-0.029731394723057747,-0.01977502927184105,0.0630246177315712,-0.033889107406139374,-0.08334814012050629,0.10557293146848679,0.09689817577600479,8.817723573883995e-05,-0.028788354247808456,0.04829513654112816,-0.03929289057850838,0.03180402144789696,-0.0600704587996006,-0.06323643773794174,0.002541537396609783,-0.07008758187294006,-0.00019529677229002118,-0.005953463725745678,-0.048068877309560776,-0.026151010766625404,-0.058491867035627365,-0.04431844502687454,-0.008621638640761375,-0.04165451228618622,0.014457176439464092,0.02870962768793106,-0.013827385380864143,0.002975834533572197,0.005102827213704586,-0.024781323969364166,-0.04189041256904602,0.07692363113164902,0.014889992773532867,-0.003065265715122223,-0.048778753727674484,-0.014550343155860901,-0.004350647795945406,-0.031038304790854454,-0.10151959210634232,0.023919690400362015,0.046260375529527664,-0.0036927317269146442,0.031698986887931824,0.06939695030450821,-0.037758968770504,-0.025215700268745422,-0.09055040031671524,0.027051374316215515,0.030735468491911888,-0.0492178350687027,0.02774636447429657,-0.025035660713911057,-0.002308112336322665,0.020583689212799072,-0.028611473739147186,-0.04761047288775444,0.06071503832936287,0.026129674166440964,-0.08930950611829758,0.045663341879844666,-0.006879609543830156,-0.012838388793170452,-0.02955847792327404,0.023939980193972588,0.027459848672151566,0.004443260375410318,0.01963414065539837,-0.013081598095595837,-0.024427009746432304,-0.055729061365127563,-0.027720583602786064,-0.057405486702919006,-0.005760106723755598,-0.03290567174553871,-0.079658143222332,0.005299245472997427,-0.007166028488427401,-0.055851053446531296,-0.03757225349545479,0.002629233989864588,-0.08753972500562668,0.008709888905286789,-0.004626184701919556,-0.0320199690759182,-0.019947689026594162,0.039813727140426636,0.0024408188182860613,-0.07825710624456406,-0.035292237997055054,-0.0014214235125109553,0.04974289610981941,0.0389995239675045,-0.02637808956205845,0.0030756278429180384
aug0_img1_bright_aug_6.png,0.0034083370119333267,0.06156441196799278,0.0019164829282090068,0.0038025977555662394,0.0333518423140049,-0.02315690740942955,0.06691983342170715,0.00638778880238533,0.08343498408794403,-0.007850181311368942,-0.01548328809440136,0.010889164172112942,0.029714416712522507,0.03322024270892143,0.023496896028518677,-0.03154179826378822,-0.03143075853586197,0.011770997196435928,-0.028175169602036476,0.06025956943631172,-0.05691852048039436,-0.011469332501292229,-0.0071436557918787,0.0065576680935919285,0.0018505286425352097,-0.01159034576267004,-0.028707362711429596,-0.025353863835334778,-0.046342164278030396,-0.02496432140469551,0.06308941543102264,0.08107174932956696,-0.019292648881673813,-0.012866884469985962,0.09585071355104446,-0.01179559901356697,0.047067511826753616,-0.0018213674193248153,-0.04875616356730461,-0.0031728348694741726,0.04232869669795036,-0.03792661800980568,-0.023396847769618034,-0.020050587132573128,-0.09939660131931305,-0.10970009863376617,-0.013031013309955597,0.05264245718717575,0.003640765557065606,-0.0759444311261177,-0.04855258762836456,-0.04275763779878616,0.0023418418131768703,0.02610762231051922,-0.0004572062462102622,-0.004810318350791931,-0.04787418246269226,0.008982825092971325,0.01707345061004162,0.01601330004632473,-0.014868258498609066,0.052075598388910294,0.031336478888988495,-0.015184889547526836,0.00812158640474081,-0.025217579677700996,0.01682877168059349,-0.04710576683282852,0.098556287586689,-0.0032814480364322662,0.011944038793444633,-0.0711442306637764,-0.025648128241300583,-0.04056655243039131,-0.004792633932083845,-0.02187717705965042,0.02076728641986847,-0.06034503132104874,0.04017692804336548,0.029652336612343788,-0.007810377515852451,0.0075097945518791676,-0.03954571112990379,0.02989518642425537,-0.007654240354895592,-0.03688258305191994,0.0354505330324173,-0.012771690264344215,-0.005420419853180647,-0.036410413682460785,0.0018335510976612568,0.10529255867004395,0.04156922549009323,-0.02483235113322735,0.04995507374405861,-0.02012729085981846,-0.04863652214407921,-0.06709498167037964,-0.0687902569770813,0.03628318011760712,-0.011933812871575356,0.05676250904798508,-0.011594190262258053,-0.002399209886789322,0.00512351281940937,0.06399988383054733,0.01858404465019703,0.04497767239809036,0.03460536524653435,0.05764254182577133,-0.006778171751648188,-0.01526696514338255,-0.06708148866891861,0.02110530622303486,-0.1067873165011406,-0.03632475435733795,0.04424923285841942,0.04356011003255844,-0.11163681000471115,-0.03408657759428024,-0.0658814087510109,0.005105613265186548,0.024387383833527565,0.036444004625082016,-0.07574094086885452,0.028902407735586166,-0.027101198211312294,-0.06652633845806122,-0.06240129843354225,0.05985630676150322,-0.050404880195856094,-0.027845563367009163,0.0899631455540657,-0.07820989191532135,0.02844463288784027,0.059770237654447556,0.0006333349156193435,-0.03257845342159271,0.028927333652973175,-0.016439074650406837,0.02040136232972145,-0.043461691588163376,0.0005640342133119702,0.05794426426291466,-0.014440170489251614,0.06687691807746887,-0.09516286849975586,-0.003991034813225269,0.06410592794418335,-0.019908398389816284,0.04585116729140282,-0.017490573227405548,0.028787849470973015,0.024785533547401428,-0.018368341028690338,-0.017208773642778397,0.02868499606847763,0.031957004219293594,-0.06454457342624664,0.013811631128191948,-0.013171445578336716,0.044888220727443695,0.03993925452232361,0.033087439835071564,-0.005141514353454113,-0.041380058974027634,-0.059703387320041656,0.036349207162857056,0.05083699896931648,0.01277143694460392,0.020948737859725952,0.00011371079745003954,-0.06714148074388504,0.05023232474923134,-0.05317150428891182,-0.04601466655731201,-0.008024541661143303,0.014368880540132523,-0.014826018363237381,0.009013418108224869,-0.10244350135326385,0.09448742866516113,4.7092384193092585e-05,-0.05332754924893379,-0.008825390599668026,0.010268698446452618,0.03427853062748909,0.009063986130058765,-0.028347421437501907,-0.03298351168632507,0.023883799090981483,-0.0030919420532882214,-0.017672870308160782,-0.01680893264710903,-0.02426958829164505,0.04540588706731796,0.01693948358297348,-0.024409236386418343,0.09801969677209854,0.012688471004366875,0.024646634235978127,0.018463673070073128,0.011785583570599556,0.03476277366280556,0.08526778221130371,-0.0080801360309124,-0.01214267686009407,0.02092125080525875,-0.031106699258089066,0.05665988102555275,-0.07990999519824982,-0.07028563320636749,-0.04847344383597374,0.027317676693201065,-0.026889104396104813,0.039015594869852066,0.05377761274576187,0.012667134404182434,-0.017657345160841942,0.0052437256090343,0.013476405292749405,0.034468963742256165,0.02108948305249214,0.04202970862388611,0.018494660034775734,0.051626041531562805,0.0606168694794178,-0.01104100700467825,-0.06303803622722626,0.03715977817773819,0.01541493833065033,-0.03020797111093998,0.0044939517974853516,-0.05100956931710243,-0.01569320634007454,0.05494247004389763,-0.06587634235620499,0.0878724679350853,-0.011837603524327278,-0.07072033733129501,-0.014963165856897831,-0.04580838978290558,0.045560676604509354,-0.012928755022585392,0.03840262070298195,-0.006232956890016794,0.08765235543251038,-0.01400759257376194,0.02441931888461113,0.03824165463447571,0.0028828608337789774,-0.0576082281768322,0.006120382342487574,0.06112728267908096,-0.010924553498625755,-0.0147415054962039,0.030393192544579506,0.03877013921737671,-0.02959679625928402,-0.025322504341602325,0.07091839611530304,0.06387641280889511,0.06882526725530624,-0.08641479164361954,0.05554269626736641,-0.04934827238321304,-0.08010590076446533,0.08606745302677155,0.017426278442144394,0.005204050801694393,-0.004635045770555735,-0.1328209489583969,-0.03616529703140259,0.060291457921266556,-0.02888549119234085,0.010272716172039509,-0.054675545543432236,-0.06883005052804947,0.0020278969313949347,0.05106436461210251,-0.009871451184153557,0.05793166533112526,-0.07935464382171631,0.05408710613846779,-0.09706014394760132,-0.06395483762025833,-0.0738963708281517,0.01584153063595295,0.01898549310863018,0.055548232048749924,-0.06448844075202942,0.014945374801754951,0.043208230286836624,-0.04340511932969093,0.03378106281161308,-0.011594555340707302,0.04407645761966705,-0.08662309497594833,-0.06495823711156845,0.017574265599250793,-0.051267821341753006,0.0030992652755230665,0.0007636596565134823,-0.02145935595035553,-0.007135143969208002,-0.008119060657918453,-0.023865772411227226,-0.0290110781788826,-0.024795178323984146,-0.034687820822000504,0.015270240604877472,0.04134538397192955,0.0038000403437763453,-0.013369839638471603,-0.010632755234837532,0.04490545764565468,0.04145808145403862,0.03173188865184784,-0.017316903918981552,-0.10702574998140335,-0.01767045445740223,-0.03774513304233551,0.053908854722976685,0.08971761167049408,0.010091106407344341,0.03806506469845772,-0.015577372163534164,0.060832660645246506,-0.0157359316945076,0.0031012713443487883,0.04857771098613739,0.043510086834430695,-0.015173685736954212,-0.040905747562646866,-0.011707380414009094,-0.006951026618480682,0.047329921275377274,0.016490425914525986,0.024069296196103096,-0.030866526067256927,0.013692309148609638,-0.05018239840865135,-0.06609330326318741,-0.09645671397447586,0.030031688511371613,-0.04965710639953613,-0.008326420560479164,0.06739630550146103,-0.07782825082540512,-0.009753791615366936,-0.04981709271669388,0.053080759942531586,0.008493389934301376,-0.02478996105492115,0.014296138659119606,0.03221127763390541,0.026237716898322105,0.041343700140714645,0.12398573011159897,0.031799495220184326,-0.014840199612081051,0.13179002702236176,-0.031651053577661514,-0.05675969645380974,-0.03443527594208717,0.0524258092045784,-0.07480237632989883,0.0464974083006382,0.037257563322782516,0.04522809013724327,8.376519690500572e-05,-0.01838838867843151,0.049167450517416,0.0675700455904007,-0.0402839258313179,0.009387018159031868,-0.0015907231718301773,0.06769238412380219,0.05161965638399124,-0.014592680148780346,0.015500671230256557,0.05259397253394127,0.024255815893411636,-0.04320349544286728,0.010580315254628658,0.01497607585042715,-0.011353104375302792,0.02796703204512596,0.030849402770400047,0.008894823491573334,0.012579942122101784,-0.03972218930721283,-0.04038006812334061,0.016199376434087753,0.019576353952288628,-0.045729976147413254,-0.062217388302087784,-0.01760599948465824,-0.0391680933535099,0.004811874125152826,-0.0038991037290543318,-0.01879757270216942,-0.03605811670422554,0.003116321051493287,-0.030088208615779877,-0.003346867859363556,0.04584649205207825,-0.06338676065206528,0.024295970797538757,0.024833858013153076,-0.022656980901956558,0.023036601021885872,0.03161634877324104,-0.048283640295267105,-0.042415738105773926,0.03633850812911987,-0.043795522302389145,-0.07716940343379974,-0.030062897130846977,-0.002466445090249181,0.0592067614197731,-0.03602708503603935,-0.0902850553393364,0.10498493164777756,0.10525460541248322,0.006251088809221983,-0.03456806018948555,0.04880284518003464,-0.007263728883117437,0.02509622648358345,-0.041189003735780716,-0.0637677013874054,0.01588696613907814,-0.04901307821273804,0.01354961283504963,-0.015639420598745346,-0.0634198784828186,-0.034137606620788574,-0.04016118124127388,-0.0508086234331131,-0.024283310398459435,-0.05912056937813759,0.0246904119849205,0.0460774302482605,-0.004485705401748419,0.026155728846788406,-0.007303936872631311,-0.026341166347265244,-0.02974609285593033,0.07809321582317352,0.010032896883785725,-0.02463732473552227,-0.03853732720017433,-0.03485862538218498,-0.008058030158281326,-0.017228033393621445,-0.09598423540592194,0.01277351938188076,0.04222249612212181,-0.014385952614247799,0.028058264404535294,0.07056839764118195,-0.03300291672348976,-0.03139858692884445,-0.10462617874145508,0.021088507026433945,0.02811162732541561,-0.04436243698000908,0.008959227241575718,-0.03036169335246086,-0.011213211342692375,0.0168012622743845,-0.03390786424279213,-0.03997362405061722,0.07012753188610077,0.04657042399048805,-0.10218017548322678,0.06173008680343628,-0.013477006927132607,-0.01945311389863491,-0.026926765218377113,0.013311119750142097,0.01860295794904232,-0.005298415664583445,0.008370703086256981,-0.02525169774889946,-0.029081176966428757,-0.05164966359734535,-0.032326146960258484,-0.039382949471473694,-0.026943998411297798,-0.034504521638154984,-0.07383180409669876,0.009678971022367477,-0.0035596657544374466,-0.06339606642723083,-0.04490866884589195,0.005520177073776722,-0.08104149997234344,0.007794361561536789,0.014121558517217636,-0.03898119926452637,-0.023931074887514114,0.03575172275304794,-0.002093025716021657,-0.08527449518442154,-0.032979682087898254,0.008897706866264343,0.058266907930374146,0.05460735782980919,-0.03268931433558464,0.004598300904035568
aug0_img1_bright_aug_7.png,0.02172626182436943,0.039214760065078735,-0.000984413898549974,-0.0012178132310509682,0.017115704715251923,-0.02165856771171093,0.06973966956138611,-0.028456654399633408,0.07521917670965195,-0.01128324493765831,-0.021979395300149918,0.018202682957053185,0.011271070688962936,0.028726832941174507,0.01282616425305605,-0.04386196658015251,-0.06904197484254837,0.00018935238767880946,-0.01682749018073082,0.05964697524905205,-0.05936339497566223,-0.014714703895151615,-0.024687889963388443,0.0065712942741811275,-0.015853846445679665,0.014380141161382198,-0.0448027066886425,-0.03960328549146652,-0.08409798890352249,-0.05310512334108353,0.07380514591932297,0.08443083614110947,0.004651110153645277,-0.014558681286871433,0.06186866760253906,-0.010712089017033577,0.05467992648482323,0.03630339354276657,-0.044143207371234894,-0.016904151067137718,0.022598423063755035,-0.03798862174153328,-0.03735673427581787,-0.019297219812870026,-0.09463765472173691,-0.1159897968173027,-0.014360245317220688,0.06705768406391144,0.0033355983905494213,-0.08162099123001099,-0.03442712128162384,-0.008638531900942326,-0.02388733997941017,0.01351340301334858,-0.009093175642192364,0.020808136090636253,-0.03921174630522728,0.026148898527026176,0.0054658944718539715,0.012523936107754707,-0.029797542840242386,0.06803794205188751,0.027833756059408188,-0.03270890191197395,0.006128276232630014,-0.013263418339192867,0.01658228598535061,-0.04979908466339111,0.07989083230495453,0.006094976793974638,0.011501207947731018,-0.0503992885351181,-0.013933481648564339,-0.02567257359623909,-0.019070452079176903,-0.04291728511452675,-0.0003263331891503185,-0.06825146079063416,0.03305396810173988,0.03368460014462471,-0.02690308354794979,0.027561308816075325,-0.028902048245072365,0.04317542538046837,-0.014254560694098473,-0.03608918562531471,0.04744688421487808,-0.020069535821676254,-0.03764666989445686,-0.021444018930196762,-0.00011945216829190031,0.09840191155672073,0.0524323396384716,-0.012095739133656025,0.05429219454526901,-0.019636686891317368,-0.02550620213150978,-0.05949057638645172,-0.06179310753941536,0.021319014951586723,-0.0009108820813708007,0.05061890184879303,-0.016952790319919586,-0.008751927874982357,0.02352195791900158,0.03876059502363205,0.01538484450429678,0.06034323573112488,0.020580513402819633,0.036852024495601654,0.024218948557972908,-0.0156601220369339,-0.08088146895170212,0.029473096132278442,-0.08404886722564697,-0.033351778984069824,0.08739864081144333,0.016219329088926315,-0.10205789655447006,-0.03198041021823883,-0.09706941992044449,0.0010686690220609307,0.025133706629276276,0.06575073301792145,-0.08962108194828033,0.02672129124403,-0.023522574454545975,-0.0691276490688324,-0.05692223086953163,0.04714857414364815,-0.0507122278213501,-0.010555016808211803,0.09912771731615067,-0.08380373567342758,-0.004536136519163847,0.034821901470422745,-0.002069075359031558,-0.012437487952411175,0.0300432275980711,-0.004779229871928692,0.03287573903799057,-0.046384911984205246,0.001552186324261129,0.06358930468559265,-0.003756086342036724,0.03163034841418266,-0.09422630071640015,-0.014324303716421127,0.057450901716947556,-0.0017512737540528178,0.04495900496840477,-0.014852211810648441,0.02372550405561924,-0.003098890883848071,-0.01746719889342785,-0.006157963536679745,0.061980027705430984,0.04416132718324661,-0.058613087981939316,0.021892856806516647,-0.0021079417783766985,0.03229103982448578,0.04290849342942238,0.008663143031299114,-0.024850372225046158,-0.04262905195355415,-0.060926519334316254,0.03773346543312073,0.0508279986679554,0.028281385079026222,0.028570326045155525,0.016245171427726746,-0.07485248893499374,0.023874720558524132,-0.04761182889342308,-0.04668426141142845,-0.016783922910690308,0.014667065814137459,0.003969172015786171,0.032449446618556976,-0.08874603360891342,0.08701176196336746,-0.005165887530893087,-0.043777331709861755,-0.002220820402726531,0.024081069976091385,0.026859965175390244,0.04253170266747475,-0.013218836858868599,-0.004684634506702423,0.02851814031600952,-0.033954787999391556,-0.03360053896903992,-0.010641827248036861,-0.027019347995519638,0.054599858820438385,0.038251541554927826,0.004068664275109768,0.08007076382637024,0.02326475828886032,0.03287013620138168,0.019107919186353683,-0.03106565773487091,0.044524963945150375,0.09050311148166656,-0.005520277190953493,-0.015825435519218445,0.03194749727845192,-0.028977764770388603,0.05412173643708229,-0.07439395040273666,-0.08921048045158386,-0.02733069472014904,0.02227577194571495,-0.03058224730193615,0.028053637593984604,0.038093384355306625,0.024669349193572998,-0.0025507272221148014,0.008002187125384808,-0.013471598736941814,0.01572682335972786,0.015474321320652962,0.031351398676633835,0.011730735190212727,0.04535844922065735,0.056578245013952255,0.001994444290176034,-0.06235551834106445,0.0354061983525753,0.03596443682909012,-0.02386511117219925,-0.018491515889763832,-0.06165085360407829,-0.014838211238384247,0.037931326776742935,-0.07581841200590134,0.09390975534915924,0.00686310138553381,-0.1085248664021492,0.005705241579562426,-0.04753841459751129,0.04807452857494354,-0.008630847558379173,0.02697180025279522,-0.010152384638786316,0.1135135218501091,0.016702814027667046,0.0022830551024526358,0.044139131903648376,-0.008366628549993038,-0.0764710009098053,0.02594713121652603,0.07493078708648682,0.0101807601749897,0.0036288134288042784,0.0110212666913867,0.04497545212507248,-0.009377829730510712,-0.003830614732578397,0.0751735121011734,0.08162257075309753,0.05570090189576149,-0.06008375808596611,0.06128620356321335,-0.030093010514974594,-0.05608765780925751,0.08217400312423706,0.046448249369859695,0.03173191472887993,-0.02138208970427513,-0.12818187475204468,-0.05451043322682381,0.05421518161892891,-0.00956090446561575,0.007518662605434656,-0.0368168018758297,-0.07162933051586151,0.00657224003225565,0.0362175889313221,-0.02745830826461315,0.04937657341361046,-0.08335939794778824,0.02014201693236828,-0.09649658203125,-0.06032630801200867,-0.10199040919542313,0.009693063795566559,0.030535416677594185,0.06443677097558975,-0.0475643053650856,0.008571024984121323,0.059753984212875366,-0.03924895077943802,0.024943945929408073,-0.021402953192591667,0.03682240843772888,-0.08617324382066727,-0.04791110381484032,0.009293846786022186,-0.0763690248131752,-0.0007964572287164629,0.022408973425626755,-0.011313585564494133,-0.0026131721679121256,-0.008502567186951637,-0.05797814950346947,-0.03156234696507454,-0.0017316237790510058,-0.035465579479932785,0.03765039145946503,0.056214071810245514,0.01734297350049019,-0.006899351719766855,-0.022380651906132698,0.03134814277291298,0.015228461474180222,0.02896861732006073,-0.03919186070561409,-0.06798872351646423,-0.009457406587898731,-0.015360367484390736,0.028735749423503876,0.10576799511909485,0.013665408827364445,0.032973844558000565,-0.020292043685913086,0.03522692248225212,-0.02466689981520176,0.0004095923213753849,0.028205011039972305,0.039828214794397354,-0.00980453286319971,-0.019619956612586975,-0.012058458290994167,-0.03224194422364235,0.053545031696558,-0.006102223414927721,0.027700195088982582,-0.03771829977631569,0.021177761256694794,-0.048741091042757034,-0.044202543795108795,-0.12219450622797012,-0.0028115499299019575,-0.05753673240542412,0.0008641941240057349,0.051961641758680344,-0.05675984546542168,-0.006110258400440216,-0.07409190386533737,0.07235193997621536,0.011203237809240818,-0.031631533056497574,0.01574316993355751,0.0314091257750988,0.029207006096839905,0.03207765147089958,0.12443096190690994,0.03674929961562157,-0.026389116421341896,0.13552191853523254,0.004927200265228748,-0.08161793649196625,-0.05523716285824776,0.03438689932227135,-0.07000898569822311,0.028371691703796387,0.039842188358306885,0.0071851108223199844,0.0022970102727413177,-0.024992503225803375,0.0320989191532135,0.06905966252088547,-0.022813061252236366,0.002263399539515376,-0.011994016356766224,0.08961562812328339,0.04594603553414345,0.011404888704419136,0.006339841056615114,0.04244190827012062,0.010098682716488838,-0.01148076169192791,0.018266772851347923,-0.007951795123517513,0.010945528745651245,0.009202225133776665,0.032908398658037186,0.021086186170578003,-0.0006254702457226813,-0.05447406321763992,-0.007078151218593121,0.01745339296758175,0.012113121338188648,-0.019578279927372932,-0.0639820247888565,-0.012642733752727509,-0.050264403223991394,-0.002535517793148756,0.001947358250617981,-0.035316094756126404,-0.05531730130314827,-0.010748347267508507,-0.03812927007675171,0.0016687866300344467,0.028633367270231247,-0.06929952651262283,-0.002646883949637413,0.02562798745930195,-0.02850504219532013,0.025321446359157562,0.04114791750907898,-0.03977951407432556,-0.0346992202103138,0.04765870422124863,-0.03756790608167648,-0.05200589820742607,-0.05856993794441223,-0.016841566190123558,0.043650735169649124,-0.0317775197327137,-0.10640019923448563,0.09789793193340302,0.1000371128320694,-0.004871031269431114,-0.02865932509303093,0.058752018958330154,0.010443853214383125,0.017751749604940414,-0.029790526255965233,-0.0730772316455841,0.007946865633130074,-0.06626323610544205,-0.02049153670668602,0.009813958778977394,-0.07001497596502304,0.0005309481057338417,-0.034738220274448395,-0.051875580102205276,-0.011068685911595821,-0.01798180304467678,0.023658961057662964,0.03733328729867935,-0.007527888752520084,0.01693383790552616,0.00036624635686166584,-0.0247001051902771,-0.03944891318678856,0.06418844312429428,0.0057219755835831165,0.013704034499824047,-0.030790217220783234,-0.03254779428243637,-0.027547530829906464,-0.04725334420800209,-0.07332009077072144,0.011262515559792519,0.07713121175765991,-0.023813780397176743,0.01742318831384182,0.06174611672759056,-0.018088078126311302,-0.04397254064679146,-0.1010127142071724,0.024917175993323326,-0.0005375865730457008,-0.004699357785284519,0.028485866263508797,-0.02805478125810623,0.0008203100296668708,0.021975593641400337,-0.032419200986623764,-0.06064062565565109,0.03425247222185135,-0.0027148728258907795,-0.07973287254571915,0.05120540037751198,-0.005949654150754213,-0.014641101472079754,-0.05139629915356636,0.01722368411719799,0.03987245634198189,0.013606091029942036,0.04100826382637024,-0.022412659600377083,-0.02357228472828865,-0.0588429719209671,-0.014351428486406803,-0.06229115277528763,-0.03162773326039314,-0.016903577372431755,-0.06550486385822296,0.02302364818751812,0.0063351527787745,-0.04774521663784981,-0.057727452367544174,-0.0038382948841899633,-0.07442963123321533,-0.006976400502026081,0.007016442716121674,-0.018480589613318443,-0.052637647837400436,0.05605428293347359,-0.00285067199729383,-0.08940242230892181,-0.02713824436068535,-0.000582680688239634,0.050038907676935196,0.05945802107453346,-0.015044746920466423,-0.007798119448125362
aug0_img1_bright_aug_8.png,0.03228629752993584,0.060636211186647415,0.01888231746852398,0.006493635009974241,0.019950728863477707,-0.024210413917899132,0.05145198851823807,-0.010288136079907417,0.0725598856806755,-0.028915105387568474,-0.01779375784099102,-0.02594287134706974,0.03814995661377907,0.007601670455187559,0.032363731414079666,-0.03278208523988724,-0.026573382318019867,0.011256571859121323,-0.004298095591366291,0.06550470739603043,-0.04991249367594719,0.012083380483090878,-0.016177620738744736,-0.014787135645747185,-0.0009506254573352635,0.0001820215693442151,-0.03339856490492821,-0.028226753696799278,-0.04224463924765587,-0.020956318825483322,0.052418436855077744,0.10047151148319244,-0.02255234867334366,-0.037079330533742905,0.09367690235376358,-0.017441103234887123,0.056063178926706314,0.0010621830588206649,-0.035929445177316666,-0.02102232724428177,0.04533233121037483,-0.01951560378074646,-0.0076188743114471436,-0.029820097610354424,-0.10025034099817276,-0.12129353731870651,-0.032536398619413376,0.0413009375333786,-0.018247390165925026,-0.07550910115242004,-0.03385091572999954,-0.051899705082178116,-0.02711026929318905,0.0283675380051136,0.00413826759904623,-0.015156787820160389,-0.018455326557159424,0.007963637821376324,0.029267992824316025,0.01348140835762024,0.01722886599600315,0.061749354004859924,0.02920147031545639,-0.03195120766758919,0.004348462447524071,-0.003814714029431343,0.04086881875991821,-0.06456054002046585,0.08616070449352264,0.008575488813221455,0.014997580088675022,-0.05422690510749817,-0.02706647850573063,-0.04345417767763138,0.0012944713234901428,-0.03603266552090645,0.024094516411423683,-0.042736832052469254,0.037526704370975494,0.022471915930509567,0.008164238184690475,0.004562275018543005,-0.05528870224952698,0.008637685328722,0.006858292035758495,-0.05048507824540138,0.02696211449801922,-0.0006408300250768661,-0.020877817645668983,-0.01760670728981495,0.015365788713097572,0.07048635184764862,0.05653148889541626,-0.014725862070918083,0.03026749938726425,-0.026962202042341232,-0.029778188094496727,-0.06647511571645737,-0.08014202862977982,0.04103531688451767,-0.020752910524606705,0.01671423763036728,-0.026004888117313385,-0.005743961315602064,-0.003866661572828889,0.05899811536073685,0.045792240649461746,0.037534549832344055,0.025279369205236435,0.09413662552833557,-0.01496922504156828,-0.030675722286105156,-0.05200313776731491,0.019754862412810326,-0.11436587572097778,-0.04708462953567505,0.039824023842811584,0.031193284317851067,-0.08734755218029022,0.0033978649880737066,-0.08164015412330627,-0.007423791103065014,0.003782546380534768,0.04842696338891983,-0.0736662968993187,0.031219834461808205,0.006771959364414215,-0.07805491983890533,-0.06542254239320755,0.08560976386070251,-0.03435850888490677,-0.05084715038537979,0.07988771051168442,-0.06640075147151947,0.007337732706218958,0.08407328277826309,0.020949579775333405,-0.023885684087872505,0.04105960205197334,-0.03573229908943176,0.02555168606340885,-0.056483134627342224,0.0021745068952441216,0.06355142593383789,-0.021195802837610245,0.04796915128827095,-0.062394920736551285,-0.03273765742778778,0.05302814394235611,-0.012410865165293217,0.041722144931554794,-0.02414303831756115,0.012777918018400669,0.0024427848402410746,0.009659387171268463,-0.02826453186571598,0.021872473880648613,0.027908917516469955,-0.04918530955910683,0.04138034209609032,-0.010124620981514454,0.00017586494504939765,0.03499700501561165,0.03212125226855278,-0.018610946834087372,-0.04554295912384987,-0.05105583369731903,0.02257000468671322,0.06613418459892273,-0.005412122700363398,0.02100149542093277,0.006674395874142647,-0.05363960191607475,0.048508014529943466,-0.0500323586165905,-0.04849068075418472,0.011564661748707294,0.027901409193873405,-0.009401103481650352,0.013699091039597988,-0.09233717620372772,0.07935813814401627,-0.008063836954534054,-0.06741344928741455,-0.007250398863106966,0.03101513534784317,0.03789844736456871,0.021018320694565773,-0.011203469708561897,-0.005925212521106005,0.013126661069691181,-0.006909542251378298,-0.018433043733239174,0.004484003875404596,-0.012729695998132229,0.06369426101446152,0.009866124950349331,-0.017207831144332886,0.09503306448459625,-0.0020377354230731726,0.037527747452259064,0.01906299963593483,0.003504996420815587,0.04586284980177879,0.0596238374710083,-0.014644618146121502,-0.011985193938016891,0.032245974987745285,-0.03470991551876068,0.06639531999826431,-0.067360058426857,-0.07460130006074905,-0.02945808880031109,0.03157620504498482,-0.039635077118873596,0.03944989666342735,0.06593450903892517,-0.009225170128047466,-0.02772156521677971,0.03656880185008049,0.033129915595054626,0.025141270831227303,0.0009280228987336159,0.06726434826850891,-0.0016118859639391303,0.035443659871816635,0.04413438215851784,-0.03849700093269348,-0.06206878274679184,0.01907200925052166,0.03426564484834671,-0.021640779450535774,0.006696111988276243,-0.06508712470531464,-0.03140227496623993,0.0648474171757698,-0.06825657188892365,0.09734140336513519,-0.01058261003345251,-0.07465840876102448,-0.0024185997899621725,-0.04829004406929016,0.024747442454099655,-0.006584465969353914,0.021363312378525734,-0.004879109561443329,0.08833551406860352,-0.02422056533396244,0.02445441298186779,0.04228879138827324,-0.01077217236161232,-0.06683043390512466,-0.017680255696177483,0.028352826833724976,-0.022886624559760094,-0.00757727213203907,0.012418138794600964,0.020930271595716476,-0.019313761964440346,-0.043729957193136215,0.04187202453613281,0.07267685979604721,0.07012949883937836,-0.08431456238031387,0.07902640104293823,-0.0201039407402277,-0.09748642891645432,0.08831829577684402,0.0019847885705530643,-0.003971482161432505,0.024425633251667023,-0.10630588233470917,-0.02353917807340622,0.036835189908742905,-0.029224613681435585,0.030631953850388527,-0.04181878641247749,-0.08825479447841644,0.009477272629737854,0.05304473638534546,0.007745046634227037,0.06041193753480911,-0.07528482377529144,0.03875603899359703,-0.07990745455026627,-0.07246053218841553,-0.09042111784219742,0.015713417902588844,0.03319443762302399,0.07042697817087173,-0.06916160136461258,-0.001372131984680891,0.01753213442862034,-0.021476689726114273,0.02906547486782074,-0.013466485776007175,0.04044139385223389,-0.08288796246051788,-0.07119482755661011,0.004406380001455545,-0.062285084277391434,0.0035648588091135025,0.008724333718419075,-0.028197189792990685,-0.023720670491456985,0.014378651976585388,-0.014841940253973007,-0.009584478102624416,-0.022517895326018333,-0.027978135272860527,0.025871898978948593,0.05762264505028725,0.013738381676375866,-0.006389494054019451,-0.023919539526104927,0.03275490179657936,0.030066540464758873,0.00786999985575676,-0.04445376992225647,-0.10303819179534912,-0.004466501995921135,-0.04863600432872772,0.0478799045085907,0.10151635855436325,0.002857653424143791,0.022936834022402763,-0.021692492067813873,0.05781302601099014,-0.03172016888856888,-0.009464729577302933,0.03596993535757065,0.04490400850772858,-0.002867353381589055,-0.04945654794573784,-0.010979373008012772,0.004282142035663128,0.02783266268670559,-0.017434556037187576,0.04130249470472336,-0.041588835418224335,0.006435485556721687,-0.024120384827256203,-0.09658928960561752,-0.08525784313678741,0.01595418155193329,-0.04346471652388573,0.0010275389067828655,0.03773598000407219,-0.08692844212055206,-0.012426968663930893,-0.062361862510442734,0.06204604730010033,0.019174369052052498,-0.004551439546048641,-0.01832909695804119,0.03417563438415527,0.036001816391944885,0.03937559202313423,0.13968345522880554,0.04725651815533638,-0.017977558076381683,0.14195604622364044,-0.03392838314175606,-0.04930821433663368,-0.043147627264261246,0.0726776197552681,-0.06952085345983505,0.013970693573355675,0.022064441815018654,0.054622095078229904,-0.01466106716543436,-0.03421769663691521,0.010904490947723389,0.08275869488716125,-0.03924112766981125,0.0034655763301998377,-0.0062919859774410725,0.06654280424118042,0.04882343113422394,-0.011966659687459469,0.04285092651844025,0.04404435679316521,0.034682661294937134,-0.030373716726899147,0.027462080121040344,0.024041056632995605,-0.012530418112874031,0.031881868839263916,0.03349101170897484,0.011619075201451778,0.031215213239192963,-0.07058695703744888,-0.04612942412495613,0.015278059057891369,0.015381602570414543,-0.03345933556556702,-0.05953579023480415,-0.006981249433010817,-0.06593978404998779,-0.009722393937408924,-0.011618511751294136,-0.01489427499473095,-0.05400322005152702,0.013784071430563927,-0.019744908437132835,-0.017378268763422966,0.007210316136479378,-0.0733289122581482,0.037707969546318054,0.021327218040823936,0.0011140650603920221,0.018139265477657318,0.03888778015971184,-0.054014433175325394,-0.012063435278832912,0.03715413808822632,-0.042154472321271896,-0.04874594137072563,-0.02166111022233963,0.011261471547186375,0.015267505310475826,-0.04216959327459335,-0.07420999556779861,0.08790288865566254,0.11161831021308899,0.003685091622173786,-0.0378795862197876,0.046939998865127563,-0.01510723028331995,0.050543952733278275,-0.05472707748413086,-0.06592466682195663,0.0028618951328098774,-0.07145428657531738,0.01111315842717886,0.02151269093155861,-0.046641767024993896,-0.029611622914671898,-0.03143741935491562,-0.0431218259036541,0.007554098963737488,-0.051806189119815826,0.017389550805091858,0.0351337306201458,0.008069685660302639,-0.01198564562946558,0.0012015372049063444,-0.0063392650336027145,-0.05119410529732704,0.08619865030050278,0.005357277113944292,-0.03589099645614624,-0.07062030583620071,-0.04738558828830719,-0.0036912790965288877,-0.037685491144657135,-0.07904010266065598,-0.005346890073269606,0.026513028889894485,0.004074941389262676,0.017639465630054474,0.06996714323759079,-0.02399943768978119,-0.008897598832845688,-0.10510996729135513,0.0342019721865654,0.039050620049238205,-0.03659908100962639,0.021106434985995293,-0.03137192502617836,0.013758059591054916,0.021756408736109734,-0.023475361987948418,-0.046816710382699966,0.06652098149061203,-0.0018496282864362001,-0.11168577522039413,0.049897730350494385,-0.026522116735577583,-0.005514432676136494,-0.05560719966888428,0.0060045355930924416,0.059047434478998184,0.020247815176844597,0.006019005086272955,-0.01873760111629963,-0.01746954210102558,-0.03404122591018677,-0.042237844318151474,-0.01745578646659851,0.0048266747035086155,-0.0376795195043087,-0.06570056825876236,-0.001791018876247108,-0.02805454656481743,-0.05821689963340759,-0.014463606290519238,-0.00779041787609458,-0.08561420440673828,-0.003259535413235426,0.02559545636177063,-0.033651527017354965,-0.03794214501976967,0.044491663575172424,-0.01885765790939331,-0.07739946246147156,-0.026614651083946228,-0.020613398402929306,0.03525368124246597,0.05802604928612709,-0.04617200791835785,0.00388125772587955
