image_name,dim_0,dim_1,dim_2,dim_3,dim_4,dim_5,dim_6,dim_7,dim_8,dim_9,dim_10,dim_11,dim_12,dim_13,dim_14,dim_15,dim_16,dim_17,dim_18,dim_19,dim_20,dim_21,dim_22,dim_23,dim_24,dim_25,dim_26,dim_27,dim_28,dim_29,dim_30,dim_31,dim_32,dim_33,dim_34,dim_35,dim_36,dim_37,dim_38,dim_39,dim_40,dim_41,dim_42,dim_43,dim_44,dim_45,dim_46,dim_47,dim_48,dim_49,dim_50,dim_51,dim_52,dim_53,dim_54,dim_55,dim_56,dim_57,dim_58,dim_59,dim_60,dim_61,dim_62,dim_63,dim_64,dim_65,dim_66,dim_67,dim_68,dim_69,dim_70,dim_71,dim_72,dim_73,dim_74,dim_75,dim_76,dim_77,dim_78,dim_79,dim_80,dim_81,dim_82,dim_83,dim_84,dim_85,dim_86,dim_87,dim_88,dim_89,dim_90,dim_91,dim_92,dim_93,dim_94,dim_95,dim_96,dim_97,dim_98,dim_99,dim_100,dim_101,dim_102,dim_103,dim_104,dim_105,dim_106,dim_107,dim_108,dim_109,dim_110,dim_111,dim_112,dim_113,dim_114,dim_115,dim_116,dim_117,dim_118,dim_119,dim_120,dim_121,dim_122,dim_123,dim_124,dim_125,dim_126,dim_127,dim_128,dim_129,dim_130,dim_131,dim_132,dim_133,dim_134,dim_135,dim_136,dim_137,dim_138,dim_139,dim_140,dim_141,dim_142,dim_143,dim_144,dim_145,dim_146,dim_147,dim_148,dim_149,dim_150,dim_151,dim_152,dim_153,dim_154,dim_155,dim_156,dim_157,dim_158,dim_159,dim_160,dim_161,dim_162,dim_163,dim_164,dim_165,dim_166,dim_167,dim_168,dim_169,dim_170,dim_171,dim_172,dim_173,dim_174,dim_175,dim_176,dim_177,dim_178,dim_179,dim_180,dim_181,dim_182,dim_183,dim_184,dim_185,dim_186,dim_187,dim_188,dim_189,dim_190,dim_191,dim_192,dim_193,dim_194,dim_195,dim_196,dim_197,dim_198,dim_199,dim_200,dim_201,dim_202,dim_203,dim_204,dim_205,dim_206,dim_207,dim_208,dim_209,dim_210,dim_211,dim_212,dim_213,dim_214,dim_215,dim_216,dim_217,dim_218,dim_219,dim_220,dim_221,dim_222,dim_223,dim_224,dim_225,dim_226,dim_227,dim_228,dim_229,dim_230,dim_231,dim_232,dim_233,dim_234,dim_235,dim_236,dim_237,dim_238,dim_239,dim_240,dim_241,dim_242,dim_243,dim_244,dim_245,dim_246,dim_247,dim_248,dim_249,dim_250,dim_251,dim_252,dim_253,dim_254,dim_255,dim_256,dim_257,dim_258,dim_259,dim_260,dim_261,dim_262,dim_263,dim_264,dim_265,dim_266,dim_267,dim_268,dim_269,dim_270,dim_271,dim_272,dim_273,dim_274,dim_275,dim_276,dim_277,dim_278,dim_279,dim_280,dim_281,dim_282,dim_283,dim_284,dim_285,dim_286,dim_287,dim_288,dim_289,dim_290,dim_291,dim_292,dim_293,dim_294,dim_295,dim_296,dim_297,dim_298,dim_299,dim_300,dim_301,dim_302,dim_303,dim_304,dim_305,dim_306,dim_307,dim_308,dim_309,dim_310,dim_311,dim_312,dim_313,dim_314,dim_315,dim_316,dim_317,dim_318,dim_319,dim_320,dim_321,dim_322,dim_323,dim_324,dim_325,dim_326,dim_327,dim_328,dim_329,dim_330,dim_331,dim_332,dim_333,dim_334,dim_335,dim_336,dim_337,dim_338,dim_339,dim_340,dim_341,dim_342,dim_343,dim_344,dim_345,dim_346,dim_347,dim_348,dim_349,dim_350,dim_351,dim_352,dim_353,dim_354,dim_355,dim_356,dim_357,dim_358,dim_359,dim_360,dim_361,dim_362,dim_363,dim_364,dim_365,dim_366,dim_367,dim_368,dim_369,dim_370,dim_371,dim_372,dim_373,dim_374,dim_375,dim_376,dim_377,dim_378,dim_379,dim_380,dim_381,dim_382,dim_383,dim_384,dim_385,dim_386,dim_387,dim_388,dim_389,dim_390,dim_391,dim_392,dim_393,dim_394,dim_395,dim_396,dim_397,dim_398,dim_399,dim_400,dim_401,dim_402,dim_403,dim_404,dim_405,dim_406,dim_407,dim_408,dim_409,dim_410,dim_411,dim_412,dim_413,dim_414,dim_415,dim_416,dim_417,dim_418,dim_419,dim_420,dim_421,dim_422,dim_423,dim_424,dim_425,dim_426,dim_427,dim_428,dim_429,dim_430,dim_431,dim_432,dim_433,dim_434,dim_435,dim_436,dim_437,dim_438,dim_439,dim_440,dim_441,dim_442,dim_443,dim_444,dim_445,dim_446,dim_447,dim_448,dim_449,dim_450,dim_451,dim_452,dim_453,dim_454,dim_455,dim_456,dim_457,dim_458,dim_459,dim_460,dim_461,dim_462,dim_463,dim_464,dim_465,dim_466,dim_467,dim_468,dim_469,dim_470,dim_471,dim_472,dim_473,dim_474,dim_475,dim_476,dim_477,dim_478,dim_479,dim_480,dim_481,dim_482,dim_483,dim_484,dim_485,dim_486,dim_487,dim_488,dim_489,dim_490,dim_491,dim_492,dim_493,dim_494,dim_495,dim_496,dim_497,dim_498,dim_499,dim_500,dim_501,dim_502,dim_503,dim_504,dim_505,dim_506,dim_507,dim_508,dim_509,dim_510,dim_511
img1.png,0.0030476266983896494,0.05900105834007263,-0.010387945920228958,0.01119202096015215,0.03273487836122513,-0.03364415839314461,0.05745194852352142,0.0052650864236056805,0.09475795179605484,-0.01635701395571232,-0.018675049766898155,0.010939954780042171,0.00740255881100893,0.014055436477065086,0.0380454882979393,-0.0362652912735939,-0.018389025703072548,0.02174985595047474,-0.02290550246834755,0.05708034336566925,-0.05305605009198189,-0.002141063567250967,-0.005360971670597792,0.00028483159258030355,-0.009139269590377808,-0.004699734505265951,-0.031142262741923332,-0.01977192796766758,-0.048376359045505524,-0.014014733023941517,0.05084564536809921,0.0807618573307991,-0.020079482346773148,-0.030565092340111732,0.09723245352506638,-0.010667175985872746,0.041206806898117065,-0.006911309435963631,-0.04506029561161995,0.00990332942456007,0.043639056384563446,-0.03840191289782524,-0.04195022210478783,-0.026703927665948868,-0.09050998836755753,-0.11257455497980118,-0.012753695249557495,0.04803936183452606,0.0025629925075918436,-0.06772216409444809,-0.03158323094248772,-0.032647162675857544,-0.016640976071357727,0.013537619262933731,-0.015707572922110558,0.004238482099026442,-0.05052780359983444,0.014482410624623299,0.0175236314535141,0.01174664031714201,-0.0234625693410635,0.0691620483994484,0.015881702303886414,-0.023056572303175926,0.004396820440888405,-0.009303983300924301,0.011412641033530235,-0.0477885827422142,0.08415544033050537,-0.015293583273887634,0.015314833261072636,-0.04314504563808441,-0.03943949192762375,-0.05670519545674324,0.010120919905602932,-0.03682330623269081,0.01677485555410385,-0.062842458486557,0.03252451866865158,0.03724001720547676,-0.013050321489572525,-0.001960767898708582,-0.037495821714401245,0.017711104825139046,0.0011625626357272267,-0.04877415671944618,0.0307233277708292,0.005835649557411671,-0.009263558313250542,-0.015412678942084312,0.009760769084095955,0.09030238538980484,0.06382181495428085,-0.030942942947149277,0.04588815197348595,-0.019571594893932343,-0.041022591292858124,-0.055661942809820175,-0.07938764989376068,0.03479523956775665,-0.005708636250346899,0.042132314294576645,-0.009205924347043037,0.004687498323619366,0.017573177814483643,0.06542524695396423,0.029389183968305588,0.048100102692842484,0.04174809530377388,0.06962547451257706,0.007160750683397055,-0.024357983842492104,-0.06656419485807419,0.02813722938299179,-0.1059991717338562,-0.052979595959186554,0.04939766600728035,0.03595826029777527,-0.11217901855707169,-0.010706084780395031,-0.07337825745344162,-0.0008294869330711663,0.010062524117529392,0.051290228962898254,-0.07265997678041458,0.017085280269384384,-0.019929565489292145,-0.06907592713832855,-0.07393024116754532,0.05145914480090141,-0.05243193358182907,-0.039270322769880295,0.10521821677684784,-0.10006634145975113,0.020753640681505203,0.07135654240846634,0.0043705222196877,-0.028950875625014305,0.03869643062353134,-0.0038738325238227844,0.027607040479779243,-0.03270632028579712,-0.011573162861168385,0.08004120737314224,-0.0006187680992297828,0.04815728962421417,-0.09694495797157288,-0.00823817029595375,0.05983969569206238,-0.008504356257617474,0.034728359431028366,-0.013448668643832207,0.03392767906188965,0.013987027108669281,0.0014239602023735642,-0.030083218589425087,0.05027678236365318,0.03601141646504402,-0.05393145978450775,0.021876223385334015,0.008789674378931522,0.021796206012368202,0.01831851527094841,0.044755496084690094,-0.0023865802213549614,-0.03886610269546509,-0.04141451418399811,0.02926928550004959,0.050209641456604004,0.006626154761761427,0.008080532774329185,0.010279043577611446,-0.06837833672761917,0.039591532200574875,-0.059582460671663284,-0.03914535418152809,-0.01082520466297865,0.004542370792478323,-0.017139572650194168,0.008799780160188675,-0.09919329732656479,0.07098650932312012,-0.012272966094315052,-0.03305872902274132,-0.009111463092267513,0.021712500602006912,0.01931912638247013,0.01694115437567234,-0.030580105260014534,-0.003077690489590168,0.022591570392251015,-0.01833224482834339,-0.0069137499667704105,-0.0090157026425004,-0.013213780708611012,0.039486128836870193,0.023930082097649574,-0.016396265476942062,0.092315673828125,0.004370360169559717,0.025970764458179474,0.00920729711651802,0.002893164288252592,0.02492334507405758,0.08344843983650208,-0.017880819737911224,-0.0028180531226098537,0.015914522111415863,-0.029589960351586342,0.07352201640605927,-0.07571084797382355,-0.07338111847639084,-0.042527832090854645,0.00637643039226532,-0.04256702959537506,0.029587090015411377,0.03128879889845848,0.017047546803951263,-0.020511114969849586,0.014000211842358112,0.0204924363642931,0.03073752485215664,0.010037901811301708,0.04314741492271423,0.016386283561587334,0.04378025233745575,0.05060473829507828,-0.02263810485601425,-0.06823259592056274,0.047268230468034744,0.01754537783563137,-0.04129280522465706,-0.0025384037289768457,-0.0669451653957367,-0.011466442607343197,0.06906569004058838,-0.06657472997903824,0.09579716622829437,-0.02677145227789879,-0.06890442222356796,-0.016293654218316078,-0.05122356116771698,0.05741789564490318,-0.010641510598361492,0.04135412350296974,0.010750801302492619,0.08540905267000198,0.0017796915490180254,0.035037215799093246,0.0316174142062664,-0.0015674206661060452,-0.04672825336456299,0.006523113697767258,0.049270711839199066,-0.01223974023014307,-0.014155726879835129,0.03379182517528534,0.03523669019341469,-0.012069540098309517,-0.02417343482375145,0.06864283233880997,0.07244884222745895,0.06820395588874817,-0.07487999647855759,0.07804974913597107,-0.03491208329796791,-0.09031958878040314,0.08774007111787796,-0.0049405330792069435,-0.0004110705340281129,-0.022786246612668037,-0.1296379268169403,-0.03542545437812805,0.050130750983953476,-0.016840174794197083,0.003446105169132352,-0.06330699473619461,-0.08500105887651443,-0.011515544727444649,0.040239118039608,-0.00894847046583891,0.05653228610754013,-0.07249955832958221,0.04065888002514839,-0.09815184772014618,-0.06500179320573807,-0.07863499969244003,0.0312032513320446,0.015050830319523811,0.05047738924622536,-0.06769813597202301,-0.002561821136623621,0.04764961823821068,-0.058553699404001236,0.011107571423053741,-0.017862021923065186,0.05532008782029152,-0.0918997973203659,-0.05148268863558769,0.01785133220255375,-0.05647639185190201,0.005818670149892569,-0.0004160042735747993,-0.025957999750971794,-0.013621684163808823,-0.014323730021715164,-0.011353756301105022,-0.02956286445260048,-0.016346244141459465,-0.036430370062589645,0.027880745008587837,0.053087346255779266,0.008205220103263855,-0.02767067402601242,2.5612409444875084e-05,0.03745875507593155,0.035348713397979736,0.03206067904829979,-0.02755090966820717,-0.12090475857257843,-0.006070158910006285,-0.04271857813000679,0.047204457223415375,0.10527205467224121,0.011536465026438236,0.01760479435324669,-0.002661972539499402,0.0661153718829155,-0.00663581769913435,0.025844069197773933,0.03357495740056038,0.057171646505594254,-0.011938217096030712,-0.01658974587917328,-0.01911318302154541,-0.0005062301061116159,0.027379002422094345,0.00950650591403246,0.03489811718463898,-0.03613753244280815,0.02328820340335369,-0.04678095877170563,-0.07403059303760529,-0.07521548122167587,0.02920582890510559,-0.0434362068772316,0.012256939895451069,0.06971755623817444,-0.07960471510887146,-0.016185160726308823,-0.05120201036334038,0.05622929334640503,0.0040711695328354836,-0.02757429890334606,0.010276596993207932,0.044131744652986526,0.03701984882354736,0.04017016291618347,0.13004229962825775,0.02210678718984127,-0.02575436793267727,0.14888468384742737,-0.04401325434446335,-0.057717084884643555,-0.03496740013360977,0.055936362594366074,-0.05896541103720665,0.0318714939057827,0.030526630580425262,0.03729845955967903,-0.023037979379296303,-0.035041552037000656,0.0489843524992466,0.07666164636611938,-0.03402871638536453,0.010176507756114006,-0.0007163643604144454,0.080196812748909,0.024140024557709694,-0.017191482707858086,0.011536214500665665,0.050443053245544434,0.01805116981267929,-0.018729688599705696,0.02446669153869152,0.01792103424668312,-0.012801826931536198,0.024427857249975204,0.025513077154755592,0.008791651576757431,0.007330257911235094,-0.0427871011197567,-0.050761669874191284,-0.001183870481327176,0.018870776519179344,-0.048437122255563736,-0.056672096252441406,-0.02323152683675289,-0.05207710713148117,0.007696626707911491,-0.002058460609987378,-0.025862185284495354,-0.048514313995838165,0.01217803917825222,-0.041124776005744934,-0.005291313398629427,0.034153055399656296,-0.0763612687587738,0.026687810197472572,0.009957537986338139,-0.02033022977411747,0.017914246767759323,0.03473886474967003,-0.04542284086346626,-0.04241255298256874,0.04668405279517174,-0.030292578041553497,-0.0539451502263546,-0.04082655534148216,-0.012366621755063534,0.06454379856586456,-0.027602342888712883,-0.08136027306318283,0.10462244600057602,0.10369586199522018,-0.006389062851667404,-0.03557422384619713,0.04510534554719925,-0.017637182027101517,0.016327165067195892,-0.061202146112918854,-0.06846898049116135,0.022574909031391144,-0.06284510344266891,-0.01401811745017767,-0.016985422000288963,-0.052688971161842346,-0.02002999372780323,-0.05164637789130211,-0.04651492089033127,-0.016669955104589462,-0.03730416297912598,0.026858285069465637,0.04638238623738289,-0.004529148805886507,0.009837955236434937,0.00829545222222805,-0.03250107169151306,-0.04593724384903908,0.08393903076648712,0.010307451710104942,-0.014876841567456722,-0.03389306738972664,-0.023931298404932022,-0.018589431419968605,-0.033017758280038834,-0.08335337042808533,0.026515575125813484,0.05287754908204079,-0.004431088920682669,0.02703445591032505,0.06632012873888016,-0.036261413246393204,-0.04687811806797981,-0.08749137073755264,0.03650195524096489,0.013964695855975151,-0.042221616953611374,0.03590136766433716,-0.038988180458545685,-0.009081391617655754,0.027776289731264114,-0.018661675974726677,-0.052131056785583496,0.06323450803756714,0.032738469541072845,-0.10448822379112244,0.04874278977513313,0.0067708129063248634,-0.01592693291604519,-0.02954559400677681,0.018621370196342468,0.03004123456776142,0.014162102714180946,0.03145984932780266,-0.013530188240110874,-0.03385404497385025,-0.059473685920238495,-0.022713618353009224,-0.051427729427814484,-0.007416468113660812,-0.030579477548599243,-0.07722687721252441,0.008122380822896957,0.008146568201482296,-0.05111229792237282,-0.03634466230869293,-0.007607065141201019,-0.08150602877140045,0.0016315890243276954,0.0003539423050824553,-0.027835093438625336,-0.028122978284955025,0.04189852625131607,0.0004277865227777511,-0.07284310460090637,-0.03153027594089508,0.00696922279894352,0.05475856736302376,0.04203410446643829,-0.03124355338513851,-0.00485131423920393
img2.png,-0.021367428824305534,0.05003208667039871,-0.035101260989904404,-0.07189280539751053,-0.029656337574124336,-0.004033773206174374,0.03576993569731712,-0.09887512028217316,0.008994156494736671,-0.0009809598559513688,0.09811414778232574,-0.04250563681125641,0.05149593949317932,-0.02864224836230278,-0.03254560008645058,0.0027301725931465626,-0.014245440252125263,-0.009284120984375477,0.050545744597911835,0.0003836216637864709,0.0008289195830002427,-0.05290208384394646,0.004240903537720442,-0.023221973329782486,0.011986687779426575,-0.03391946852207184,-0.07558803260326385,-0.10268548130989075,-0.07041094452142715,-0.018650807440280914,-0.022614484652876854,1.997603612835519e-05,-0.023307589814066887,0.061136744916439056,0.019798194989562035,0.03492721542716026,0.08501507341861725,-0.006717480253428221,0.05480748042464256,0.05656517669558525,-0.04915266111493111,-0.035224080085754395,-0.00483417883515358,0.010594228282570839,-0.060198020190000534,0.055339548736810684,-0.04715151712298393,0.015961773693561554,0.01747158356010914,-0.0028215141501277685,-0.0040517100133001804,-0.06198625639081001,-0.14876282215118408,-0.011045441962778568,0.04539542645215988,-0.03189248591661453,0.020425723865628242,-0.0588795430958271,-0.02103683538734913,-0.010031865909695625,-0.005323073826730251,0.07503166794776917,-0.04176783561706543,0.005238265730440617,-0.004217642825096846,-0.06193967163562775,0.013247539289295673,-0.055696677416563034,-0.04935619607567787,-0.00021103174367453903,-0.002241213573142886,-0.02404632978141308,-0.024798229336738586,0.01636207103729248,-0.0001635392545722425,-0.08677761256694794,-0.037203896790742874,0.03972799703478813,0.0446462519466877,-0.03894069418311119,-0.06392814964056015,0.002100431127473712,-0.04353265091776848,-0.03385460004210472,0.003877806244418025,0.04943664371967316,-0.0001925636170199141,-0.004290578421205282,-0.04622809588909149,-0.03144146502017975,-0.01169227808713913,-0.04180549085140228,-0.06531454622745514,-0.02678769826889038,0.04638184607028961,-0.00695845065638423,0.0419875830411911,0.014895579777657986,0.0274189580231905,0.06076844781637192,-0.018844380974769592,0.020823221653699875,-0.018167780712246895,-0.01361404825001955,-0.05778682231903076,-0.08527053147554398,-0.05010342597961426,0.0005271037807688117,-0.06328555941581726,-0.03558855131268501,0.0291903018951416,-0.03500755503773689,0.07318784296512604,-0.0017216568812727928,-0.012517324648797512,0.027766600251197815,0.07193470001220703,0.02067418023943901,-0.005749776493757963,0.016964448615908623,-0.037245966494083405,0.008683376014232635,0.007529763970524073,0.06938159465789795,0.04123067110776901,-0.012110555544495583,-0.017461927607655525,0.036539655178785324,-0.03127831220626831,0.01984095759689808,-0.022124649956822395,-0.00020655115076806396,-0.024338116869330406,-0.0020166535396128893,0.048804838210344315,0.008680419065058231,-0.01032785139977932,0.0058130063116550446,0.001293860375881195,0.04365954175591469,0.022063840180635452,-0.03276494890451431,0.003948383033275604,-0.017805861309170723,-0.03202519938349724,-0.027899563312530518,-0.022353986278176308,0.08145544677972794,0.025396613404154778,0.010961408726871014,0.04685281589627266,0.009543420746922493,0.011607703752815723,-0.012028655037283897,0.06428000330924988,0.013747568242251873,0.052799101918935776,0.04964623227715492,0.027815403416752815,0.004365207627415657,-0.02717585302889347,0.01957639679312706,-0.027838580310344696,0.023598497733473778,-0.025322625413537025,0.007390141021460295,0.04738805815577507,-0.0007039881311357021,-0.023440005257725716,0.00815584696829319,-0.021505223587155342,0.05148264765739441,0.05542230233550072,-0.016435818746685982,-0.004463090095669031,-0.018904563039541245,0.0006865806062705815,0.007231989875435829,0.006914678029716015,0.0026119821704924107,0.06198226660490036,-0.05089716985821724,0.03406105563044548,0.07491184771060944,-0.05718257650732994,0.0854334756731987,0.041688222438097,0.06962914764881134,-0.008002221584320068,0.03701731190085411,-0.03586115688085556,0.01934012398123741,0.049834463745355606,-0.0051629384979605675,-0.03798069432377815,-0.05229078605771065,0.008817187510430813,0.04740472137928009,0.018756359815597534,-0.03940192237496376,-0.03445464372634888,-0.06699385493993759,0.0336780920624733,0.025127453729510307,0.06315617263317108,0.059275154024362564,-0.05585092678666115,0.013804563321173191,0.03223695978522301,-0.019375460222363472,-0.018146730959415436,-0.044666945934295654,0.011631639674305916,-0.05427924916148186,0.0030051551293581724,-0.06185007840394974,0.052536725997924805,-0.08479151129722595,0.055240534245967865,0.015937350690364838,0.05338317155838013,-0.02550993114709854,0.06084633991122246,-0.03601223975419998,0.03581426292657852,0.014757025986909866,0.004968925844877958,0.001502077211625874,-0.05999027192592621,0.017444152384996414,-0.01637309044599533,0.15102340281009674,-0.10448946803808212,0.059608519077301025,0.05564602464437485,-0.020826494321227074,-0.0013750179205089808,-0.07113149762153625,0.06422798335552216,-0.014509920962154865,0.0033262125216424465,0.059245724231004715,-0.0284088347107172,0.01809760183095932,-0.07002194970846176,-0.04431958124041557,-0.021354662254452705,0.043594859540462494,0.010547344572842121,0.02717147395014763,-0.035251930356025696,-0.02091160975396633,0.031094370409846306,-0.057502277195453644,0.009141579270362854,-0.026683930307626724,-0.024478700011968613,-0.05484400689601898,-0.02211511880159378,0.027705950662493706,-0.0514625646173954,0.02334585413336754,0.0026417223270982504,0.039964932948350906,-0.0488041490316391,0.01833946257829666,0.025387482717633247,-0.036350321024656296,-0.0017053232295438647,-0.09318353980779648,0.014914406463503838,0.03491766005754471,-0.028047258034348488,0.025716910138726234,-0.05596267431974411,0.03064124658703804,0.03842652216553688,-0.009703702293336391,0.047649502754211426,-0.033097539097070694,-0.022903259843587875,0.053312987089157104,0.0391693115234375,0.03228532150387764,0.04802122712135315,-0.05124686285853386,0.01863381639122963,-0.06361156702041626,-0.015313288196921349,0.054509345442056656,0.02615024894475937,0.0035864543169736862,0.00481276074424386,0.04521908983588219,0.046128906309604645,-0.010267273522913456,-0.03652745112776756,0.040494367480278015,0.05225817486643791,-0.04474199563264847,-0.05687466263771057,0.05151323974132538,-0.07971742749214172,-0.006234043277800083,-0.021148186177015305,0.025737743824720383,-0.012012623250484467,-0.0016968670533969998,0.061272285878658295,0.011770559474825859,-0.03624039888381958,-0.04544077813625336,0.06482801586389542,-0.11866331845521927,0.030317701399326324,-0.05319201573729515,0.002976086223497987,-0.046782027930021286,-0.00516166165471077,0.02431427501142025,-0.013127574697136879,0.09473670274019241,-0.06298188865184784,-0.03133592754602432,-0.023473016917705536,0.06828128546476364,-0.012992526404559612,0.025972284376621246,-0.0069960481487214565,0.025725724175572395,-0.0630091205239296,0.0030748629942536354,-0.05269026756286621,0.03458315506577492,-0.01893167570233345,-0.03682348132133484,-0.006423795595765114,-0.010899201035499573,-0.006615574471652508,0.07699497044086456,0.004642440937459469,-0.05126518756151199,0.011017131619155407,-0.015482194721698761,-0.03182096779346466,0.06916700303554535,0.004447707906365395,-0.07736293971538544,0.006890484597533941,-0.0005438394146040082,-0.04694646969437599,0.03986338526010513,0.028947552666068077,0.017099514603614807,0.033083055168390274,-0.07691348344087601,0.05426924303174019,-0.019574133679270744,-0.040699999779462814,-0.09368973970413208,0.0592002235352993,-0.03140512481331825,-0.047876860946416855,-0.09204764664173126,0.024356290698051453,-0.02616911195218563,0.02667682059109211,0.00892418622970581,-0.14279389381408691,-0.027674654498696327,-0.03611116483807564,-0.02489844150841236,-0.04013222083449364,0.02961147390305996,-0.005024275276809931,-0.036346957087516785,0.03680318221449852,-0.011017967015504837,-0.060084257274866104,0.02369048073887825,0.028453316539525986,-0.07000064849853516,-0.016926774755120277,0.04080461338162422,0.03342282772064209,-0.07511649280786514,-0.05921689420938492,0.029549364000558853,-0.004867149516940117,0.09267908334732056,0.014751444570720196,0.06943652778863907,0.05162462219595909,0.09515706449747086,-0.04336145520210266,0.001788176828995347,-0.013950858265161514,-0.005948647391051054,-0.046914808452129364,-0.0018475140677765012,-0.0034006715286523104,-0.04488851875066757,-0.00743222888559103,0.04931478947401047,0.07946848124265671,0.03237249702215195,-0.02038707211613655,0.058492887765169144,0.02075779065489769,-0.04359943047165871,-0.0677454024553299,-0.012381787411868572,-0.02162466011941433,0.0207894966006279,-0.042505424469709396,0.0211323294788599,0.0538271963596344,0.03946160152554512,-0.01039073709398508,0.009287185966968536,-0.046020522713661194,-0.06930115073919296,-0.09188355505466461,-0.012847818434238434,0.0026475265622138977,0.10237368196249008,0.10125093907117844,-0.06835103780031204,0.025710079818964005,0.10849738866090775,0.02572266384959221,0.031069954857230186,0.0347718819975853,0.003581420984119177,0.08163250237703323,0.06245231628417969,-0.026191361248493195,-0.06677713990211487,-0.07149797677993774,0.030444862321019173,0.04039203003048897,0.07853330671787262,0.07210598140954971,0.07868234068155289,0.08771330118179321,-0.026506973430514336,0.02892947569489479,0.007744765840470791,0.028835510835051537,-0.03986572101712227,-0.04495593160390854,0.009815712459385395,0.032545074820518494,-0.05451381951570511,-0.05606014281511307,0.017598945647478104,0.004280527587980032,0.049697041511535645,0.03717651963233948,-0.02525443024933338,0.010799780488014221,0.08335167914628983,0.042918846011161804,-0.0027005383744835854,-0.08154342323541641,-0.018650637939572334,-0.01467837393283844,0.08611257374286652,0.012562739662826061,0.0325297974050045,0.054742615669965744,-0.013112452812492847,-0.02730689011514187,0.041990552097558975,0.007605361752212048,-0.057423681020736694,0.0006894910475239158,-0.005228409543633461,-0.03485837206244469,0.01100554782897234,-0.034247320145368576,-0.03137646242976189,0.042012713849544525,0.044061969965696335,-0.006644113454967737,0.06606058031320572,0.030822530388832092,0.07335451990365982,0.014745607040822506,-0.015506717376410961,0.03570976480841637,-0.03598162904381752,0.004868811462074518,0.053183067589998245,0.023766059428453445,0.06070739030838013,0.01120182778686285,0.04014366865158081,0.05583297461271286,-0.062235262244939804,0.036546796560287476,-0.03412739560008049,0.08280172944068909,-0.007510577328503132,9.997633605962619e-05,0.07560434937477112,-0.017857709899544716,0.035677939653396606,-0.020261842757463455,-0.05236270651221275,-0.025699801743030548,0.11561248451471329
img3.png,0.051944829523563385,-0.03636377304792404,0.0220902431756258,0.0026538714300841093,-0.06394878029823303,-0.009282630868256092,0.03028397634625435,-0.07234682142734528,0.020425476133823395,0.014007282443344593,0.0373096689581871,0.011549275368452072,0.0777837336063385,0.09768793731927872,-0.03953884541988373,-0.03116101771593094,-0.032545313239097595,-0.016519680619239807,0.03326196223497391,0.05745831876993179,0.01934804581105709,-0.018597114831209183,-0.003856974421069026,-0.05608749762177467,-0.014495981857180595,-0.01182062178850174,-0.04402537643909454,-0.04515604302287102,-0.044533710926771164,-0.13507294654846191,-0.025340156629681587,0.061643585562705994,-0.0029248278588056564,-0.007544479798525572,-0.057638004422187805,-0.02722069062292576,-0.02613591030240059,0.06248321384191513,-0.013509453274309635,-0.02250489965081215,-0.08842988312244415,0.00847052875906229,-0.022193986922502518,-0.026407582685351372,-0.06544233858585358,0.04265923798084259,0.044110290706157684,0.05747473984956741,-0.03224201127886772,-0.002318922197446227,0.05458448827266693,-0.03997618705034256,-0.0937105193734169,-0.03498917073011398,0.026636211201548576,-0.006615218240767717,0.014173495583236217,0.001901202485896647,-0.0003411149373278022,0.02455912157893181,-0.07031566649675369,0.03618156909942627,-0.006114826537668705,-0.0019715651869773865,-0.02524910867214203,0.018452707678079605,0.024988684803247452,-0.06057039275765419,0.005946596618741751,-0.043521150946617126,0.01085896510630846,-0.015028515830636024,0.03793852776288986,0.06386180222034454,-0.021494470536708832,-0.03224104270339012,0.0626131072640419,-0.004390633665025234,-0.015220215544104576,-0.031711187213659286,-0.01840740442276001,0.033236488699913025,0.03452523425221443,-0.03072229027748108,-0.014309090562164783,0.022570306435227394,0.08961868286132812,-0.09935233741998672,-0.11199688911437988,0.012385996989905834,-0.06076625734567642,0.02852632850408554,0.015319227240979671,0.017784439027309418,-0.00788930058479309,0.025241216644644737,-0.016059936955571175,-0.06419506669044495,-0.006540737580507994,0.03972168639302254,0.03661971539258957,0.024634357541799545,0.034171488136053085,-0.05065366253256798,-0.012401178479194641,-0.029705841094255447,-0.0411386713385582,-0.0030840954277664423,-0.10805951058864594,-0.05113840103149414,0.01724904403090477,-0.05253615602850914,0.01160404272377491,0.043506283313035965,-0.04269513860344887,0.023877838626503944,0.11120117455720901,0.02314673736691475,0.011259953491389751,0.01631564274430275,-0.03181104362010956,0.03284561261534691,0.014494908042252064,-0.019791319966316223,-0.024049527943134308,-0.07009375095367432,0.015084766782820225,0.0026631567161530256,0.005746796261519194,-0.007473840843886137,-0.0010615719947963953,0.011011741124093533,-0.0704941675066948,0.02321341261267662,-0.04869074374437332,0.0321352444589138,-0.023955192416906357,0.019184961915016174,0.05668015405535698,0.0017250473611056805,0.07393842935562134,0.034180898219347,0.05069335177540779,-0.05419017747044563,0.026452545076608658,0.0631960779428482,-0.02680305950343609,0.020346518605947495,-0.00608678488060832,0.03272589296102524,0.053025562316179276,-0.016174370422959328,-0.07438241690397263,0.017786256968975067,0.04096578061580658,-0.007008010055869818,0.04290216788649559,0.06289456784725189,-0.06817308068275452,-0.02013930305838585,-0.02133065275847912,0.026555078104138374,0.005216095596551895,-0.015807339921593666,0.04198255017399788,-0.02465863712131977,0.028897324576973915,-0.03878465294837952,-0.08450957387685776,0.022175991907715797,0.0043730176985263824,0.06980469822883606,0.046741850674152374,-0.08786904066801071,0.02827269397675991,-0.09101734310388565,-0.0024132297839969397,0.009996824897825718,-0.026995006948709488,0.09866782277822495,0.07486841082572937,0.016582230105996132,-0.016819745302200317,-0.04676653817296028,-0.05368795245885849,0.0567769892513752,0.0034421945456415415,-0.011720134876668453,-0.017402587458491325,1.785588938219007e-05,-0.006008170545101166,0.06979250907897949,0.0555596761405468,0.026507070288062096,0.014728507958352566,0.10728125274181366,-0.0365113727748394,0.05492628738284111,-0.010850142687559128,-0.04799245670437813,0.024538660421967506,0.03226550295948982,-0.02099762111902237,0.05775956064462662,0.033299945294857025,-0.005608550738543272,-0.05459166318178177,0.03532702103257179,0.031168773770332336,-0.005195197183638811,0.0603015199303627,-0.04439515620470047,-0.020634304732084274,0.03148888796567917,0.004229146055877209,-0.024126306176185608,0.03336258605122566,-0.05908038839697838,-0.004542288836091757,0.05112302675843239,0.0909775123000145,0.02652563899755478,0.07743114978075027,-0.04503264278173447,-0.011020741425454617,0.06072872132062912,-0.0378086231648922,0.039785463362932205,-0.023877203464508057,0.027801046147942543,0.0319100059568882,0.07198139280080795,-0.10494033247232437,-0.03707750514149666,-0.04902340844273567,0.03667130321264267,-0.06093249469995499,-0.08077967166900635,0.09835346788167953,-0.02955675683915615,0.031188737601041794,0.016205616295337677,-0.034739021211862564,0.014596623368561268,-0.05826225504279137,0.008170478977262974,-0.05340692773461342,0.007952694781124592,0.007138048764318228,0.054321661591529846,-0.08881638199090958,-0.016704214736819267,0.006713523529469967,0.007976513355970383,0.01274668239057064,0.027393443509936333,-0.0880100354552269,-0.04759032279253006,-0.07554204761981964,0.030151929706335068,-0.07518579810857773,0.06227606534957886,0.03081945888698101,0.015555435791611671,-0.0794544443488121,-0.003709153737872839,0.031073441728949547,-0.09088913351297379,0.08392205834388733,0.03144152835011482,0.004295028280466795,0.03783318027853966,-0.002620940562337637,0.004772787448018789,-0.018378742039203644,0.02856556326150894,-0.0010628326563164592,-0.06402355432510376,0.017361942678689957,0.03768834099173546,-0.008033035323023796,0.03813232108950615,-0.11324671655893326,-0.06810514628887177,0.009700106456875801,0.022663606330752373,-0.020763155072927475,-0.06212345510721207,-0.06559162586927414,0.010481896810233593,0.039453230798244476,0.0252180565148592,0.05148414522409439,0.010416905395686626,0.022067686542868614,-0.050708577036857605,-0.05986926332116127,0.00017213690443895757,0.022706253454089165,-0.05891541764140129,-0.031112052500247955,0.014849036931991577,0.025965381413698196,-0.025798257440328598,-0.019858863204717636,-0.005155756138265133,-0.08823654800653458,0.028925202786922455,0.021043069660663605,-0.015393482521176338,-0.06091941520571709,0.004375284072011709,-0.008884992450475693,-0.042944639921188354,-0.0108067337423563,-0.026454228907823563,-0.004290427081286907,-0.054826680570840836,0.010121596977114677,0.08911151438951492,0.017268987372517586,0.0946449562907219,-0.032341718673706055,-0.0585058331489563,0.054134003818035126,0.03662045672535896,-0.06335446238517761,0.00394792202860117,-0.035066261887550354,-0.046628668904304504,-0.060413658618927,0.031574174761772156,0.004197477363049984,0.007381937466561794,0.004008508753031492,-0.043843284249305725,0.040966689586639404,-0.07577487826347351,-0.05940023437142372,0.026667216792702675,0.005545937921851873,0.025517811998724937,0.012897481210529804,-0.09186002612113953,0.03582582622766495,0.04342024773359299,-0.04369933158159256,0.03206956014037132,0.01449821051210165,0.005584213882684708,-0.008227559737861156,-0.026062602177262306,0.0024879472330212593,0.017618034034967422,-0.05017684027552605,-0.055723197758197784,0.033691927790641785,-0.012438951060175896,-0.07060381770133972,0.08455367386341095,0.08937045186758041,0.03241787105798721,0.00121850345749408,-0.008883827365934849,-0.04036761820316315,-0.024854879826307297,0.014484798535704613,-0.01483043935149908,-0.0683058574795723,-0.087615005671978,-0.038063906133174896,0.04274396970868111,-0.01613188162446022,0.08426922559738159,-0.04180886223912239,-0.0029247424099594355,-0.0903453528881073,0.03341437131166458,-0.06231779605150223,0.009425566531717777,-0.06553865224123001,-0.01213199645280838,-0.033237334340810776,0.022393731400370598,0.014139514416456223,-0.08662014454603195,-0.04656889662146568,0.0034149426501244307,-0.0815649926662445,-0.018848123028874397,0.04069715365767479,-0.00954513717442751,0.043911442160606384,0.010331492871046066,-0.001598309027031064,0.046241194009780884,-0.004396094940602779,-0.020607566460967064,0.04147280380129814,-0.02079652063548565,-0.04966079071164131,0.02667822130024433,-0.04990680515766144,0.03061787225306034,0.028405513614416122,-0.019601283594965935,-0.017468364909291267,0.02466103620827198,0.032309871166944504,0.007473282050341368,-0.08565673977136612,-0.03440787270665169,0.06987585127353668,0.01428003329783678,-0.03451205790042877,0.03573086857795715,0.018787790089845657,0.03847314417362213,-0.016495736315846443,-0.013476020656526089,-0.03718771040439606,-0.02872929722070694,-0.10314405709505081,-0.012508486397564411,0.035869356244802475,-0.017408210784196854,0.01088344119489193,-0.042189549654722214,0.07574697583913803,0.030324125662446022,0.013533294200897217,-0.06349393725395203,0.027542490512132645,-0.049352776259183884,0.005811627022922039,0.07166438549757004,-0.030451815575361252,-0.04533231258392334,0.03950848430395126,-0.05746747553348541,0.028716696426272392,0.027115046977996826,0.06936763972043991,0.04610186070203781,0.050769124180078506,-0.012691338546574116,0.034867554903030396,0.02845221385359764,-0.046090614050626755,-0.021180881187319756,-0.05118945986032486,0.05848769098520279,0.01173823606222868,-0.05563856288790703,-0.004888766910880804,-0.025859881192445755,0.04570476710796356,-0.0283097755163908,0.08174649626016617,0.028718559071421623,-0.005194039549678564,0.04585892707109451,0.06236160546541214,-0.043741464614868164,-0.055787742137908936,-0.018109645694494247,-0.03604458272457123,0.09866373240947723,-0.005632143467664719,0.004933856427669525,0.04115266352891922,-0.012801789678633213,0.05300067365169525,0.04869924858212471,-0.0408439040184021,-0.07780212163925171,0.06019701808691025,-0.008780152536928654,-0.012325640767812729,0.025668546557426453,-0.026497995480895042,0.013214780017733574,0.024768788367509842,0.026080908253788948,0.0029350905679166317,0.034171685576438904,-0.008888326585292816,0.055597785860300064,0.006059073843061924,0.06734510511159897,-0.029505688697099686,-0.04696623608469963,0.06671271473169327,0.02184554748237133,0.022604309022426605,-0.03378768637776375,0.03689514845609665,-0.013734092935919762,0.002166575286537409,-0.1013893187046051,0.055642638355493546,-0.01817936822772026,0.0056585161946713924,-0.03353630751371384,0.0494142547249794,0.02141759544610977,-0.011105693876743317,0.04448181390762329,-0.04037583991885185,0.031948670744895935,-0.05795339494943619,0.051679614931344986
img4.png,0.005214433651417494,0.015533901751041412,-0.0335247777402401,-0.03912165015935898,0.008415866643190384,-0.07114419341087341,0.07576997578144073,0.03541187569499016,-0.009604462422430515,-0.016702091321349144,0.029764385893940926,-0.0007274259114637971,-0.004733981564640999,-0.007036587689071894,-0.05345997214317322,0.016509318724274635,-0.09381918609142303,0.0021020076237618923,-0.03482866287231445,0.04043275862932205,-0.00300062564201653,0.012553757056593895,-0.07286866754293442,-0.039156507700681686,0.022131269797682762,-0.031819187104701996,0.002070739632472396,-0.07593347132205963,-0.053049080073833466,-0.07882870733737946,-0.010100013576447964,0.00894294772297144,0.04476730152964592,0.09637638181447983,-0.01112096756696701,0.035970691591501236,-0.024391349405050278,0.047519661486148834,0.00890214554965496,-0.019740166142582893,-0.007641732692718506,0.012556347995996475,0.02321338839828968,0.0012242168886587024,-0.07547428458929062,0.03022521361708641,-0.12942387163639069,0.017485657706856728,-0.029072241857647896,-0.0072453320026397705,-0.015894262120127678,-0.025800753384828568,-0.011131323873996735,0.0464303158223629,-0.012129307724535465,0.0009793854551389813,-0.02196311764419079,0.0012474169488996267,-0.05566994845867157,-0.06031891331076622,0.01888393796980381,0.06322047859430313,0.029483798891305923,0.014479934237897396,0.029734481126070023,-0.050422120839357376,-0.03377271443605423,-0.0686696469783783,0.05802309513092041,0.02410123124718666,-0.06471779197454453,-0.08780377358198166,0.01783728040754795,-0.01358385942876339,0.04524247720837593,0.024336768314242363,-0.011872599832713604,0.02541297674179077,0.006533966865390539,-0.0036444978322833776,-0.016524266451597214,0.06256259232759476,-0.04318015277385712,-0.05068012699484825,0.04799175262451172,0.058985162526369095,0.0732840821146965,-0.039303988218307495,-0.0583823062479496,-0.006684182211756706,-0.061142176389694214,-0.006482420023530722,-0.023470614105463028,-0.019722525030374527,-0.014434482902288437,-0.018123917281627655,0.01967189833521843,-0.040309835225343704,-0.04309285804629326,0.007034594193100929,-0.03208886831998825,0.04073731228709221,-0.0038558284286409616,0.024287862703204155,-0.01764911785721779,-0.0721091628074646,0.06297766417264938,0.0674033984541893,0.0016669785836711526,-0.033993180841207504,-0.01485896110534668,-0.04034632071852684,0.03132132068276405,-0.04840467870235443,-0.008474175818264484,-0.02732207253575325,-0.010823933407664299,0.05500753968954086,-0.057179875671863556,-0.04373553395271301,-0.08233653753995895,-0.022290293127298355,-0.019904421642422676,0.07715940475463867,-0.07268695533275604,-0.02732362039387226,0.023995786905288696,-0.06634464859962463,-0.03544235974550247,0.026361748576164246,-0.04924888163805008,-0.017915217205882072,0.0010983231477439404,-0.041668154299259186,0.030215388163924217,-0.011621044017374516,0.13561126589775085,0.007648982107639313,-0.08049488812685013,0.0049729482270777225,0.1039154902100563,-0.00746601028367877,-0.03234274312853813,0.04534914344549179,-0.04612550139427185,-0.02559410035610199,-0.028714967891573906,0.0498264841735363,-0.055837810039520264,-0.0038346792571246624,-0.009645725600421429,-0.07070374488830566,-0.10372226685285568,-0.02830883488059044,0.03776993602514267,0.020775524899363518,0.0012124426430091262,0.08315017074346542,-0.05971348285675049,0.07194940000772476,0.010997810401022434,0.07290063798427582,0.022509410977363586,-0.020797787234187126,-0.03182079270482063,0.011560694314539433,-0.07474091649055481,0.056680794805288315,0.007385734003037214,0.039903976023197174,-0.0008757029427215457,0.0031244121491909027,-0.02672106772661209,-0.01102421898394823,0.0338786244392395,0.013850238174200058,-0.021653318777680397,-0.02653520740568638,-0.07706625759601593,0.06528469175100327,0.04059024527668953,0.008367921225726604,0.05146685615181923,0.02242736704647541,0.06303691864013672,0.000574535399209708,0.03516474366188049,-0.04183502122759819,0.029119214043021202,0.03510832041501999,-0.018785076215863228,0.004213219042867422,-0.01765475422143936,-0.04555308818817139,0.02583005093038082,0.015395568683743477,-0.020443568006157875,0.02820080704987049,0.03650186210870743,-0.0013632331974804401,0.06270988285541534,0.007852230221033096,-0.015405594371259212,-0.0047677927650511265,0.04443994164466858,0.013891266658902168,-0.057231854647397995,0.010431713424623013,-0.0031519094482064247,0.05810437723994255,0.05993203446269035,-0.05884816125035286,0.017466962337493896,-0.06274934113025665,-0.050543226301670074,-0.007716829422861338,0.008743714541196823,0.004605153109878302,0.011043294332921505,-0.0193950142711401,0.0024564422201365232,0.021185846999287605,0.03826802596449852,0.06245863065123558,0.05318264290690422,-0.02188199572265148,0.05732042342424393,0.01450957078486681,-0.05743629112839699,-0.045396678149700165,-0.04510010406374931,0.03747079521417618,-0.042516421526670456,-0.07369475811719894,-0.0054669748060405254,0.025612063705921173,-0.021895229816436768,-0.009264419786632061,0.024250667542219162,0.030402276664972305,0.03547746688127518,-0.047289133071899414,-0.08070917427539825,0.02594877779483795,-0.010891293175518513,0.05015483871102333,0.030078109353780746,-0.015970610082149506,0.0015430538915097713,0.0005098286201246083,-0.038151465356349945,0.05291351303458214,0.02621656097471714,0.023652981966733932,0.04753810912370682,0.02976933866739273,-0.06898961961269379,0.04809388145804405,-0.05142410472035408,0.06157245486974716,0.017146168276667595,0.04475495219230652,-0.05798698589205742,0.002989200409501791,-0.055120885372161865,0.023097708821296692,0.006169574800878763,-0.00624789297580719,0.0017939904937520623,-0.008629074320197105,-0.019685465842485428,-0.061238233000040054,-0.06166943907737732,-0.02082796022295952,0.1257779598236084,0.09495914727449417,0.016061140224337578,-0.09022768586874008,-0.011002175509929657,0.061021625995635986,-0.03019361011683941,0.00939144566655159,-0.06445938348770142,-0.053084053099155426,-0.028451915830373764,-0.004664519801735878,-0.0016486112726852298,0.019409606233239174,0.016016120091080666,0.08892092853784561,-0.02149908058345318,-0.05518408492207527,0.05703218653798103,-0.006630744319409132,0.07592834532260895,-0.038772955536842346,-0.02794916369020939,0.00047788687516003847,-0.022131899371743202,0.008195632137358189,-0.04867897555232048,0.028943100944161415,0.020341994240880013,0.02384973131120205,-0.030115539208054543,0.01877971738576889,-0.027707131579518318,-0.05067566782236099,0.026399577036499977,-0.08944632858037949,-0.03628968447446823,0.04832100495696068,0.06982745230197906,-0.0007502988446503878,0.03702126815915108,-0.008903992362320423,0.03490985557436943,0.0037436934653669596,0.016378048807382584,-0.014542740769684315,-0.04948178678750992,0.006076438818126917,-0.01241760328412056,-0.028215160593390465,-0.020910048857331276,0.03532574698328972,-0.044048506766557693,-0.003946864046156406,-0.05427069962024689,-0.04307939484715462,-0.019850153475999832,0.008051379583775997,-0.027915848419070244,0.08226583898067474,0.05167337507009506,0.064069963991642,0.03939268738031387,-0.07381196320056915,-0.030459491536021233,-0.028259754180908203,-0.0021552371326833963,0.04549085721373558,0.04075910896062851,-0.08982672542333603,-0.03514629229903221,-0.022911062464118004,0.00559711828827858,0.04829855635762215,-0.06136522442102432,0.009478919208049774,-0.08458925038576126,0.09062725305557251,0.0812620148062706,0.02726883813738823,-0.0060118744149804115,-0.0007847545202821493,-0.02920733205974102,-0.04623938351869583,0.028878021985292435,0.02508305199444294,-0.0057280948385596275,-0.003414721926674247,0.08875180035829544,-0.015791917219758034,-0.04086177051067352,0.054296594113111496,0.005676753353327513,0.05342153459787369,0.03231358155608177,-0.08196370303630829,0.01501142606139183,-0.025506727397441864,0.044352348893880844,0.02874511107802391,-0.07664225995540619,0.004168209619820118,-0.016378063708543777,0.031292594969272614,-0.051683031022548676,0.03361080586910248,0.06304311752319336,0.0445639044046402,0.009925175458192825,-0.0005994646926410496,0.053072065114974976,-0.049695901572704315,0.04487161710858345,0.029351770877838135,0.059695348143577576,0.0737738385796547,-0.012833633460104465,-0.0384802408516407,-0.022103216499090195,0.004835557658225298,-0.07846441119909286,0.009888540022075176,-0.014487347565591335,0.004690031986683607,-0.02279547043144703,-0.03153194114565849,0.020519865676760674,-0.041983988136053085,-0.023087823763489723,-0.09061737358570099,0.014715978875756264,0.10359280556440353,-0.043106913566589355,-0.04077446833252907,0.024729637429118156,-0.010234251618385315,-0.02757295034825802,0.03234404698014259,0.03409848362207413,-0.05439480021595955,-0.06531909108161926,-0.03015238791704178,0.0015783135313540697,-0.02986580692231655,-0.05887208506464958,-0.0039983391761779785,0.005133054684847593,0.015121737495064735,-0.052599601447582245,-0.013689800165593624,0.05519335716962814,-0.0037222581449896097,0.010729440487921238,-0.05700114741921425,0.09020646661520004,0.0029160669073462486,-0.01702025532722473,-0.06189287453889847,-0.053701989352703094,-0.0834113135933876,0.012950645759701729,0.001246769679710269,-0.05314772576093674,-0.04181896522641182,0.0013010237598791718,-0.025393046438694,-0.039438746869564056,0.06004098057746887,-0.02406127192080021,0.047875355929136276,0.00012425270688254386,-0.05763881653547287,-0.0017891607712954283,0.04035943001508713,-0.05185498669743538,-0.01529331412166357,0.02226887084543705,-0.05608486756682396,0.008777583949267864,-0.050689697265625,-0.07905107736587524,-0.07776384800672531,0.059666965156793594,0.02290431037545204,0.047955773770809174,0.01566712185740471,0.05760030820965767,0.11527786403894424,0.11013631522655487,-0.034193120896816254,0.0050620390102267265,0.13409803807735443,0.0295424647629261,-0.032013505697250366,0.006405762862414122,-0.038490790873765945,-0.022510690614581108,-0.008847578428685665,-0.06041968986392021,-0.08004701137542725,-0.07749740779399872,-0.0370950810611248,-0.03582073003053665,0.09996791929006577,0.005360641982406378,-0.10568041354417801,-0.0059623513370752335,-0.04435312747955322,-0.0070257107727229595,0.014260893687605858,0.03778592497110367,-0.0409412756562233,0.0653543546795845,-0.00923279207199812,-0.06506215035915375,0.008335393853485584,0.02014547772705555,-0.04402200132608414,0.08691859245300293,0.029763855040073395,0.00403740257024765,-0.031402960419654846,-0.03844376653432846,0.005360816605389118,0.03811002895236015,-0.07738647609949112,-0.02378850430250168,0.025518838316202164,-0.04563526809215546,1.0532568012422416e-05,-0.00885359849780798,-0.025687724351882935,0.0551070012152195,0.0023902959655970335,-0.005361251067370176,-0.07397634536027908,-0.017714424058794975,0.02012770250439644
img5.png,-0.01602506823837757,-0.028524722903966904,0.07251696288585663,0.0478769987821579,0.00532790832221508,0.014021148905158043,0.057608794420957565,-0.04211890324950218,0.094607412815094,-0.04292582347989082,0.06455916166305542,-0.039642732590436935,0.03621986508369446,0.012615653686225414,0.013099377043545246,-0.0895831361413002,-0.03810592740774155,0.05024605616927147,0.031250350177288055,0.03914512321352959,-0.04163016006350517,0.018671710044145584,0.03825006261467934,0.028591174632310867,-0.053575173020362854,0.002938528312370181,-0.061927370727062225,0.002268836833536625,-0.051585420966148376,-0.01605129800736904,0.036190081387758255,0.09789261966943741,-0.0029582183342427015,-0.04853101819753647,0.02767355926334858,0.01428072527050972,0.023776032030582428,0.07975655049085617,0.022893449291586876,-0.027264626696705818,0.06362079828977585,0.011339833959937096,-0.0225322674959898,-0.023812323808670044,0.009763765148818493,-0.04592110961675644,0.02975805476307869,0.04903562739491463,-0.01736821047961712,-0.07881682366132736,-0.003616380039602518,0.03094777651131153,-0.01040677446871996,0.09079942107200623,0.006853464059531689,0.024943727999925613,-0.014018830843269825,0.05913570150732994,-0.01117563247680664,-0.023947378620505333,-0.04184937849640846,-0.024517403915524483,0.005793448071926832,-0.02384442463517189,0.018976524472236633,-0.02350493334233761,-0.05433863401412964,-0.004112136550247669,-0.02225480042397976,0.036127232015132904,0.024559637531638145,0.07214807718992233,-0.06368858367204666,-0.05552080646157265,0.04718718305230141,-0.08559038490056992,-0.015354277566075325,0.01086384803056717,-0.06199447065591812,-0.062357351183891296,0.018975859507918358,0.09720011055469513,-0.039761755615472794,-0.025062618777155876,0.008825591765344143,0.07618211209774017,0.07590015977621078,-0.06723539531230927,0.015079343691468239,0.03712896257638931,0.030550241470336914,0.047081924974918365,0.01897953636944294,0.03990504518151283,0.04776999354362488,-0.005474611651152372,0.016521411016583443,0.019024519249796867,-0.03930645436048508,-0.03733580932021141,-0.01419821660965681,0.003628289559856057,-0.03553231060504913,-0.04496844857931137,0.05721760913729668,0.0004778704314958304,-0.004357143305242062,0.09094682335853577,-0.013578938320279121,0.07716268301010132,0.05870462954044342,0.09235196560621262,-0.06872203946113586,-0.025716658681631088,-0.014276710338890553,0.050092149525880814,0.05244561284780502,0.028717052191495895,-0.06622496247291565,0.018066376447677612,-0.07956299185752869,0.007121250499039888,0.05015081912279129,-0.001131100463680923,-0.016877546906471252,0.05018385127186775,0.03263000026345253,-0.03293946012854576,-0.04749411344528198,-0.05290214344859123,0.04484088346362114,0.0009702192037366331,0.03218183293938637,0.024306364357471466,0.037655603140592575,0.03986135870218277,-0.056249070912599564,0.0023379498161375523,-0.012064328417181969,-0.015402315184473991,-0.05717511847615242,0.02730557695031166,0.029913311824202538,0.11064694076776505,-0.025371311232447624,0.0231038648635149,0.019728772342205048,0.08070375770330429,-0.002864574082195759,-0.03037775494158268,0.0659988522529602,-0.03529734909534454,-0.005683461204171181,-0.0416012704372406,-0.026498524472117424,0.06335176527500153,-0.02138635329902172,0.04331553727388382,0.05887891352176666,-0.007200382649898529,-0.032851073890924454,0.032082099467515945,-0.029952220618724823,-0.010656220838427544,-0.06020190566778183,-0.04053075239062309,-0.0706203505396843,-0.040221843868494034,0.04231777787208557,0.04211920127272606,0.0004198701062705368,-0.043631069362163544,-0.024230243638157845,-0.03349093347787857,0.006266395561397076,0.0808509886264801,-0.04808005318045616,0.01906316541135311,0.022253120318055153,-0.002782471477985382,-0.011871648952364922,0.03510572388768196,0.019761638715863228,0.013980275020003319,0.03262731060385704,0.030111296102404594,0.07577192783355713,0.05392344668507576,0.023149579763412476,-0.029566289857029915,0.09125673770904541,-0.05791009962558746,-0.03876460716128349,-0.005438472144305706,0.02709190547466278,-0.05165697634220123,-0.04240000247955322,-0.041197191923856735,0.015018920414149761,0.00033551512751728296,0.07891010493040085,-0.005564124323427677,0.014097212813794613,0.024172544479370117,0.021300725638866425,0.045906685292720795,-0.023636365309357643,-0.010536308400332928,0.08770116418600082,-0.039582837373018265,-0.029239390045404434,-0.06469950079917908,-0.012157215736806393,-0.05227179825305939,-0.04423760250210762,-0.027108006179332733,0.08133236318826675,0.01965073123574257,0.03283410519361496,-0.011923573911190033,0.01777605526149273,-0.017864149063825607,-0.05223087966442108,-0.019917024299502373,-0.03293248638510704,0.024098413065075874,0.04043895751237869,0.12547211349010468,-0.03275096043944359,-0.04397884011268616,0.0012236523907631636,0.0075495075434446335,-0.013904949650168419,0.052066415548324585,-0.005736667197197676,0.07792381197214127,-0.060056935995817184,0.041257262229919434,-0.014220313169062138,0.025220725685358047,-0.07439360022544861,0.019419701769948006,-0.007691385690122843,0.06399888545274734,0.016394248232245445,-0.079979807138443,0.013550841249525547,-0.03253791853785515,-0.06054256111383438,0.07430067658424377,0.05132646486163139,-0.0567929744720459,-0.0019337121630087495,0.05759510397911072,0.031054329127073288,0.03970147669315338,-0.04438069835305214,-0.06980602443218231,0.005725599825382233,-0.005931284744292498,-0.025545718148350716,-0.029530279338359833,0.08843677490949631,0.03613676503300667,-0.039940476417541504,0.0014760569902136922,0.030083484947681427,0.05109072104096413,0.03542902320623398,0.01665337197482586,-0.024843746796250343,0.006338254548609257,-0.020982515066862106,0.06738997995853424,0.029727773740887642,-0.06943989545106888,-0.06130160763859749,-0.02627721056342125,0.007362785283476114,-0.03672568127512932,-0.07971613854169846,0.03560274466872215,0.01865936629474163,-0.044815968722105026,-0.003251686692237854,0.01897280290722847,0.020342189818620682,0.01551809161901474,-0.029505938291549683,-0.07243742048740387,0.04996447637677193,0.03701787441968918,0.02462267130613327,0.019486742094159126,0.0012811040505766869,-0.020166076719760895,0.060485608875751495,-0.049812860786914825,-0.02602788619697094,-0.06788177788257599,-0.02930092252790928,0.08780079334974289,0.0059022982604801655,0.058486208319664,0.06494812667369843,-0.00874708779156208,-0.11078991740942001,0.03861984610557556,0.06560669839382172,0.0320155955851078,0.0897081047296524,0.05501164495944977,0.07009372860193253,0.082387775182724,0.02473554015159607,-0.011920343153178692,0.06802909076213837,0.046611350029706955,-0.028056064620614052,-0.024026690050959587,-0.034106649458408356,0.02842653915286064,0.052122026681900024,0.08162018656730652,0.030703652650117874,-0.02335459180176258,0.038045406341552734,-0.007970437407493591,0.06360229849815369,-0.05703026428818703,-0.10125072300434113,-0.027764765545725822,0.11434069275856018,0.0003105596115346998,0.01663278043270111,-0.01688455417752266,0.06598292291164398,0.036472681909799576,0.050230786204338074,-0.05646677315235138,0.048373833298683167,-0.0485258474946022,-0.07409463822841644,-0.05107241868972778,0.03312138468027115,-0.05015159770846367,0.035581860691308975,0.05717605724930763,-0.015177604742348194,-0.028851408511400223,0.06519196927547455,0.037064287811517715,-0.05697093904018402,0.033085137605667114,0.025151941925287247,0.07051239162683487,0.04322155937552452,-0.046172041445970535,0.07247185707092285,0.05907239764928818,0.008067990653216839,0.0539582297205925,0.05968375504016876,0.03932790458202362,-0.021818846464157104,-0.001436137594282627,-0.05684256553649902,-0.03604792058467865,0.05282039940357208,-0.00928060058504343,-0.02448689378798008,-0.03215257450938225,-0.029114995151758194,-0.007592199835926294,0.04329228401184082,0.03451719135046005,0.048305775970220566,-0.03212791681289673,0.06528599560260773,0.027345357462763786,0.03133546933531761,-0.017690010368824005,0.024962211027741432,0.06342903524637222,0.022550294175744057,0.014380999840795994,-0.010447275824844837,0.030190197750926018,0.04025823995471001,-0.03134719282388687,-0.012341092340648174,-0.018159713596105576,0.03855573758482933,-0.0370788499712944,0.012653402984142303,-0.02343776263296604,0.0015762109542265534,-0.013770001009106636,-0.029069215059280396,0.004304987844079733,-0.02176452800631523,-0.048222027719020844,0.027245955541729927,-0.018979985266923904,0.03020988218486309,-0.03395254537463188,-0.032966889441013336,0.03900684043765068,0.04227504879236221,-0.05051515996456146,0.06901481747627258,0.01786135882139206,-0.04221281409263611,-0.05298908054828644,-0.025618648156523705,0.016851777210831642,-0.08661618828773499,0.00027349882293492556,-0.01833198219537735,-0.018922977149486542,0.017744412645697594,-0.06908637285232544,-0.060507915914058685,0.05860069394111633,-0.052426353096961975,-0.07003956288099289,-0.0013490288984030485,-0.027483170852065086,-0.09993083775043488,-0.04235490411520004,0.01930992677807808,0.045730117708444595,0.0411941222846508,0.05541226267814636,-0.0317673534154892,0.021216396242380142,-0.038826730102300644,-0.024506142362952232,-0.03634871542453766,-0.08577321469783783,0.003788500092923641,-0.004125227686017752,0.08107511699199677,-0.02735639363527298,0.04471180588006973,-0.08822127431631088,0.0010230487678200006,0.024904020130634308,0.00593885313719511,0.10730772465467453,-0.06871596723794937,-0.026769189164042473,-0.026199614629149437,-0.002168353646993637,-0.0004248696204740554,0.04467242211103439,-0.038822371512651443,-0.014320120215415955,0.016195015981793404,-0.047134678810834885,-0.03410647436976433,0.012398911640048027,-0.02560076117515564,-0.02459120564162731,-0.06570547074079514,0.013506955467164516,-0.021392693743109703,0.04692065715789795,0.0009497928549535573,0.030931534245610237,-0.001229700748808682,-0.06906244903802872,-0.08489762991666794,-0.04466595873236656,0.020677413791418076,-0.005058056674897671,-0.021984992548823357,0.08817663043737411,-0.013545282185077667,-0.025920866057276726,0.017050156369805336,0.0016682988498359919,-0.0236147940158844,-0.009127618744969368,-0.01727207936346531,-0.024119650945067406,0.056542448699474335,0.011774890124797821,0.039125069975852966,-0.04539334028959274,0.0010372587712481618,0.005911703687161207,-0.022565333172678947,0.023320328444242477,0.004240603186190128,0.02374172769486904,-0.06803123652935028,-0.009046082384884357,-0.01227743923664093,0.02274782769382,-0.018825767561793327,-0.06717317551374435,0.025842346251010895,0.010614797472953796,0.026661992073059082,-0.06390652805566788,-0.00948537327349186,-0.05045164376497269,0.10737323760986328,0.014535202644765377,-0.04715127870440483,0.00968585442751646
